//-----------------------------------------------------------------------------
// Network: m4lmelamet
// Inputs:
//                                                  Offset       Scale
//    f_mass4l                                   1.177e+02   1.978e+01
//    f_D_bkg_kin                                4.600e-01   2.857e-01
//    f_pfmet                                    1.757e+02   2.512e+02
//
// Created: Thu May 25 10:10:28 2017 by netwrite.py
//-----------------------------------------------------------------------------
#include <cmath>
#include <vector>
#include <iostream>
#include <stdlib.h>
//-----------------------------------------------------------------------------
// Make following visible only to this programming unit
namespace m4lmelamet_{
  // NOTE: Network indices start at 0
  static const int nnetworks=100;
  static const int ninputs  =3;
  static const int nhidden  =10;
  static const int nparams  =51;

  static const double mean[ninputs]={
  1.1770e+02,
  4.6000e-01,
  1.7570e+02
  };

  static const double sigma[ninputs]={
  1.9780e+01,
  2.8570e-01,
  2.5120e+02
  };

  static const double weight[nnetworks][nparams]={
    {-2.9400e-01, 8.6100e-01, 2.7000e-02, 6.4200e-01, 9.2800e-01, 3.2000e-02,
      1.5710e+00,-1.8910e+00, 2.0170e+00, 5.6700e-01,-5.2700e-01,-1.4920e+00,
      2.3270e+00,-3.3010e+00,-2.1650e+00,-8.0700e-01,-5.7000e-02,-1.3400e+00,
     -5.5100e-01, 1.9800e-01, 1.2980e+00, 8.9000e-02, 1.4000e-01, 3.3180e+00,
     -6.1300e-01, 1.1470e+00, 1.1720e+00,-1.3900e+00,-3.6200e-01, 2.6810e+00,
      3.1100e-01, 1.9800e-01, 2.1130e+00,-2.8990e+00, 5.0500e-01,-3.4600e-01,
      2.5670e+00, 1.5180e+00, 4.2400e-01, 2.7240e+00,-1.5750e+00,-5.4950e+00,
     -1.1930e+00,-2.8870e+00, 1.4690e+00,-1.4520e+00, 7.2470e+00,-1.0230e+00,
      4.0740e+00, 3.2520e+00, 1.5080e+00
    },
    {-2.1300e-01, 8.5900e-01,-0.0000e+00, 6.0100e-01, 7.5900e-01, 1.5700e-01,
      1.4760e+00,-1.8430e+00, 1.7890e+00, 7.5200e-01,-3.4200e-01,-2.0210e+00,
      2.1930e+00,-3.4260e+00,-2.1210e+00,-5.3900e-01,-2.8400e-01,-1.4240e+00,
     -5.9500e-01, 2.3000e-01, 1.1890e+00, 1.2200e-01, 1.8700e-01, 3.2280e+00,
     -5.7900e-01, 1.1480e+00, 1.1250e+00,-1.6350e+00,-1.2000e-01, 2.3990e+00,
      2.5000e-02, 4.9100e-01, 2.0420e+00,-2.8660e+00, 3.5100e-01,-2.8400e-01,
      2.5060e+00, 1.3040e+00, 6.4300e-01, 2.2350e+00,-1.3850e+00,-6.0560e+00,
     -4.9700e-01,-2.7540e+00, 1.2430e+00,-1.0670e+00, 6.9640e+00,-5.4000e-01,
      4.5780e+00, 2.9780e+00, 1.1380e+00
    },
    {-9.6000e-02, 6.8600e-01, 1.1000e-02, 9.1600e-01, 9.2500e-01, 3.5000e-02,
      1.5860e+00,-1.9740e+00, 1.6180e+00, 8.2800e-01,-5.1100e-01,-1.8680e+00,
      2.1970e+00,-3.2770e+00,-2.0790e+00,-5.5100e-01,-4.3000e-01,-1.4930e+00,
     -6.8400e-01,-8.9000e-02, 1.1830e+00, 2.6100e-01, 1.1400e-01, 3.1160e+00,
     -6.4900e-01, 1.2090e+00, 1.1080e+00,-1.5580e+00,-1.3600e-01, 2.2400e+00,
      2.7300e-01, 3.3600e-01, 2.0930e+00,-2.6920e+00, 2.7400e-01, 2.9000e-02,
      2.5120e+00, 1.1660e+00, 5.0200e-01, 2.3200e+00,-1.5540e+00,-5.6900e+00,
     -4.8700e-01,-3.0330e+00, 1.1820e+00,-1.1310e+00, 6.9880e+00,-8.0800e-01,
      3.6400e+00, 2.9670e+00, 9.1300e-01
    },
    {-7.9000e-02, 5.6900e-01, 1.8000e-02, 1.1210e+00, 1.0250e+00,-2.1300e-01,
      1.5890e+00,-1.9740e+00, 1.5480e+00, 9.8600e-01,-3.8500e-01,-2.0870e+00,
      2.2040e+00,-3.1900e+00,-2.0610e+00,-4.9400e-01,-5.9900e-01,-1.3960e+00,
     -9.0800e-01,-3.2100e-01, 1.2950e+00, 2.0100e-01, 1.2300e-01, 3.0750e+00,
     -6.9900e-01, 1.2120e+00, 1.2150e+00,-1.6090e+00,-2.9000e-02, 2.0910e+00,
      2.9100e-01, 3.2900e-01, 1.9360e+00,-2.4880e+00, 3.6500e-01, 6.1000e-02,
      2.1810e+00, 9.9200e-01, 3.0100e-01, 2.4940e+00,-1.9460e+00,-5.5160e+00,
     -9.8100e-01,-3.4980e+00, 1.2560e+00,-1.0490e+00, 7.0440e+00,-9.2800e-01,
      3.8910e+00, 3.1540e+00, 9.6500e-01
    },
    {-4.1700e-01, 4.6400e-01,-6.8000e-02, 1.1400e+00, 9.0600e-01,-4.2000e-02,
      1.1330e+00,-1.9940e+00, 1.5090e+00, 1.3390e+00,-1.2900e-01,-2.2640e+00,
      2.0620e+00,-2.9860e+00,-2.1030e+00,-3.9100e-01,-1.6700e-01,-1.5100e+00,
     -7.6300e-01,-6.6000e-02, 1.1240e+00, 1.4200e-01, 1.5400e-01, 2.9140e+00,
     -9.5300e-01, 1.1550e+00, 1.1670e+00,-1.6460e+00, 2.4500e-01, 2.3170e+00,
      2.8300e-01, 3.3900e-01, 2.1480e+00,-2.8000e+00, 4.1900e-01,-1.8000e-01,
      2.3360e+00, 1.1010e+00, 5.5100e-01, 2.2560e+00,-2.5580e+00,-5.1320e+00,
     -1.3180e+00,-3.7000e+00, 9.7900e-01,-6.8700e-01, 7.0310e+00,-1.2530e+00,
      3.9770e+00, 3.1350e+00, 8.8600e-01
    },
    {-4.3700e-01, 3.6500e-01, 2.8000e-02, 1.0260e+00, 9.5700e-01, 4.1600e-01,
      1.5980e+00,-1.7980e+00, 1.4530e+00, 1.0200e+00,-3.3900e-01,-2.5180e+00,
      2.3390e+00,-2.7400e+00,-2.1820e+00,-4.4300e-01,-3.6700e-01,-1.6410e+00,
     -1.1840e+00, 1.0100e-01, 1.1820e+00, 1.8800e-01, 1.4300e-01, 3.1650e+00,
     -6.1300e-01, 1.1010e+00, 1.3070e+00,-1.5620e+00, 4.1000e-02, 2.5530e+00,
      3.4600e-01, 4.3700e-01, 1.6320e+00,-2.8500e+00, 3.6500e-01,-4.8400e-01,
      2.4300e+00, 9.0300e-01, 4.2300e-01, 1.8940e+00,-2.2260e+00,-5.1570e+00,
     -8.7000e-01,-3.9920e+00, 1.1270e+00,-1.0410e+00, 6.5400e+00,-1.6060e+00,
      3.1730e+00, 3.2630e+00, 1.7390e+00
    },
    {-5.3800e-01, 4.5100e-01,-7.5000e-02, 1.0400e+00, 9.2800e-01, 2.2600e-01,
      1.5300e+00,-1.5080e+00, 1.4920e+00, 8.6500e-01,-2.5700e-01,-2.5060e+00,
      2.2600e+00,-2.7350e+00,-2.2360e+00,-4.9200e-01,-3.7500e-01,-1.7810e+00,
     -1.3810e+00,-7.7000e-02, 1.1720e+00, 1.4600e-01, 1.6600e-01, 3.0890e+00,
     -4.6300e-01, 1.3480e+00, 1.1230e+00,-1.5400e+00, 4.2000e-02, 2.4970e+00,
      2.3400e-01, 4.2600e-01, 1.7480e+00,-2.7310e+00, 3.1700e-01,-3.3400e-01,
      2.2910e+00, 7.7000e-01, 3.5500e-01, 1.9290e+00,-1.8610e+00,-4.2490e+00,
     -1.3940e+00,-3.8690e+00, 1.3090e+00,-1.4200e+00, 6.7610e+00,-1.8880e+00,
      3.4010e+00, 3.3610e+00, 1.8400e+00
    },
    {-5.2700e-01, 6.6000e-01,-6.6000e-02, 1.0890e+00, 1.0080e+00,-1.9000e-02,
      1.9480e+00,-1.3170e+00, 1.3420e+00, 9.1100e-01,-5.0600e-01,-2.5780e+00,
      2.1710e+00,-2.9440e+00,-2.1990e+00,-4.9600e-01,-2.3300e-01,-1.8020e+00,
     -1.4350e+00,-2.6500e-01, 1.1640e+00, 2.3100e-01, 2.7900e-01, 3.0390e+00,
     -1.6000e-01, 1.3560e+00, 1.3400e+00,-1.4640e+00, 9.0000e-02, 2.4730e+00,
      6.4000e-02, 4.9000e-01, 1.8130e+00,-2.8640e+00, 2.2900e-01,-3.3700e-01,
      2.2260e+00, 6.4300e-01, 5.5500e-01, 1.7390e+00,-1.7060e+00,-4.3320e+00,
     -1.3690e+00,-4.1910e+00, 1.6640e+00,-1.5450e+00, 6.9040e+00,-1.6700e+00,
      3.5260e+00, 3.4300e+00, 1.5330e+00
    },
    {-7.1500e-01, 4.8900e-01, 1.1600e-01, 6.5200e-01, 1.0780e+00, 1.7500e-01,
      1.5210e+00,-1.0250e+00, 1.5280e+00, 7.8400e-01,-2.5200e-01,-2.2200e+00,
      1.9900e+00,-2.8650e+00,-1.9240e+00,-4.2600e-01,-5.4000e-02,-1.7740e+00,
     -8.9400e-01, 1.7800e-01, 1.0900e+00,-4.4000e-02, 1.9200e-01, 2.8040e+00,
     -1.0300e-01, 1.4740e+00, 1.3030e+00,-1.1190e+00, 3.3000e-02, 2.0930e+00,
      3.5000e-02, 5.7700e-01, 1.9940e+00,-3.0180e+00, 3.1600e-01, 1.7000e-01,
      2.4080e+00, 6.1800e-01, 5.2100e-01, 1.5700e+00,-2.3180e+00,-4.9510e+00,
     -1.4740e+00,-3.9090e+00, 1.2090e+00,-2.5620e+00, 6.5470e+00,-1.3220e+00,
      3.9160e+00, 3.6590e+00, 1.6160e+00
    },
    {-7.0000e-01, 7.2500e-01,-9.9000e-02, 8.9800e-01, 9.7700e-01, 1.0300e-01,
      1.1420e+00,-7.8000e-01, 1.6330e+00, 5.8900e-01, 9.1000e-02,-2.4380e+00,
      1.7670e+00,-2.8420e+00,-2.0250e+00,-3.6800e-01,-5.9000e-02,-1.8150e+00,
     -1.0410e+00, 8.7000e-02, 1.0980e+00, 1.7000e-02, 1.1900e-01, 2.9330e+00,
     -2.3000e-02, 1.5010e+00, 1.2820e+00,-1.1940e+00, 5.3000e-02, 2.3790e+00,
      1.8000e-02, 8.0600e-01, 1.8300e+00,-2.8970e+00, 1.3800e-01, 2.2600e-01,
      2.1980e+00, 7.8700e-01, 5.2100e-01, 1.9090e+00,-1.4480e+00,-5.7780e+00,
     -1.4400e+00,-4.7610e+00, 1.5680e+00,-2.2740e+00, 6.9190e+00,-8.0900e-01,
      3.7120e+00, 3.5400e+00, 1.6490e+00
    },
    {-7.4500e-01, 7.2500e-01,-1.3000e-02, 1.1950e+00, 7.4300e-01, 1.2200e-01,
      1.3730e+00,-7.2600e-01, 1.5200e+00, 4.2700e-01, 7.3000e-02,-2.3700e+00,
      1.8970e+00,-2.7090e+00,-1.7540e+00,-2.2900e-01,-1.9100e-01,-1.8860e+00,
     -1.0720e+00,-1.3400e-01, 1.0820e+00, 1.1000e-02, 1.6100e-01, 3.1570e+00,
      1.5200e-01, 1.3570e+00, 1.1670e+00,-1.0780e+00, 1.3900e-01, 2.6930e+00,
      2.6000e-02, 7.9600e-01, 1.9630e+00,-2.7650e+00, 2.1800e-01, 2.8500e-01,
      2.2680e+00, 7.4700e-01, 5.8900e-01, 2.1150e+00,-1.2780e+00,-5.4850e+00,
     -6.1200e-01,-4.6800e+00, 1.5060e+00,-1.8060e+00, 7.0390e+00,-1.1390e+00,
      2.9280e+00, 2.9060e+00, 1.6420e+00
    },
    {-5.7000e-01, 6.8700e-01, 1.8500e-01, 7.7800e-01, 1.0950e+00, 3.7000e-02,
      1.1460e+00,-5.7500e-01, 1.5870e+00, 8.3100e-01, 2.5100e-01,-2.3820e+00,
      1.6500e+00,-2.6160e+00,-1.8170e+00,-9.3000e-02,-2.7400e-01,-1.5430e+00,
     -8.1900e-01,-4.9000e-02, 1.1550e+00, 1.2600e-01, 2.3500e-01, 2.9450e+00,
      3.6400e-01, 1.3050e+00, 1.4310e+00,-1.4410e+00, 3.0000e-02, 2.2880e+00,
      9.0000e-02, 4.0700e-01, 1.9300e+00,-2.6430e+00, 1.0500e-01, 1.3500e-01,
      2.1630e+00, 7.0000e-01, 6.2200e-01, 2.1800e+00,-7.9900e-01,-4.7940e+00,
     -2.6500e-01,-4.6440e+00, 1.4120e+00,-1.5440e+00, 7.2100e+00,-1.1890e+00,
      3.1800e+00, 2.9140e+00, 1.4490e+00
    },
    {-4.9500e-01, 6.3700e-01, 1.4200e-01, 7.9800e-01, 1.0350e+00, 1.6600e-01,
      1.0630e+00,-8.4600e-01, 1.6080e+00, 7.3300e-01, 1.6800e-01,-2.3720e+00,
      1.4960e+00,-2.3400e+00,-2.0780e+00,-4.2300e-01,-3.2500e-01,-1.5890e+00,
     -8.9700e-01,-3.2900e-01, 1.0670e+00, 5.7000e-02, 2.8200e-01, 2.8060e+00,
      3.6300e-01, 1.2300e+00, 1.4910e+00,-1.3890e+00, 4.1000e-02, 2.5950e+00,
      5.7000e-02, 5.7700e-01, 2.1610e+00,-2.5180e+00,-3.1000e-02, 3.7000e-01,
      2.0630e+00, 5.8800e-01, 5.6200e-01, 1.9960e+00,-1.3960e+00,-4.5620e+00,
     -2.3400e-01,-4.3810e+00, 1.2280e+00,-1.0840e+00, 6.8800e+00,-1.0580e+00,
      3.4400e+00, 3.0370e+00, 1.9020e+00
    },
    {-2.8300e-01, 5.2800e-01, 3.5200e-01, 5.0000e-01, 4.9300e-01, 8.0000e-02,
      9.4800e-01,-7.1900e-01, 1.6150e+00, 4.2000e-01, 4.7500e-01,-2.3950e+00,
      1.6070e+00,-2.0490e+00,-2.3440e+00,-5.8600e-01,-2.5500e-01,-1.8270e+00,
     -8.8200e-01,-4.9600e-01, 1.1030e+00, 1.7600e-01, 2.9400e-01, 2.8710e+00,
      4.9400e-01, 1.3090e+00, 1.8410e+00,-1.3930e+00, 1.3600e-01, 2.7570e+00,
      9.2000e-02, 2.8800e-01, 1.9440e+00,-2.5600e+00, 1.9800e-01, 1.8800e-01,
      2.0450e+00, 2.9600e-01, 8.4100e-01, 2.0920e+00,-9.6300e-01,-4.4860e+00,
     -7.6000e-02,-4.2950e+00, 8.7400e-01,-1.1550e+00, 6.8340e+00,-1.4520e+00,
      3.2710e+00, 3.7500e+00, 1.9690e+00
    },
    {-8.7000e-02, 5.7900e-01, 9.4000e-02, 9.3700e-01, 8.1600e-01, 1.1000e-01,
      1.0520e+00,-5.1300e-01, 1.2000e+00, 3.7600e-01, 7.7100e-01,-2.0150e+00,
      1.6850e+00,-2.0430e+00,-2.4530e+00,-1.0040e+00,-1.5900e-01,-1.6480e+00,
     -5.1000e-01,-3.1200e-01, 1.1300e+00, 1.8600e-01, 3.2800e-01, 2.9960e+00,
      5.7000e-01, 1.2250e+00, 1.6120e+00,-1.2650e+00, 1.4700e-01, 2.3660e+00,
     -6.7000e-02, 5.6300e-01, 2.0590e+00,-2.4530e+00,-1.3800e-01, 8.3000e-02,
      2.2460e+00, 4.2700e-01, 5.6400e-01, 2.6360e+00,-1.0840e+00,-4.9620e+00,
      4.9600e-01,-4.9160e+00, 1.5960e+00,-1.4040e+00, 7.3830e+00,-1.0820e+00,
      3.0500e+00, 3.2620e+00, 2.2630e+00
    },
    { 5.3000e-02, 4.3200e-01,-3.8000e-02, 1.0650e+00, 7.5600e-01,-1.7000e-02,
      1.1410e+00,-4.1200e-01, 1.1650e+00, 3.9500e-01, 6.7700e-01,-1.9360e+00,
      1.7440e+00,-1.8810e+00,-2.6170e+00,-1.2810e+00,-6.1800e-01,-1.3950e+00,
     -3.8300e-01,-4.7000e-02, 1.0510e+00, 1.8700e-01, 3.3300e-01, 3.0190e+00,
      6.4500e-01, 1.1720e+00, 1.3890e+00,-1.0720e+00, 1.9000e-01, 2.5090e+00,
     -1.9900e-01, 6.6800e-01, 1.8560e+00,-2.4120e+00,-8.0000e-03, 2.0000e-03,
      2.2470e+00, 3.3000e-01, 5.7200e-01, 3.0360e+00,-7.8400e-01,-5.0070e+00,
     -1.5200e-01,-4.9200e+00, 1.9090e+00,-1.9890e+00, 7.5980e+00,-1.1000e+00,
      3.3070e+00, 3.7260e+00, 1.7450e+00
    },
    { 1.0000e-03, 3.9700e-01, 5.0000e-02, 1.2320e+00, 5.5900e-01,-1.0800e-01,
      1.1950e+00,-3.7300e-01, 1.2890e+00, 3.8800e-01, 7.4600e-01,-1.7670e+00,
      1.8610e+00,-2.0120e+00,-2.4910e+00,-1.1520e+00,-4.2200e-01,-1.1330e+00,
     -1.7600e-01, 1.2800e-01, 9.3100e-01, 1.5800e-01, 3.4400e-01, 2.8920e+00,
      7.7600e-01, 1.2450e+00, 1.2380e+00,-1.0740e+00, 2.0700e-01, 2.4640e+00,
     -6.3000e-02, 8.4800e-01, 1.5610e+00,-2.2470e+00, 4.6000e-02, 5.4000e-02,
      2.4540e+00, 4.1000e-01, 5.0800e-01, 3.0240e+00,-4.8100e-01,-4.3830e+00,
     -2.4400e-01,-5.2720e+00, 1.8440e+00,-2.2010e+00, 7.4820e+00,-7.3700e-01,
      2.6850e+00, 3.9450e+00, 2.2610e+00
    },
    {-2.0800e-01, 4.3700e-01, 2.9500e-01, 1.1190e+00, 6.6200e-01,-2.3700e-01,
      1.1600e+00,-5.4000e-01, 1.1280e+00, 2.5800e-01, 8.4400e-01,-2.0470e+00,
      1.9060e+00,-1.8080e+00,-2.7880e+00,-1.0170e+00,-5.0800e-01,-1.3890e+00,
     -3.3300e-01, 1.4000e-02, 9.9200e-01, 9.8000e-02, 3.6100e-01, 2.6130e+00,
      3.9800e-01, 1.1660e+00, 1.3610e+00,-9.2900e-01, 1.9900e-01, 2.8070e+00,
     -2.1000e-02, 6.6200e-01, 1.3440e+00,-2.1160e+00, 9.8000e-02, 8.7000e-02,
      2.2650e+00, 3.6400e-01, 5.1400e-01, 2.6480e+00,-1.1540e+00,-4.3690e+00,
     -2.0400e-01,-5.1410e+00, 1.4100e+00,-2.2550e+00, 7.9700e+00,-8.3300e-01,
      2.9910e+00, 3.5470e+00, 1.6410e+00
    },
    {-1.1800e-01, 5.2200e-01, 2.2500e-01, 1.1120e+00, 6.8200e-01,-1.7000e-01,
      9.4500e-01,-5.0900e-01, 1.1830e+00, 4.6000e-01, 7.3100e-01,-1.8360e+00,
      1.8530e+00,-1.8030e+00,-3.0960e+00,-1.0800e+00,-5.3400e-01,-1.2300e+00,
     -3.0500e-01, 8.3000e-02, 1.0160e+00, 1.2200e-01, 3.0200e-01, 2.6740e+00,
      2.4400e-01, 1.1350e+00, 1.3120e+00,-8.8600e-01, 1.1100e-01, 2.6330e+00,
     -5.6000e-02, 6.6300e-01, 1.3970e+00,-2.1360e+00, 1.1200e-01, 1.0000e-01,
      2.4370e+00, 1.9800e-01, 4.6200e-01, 2.7580e+00,-7.3400e-01,-3.2080e+00,
      2.6600e-01,-5.3520e+00, 1.1820e+00,-1.6740e+00, 7.1550e+00,-7.8300e-01,
      3.2700e+00, 3.8310e+00, 2.0490e+00
    },
    {-4.6000e-02, 6.2900e-01, 8.9000e-02, 7.8100e-01, 6.2900e-01, 5.4000e-02,
      9.0300e-01,-6.2000e-01, 1.1970e+00, 3.1900e-01, 7.7100e-01,-1.7860e+00,
      2.2300e+00,-1.9220e+00,-3.2190e+00,-1.1150e+00,-6.8100e-01,-1.3000e+00,
     -1.2500e-01, 1.5500e-01, 9.2000e-01, 1.4000e-01, 3.6100e-01, 2.6260e+00,
      2.2800e-01, 1.0870e+00, 1.3030e+00,-9.9700e-01,-2.2000e-02, 2.7810e+00,
     -1.3600e-01, 5.4300e-01, 1.5030e+00,-2.1210e+00, 1.0000e-01, 2.8000e-02,
      2.3500e+00, 3.5600e-01, 5.4000e-01, 3.0070e+00,-4.5500e-01,-3.7670e+00,
      4.8200e-01,-4.9960e+00, 1.5360e+00,-2.1160e+00, 7.5200e+00,-1.2890e+00,
      3.3370e+00, 3.8050e+00, 1.7770e+00
    },
    {-5.9000e-02, 5.8500e-01,-3.2300e-01, 1.3500e-01, 7.8000e-01, 9.6000e-01,
      5.2000e-02,-9.8200e-01, 1.2580e+00, 3.0400e-01, 6.4400e-01,-1.5420e+00,
      2.6330e+00,-2.0780e+00,-3.3520e+00,-1.2490e+00,-7.8600e-01,-1.2590e+00,
      2.0200e-01, 3.2100e-01, 7.4300e-01, 5.4000e-02, 2.3400e-01, 2.1890e+00,
      1.4200e-01, 1.1250e+00, 1.5810e+00,-1.1420e+00, 8.5000e-02, 2.6280e+00,
     -1.2900e-01, 3.6600e-01, 1.8220e+00,-1.7710e+00, 1.8000e-02, 5.6000e-02,
      2.8090e+00, 1.1780e+00, 5.2600e-01, 3.4200e+00,-9.3800e-01,-4.2540e+00,
      6.9600e-01,-5.3690e+00, 1.5580e+00,-1.5380e+00, 7.2890e+00,-1.4570e+00,
      2.7300e+00, 4.3490e+00, 2.0220e+00
    },
    {-1.6800e-01, 5.9900e-01,-2.4800e-01, 3.9000e-02, 5.9900e-01, 6.7400e-01,
      5.2600e-01,-6.7800e-01, 1.3390e+00, 5.7600e-01, 5.2200e-01,-1.3770e+00,
      2.5250e+00,-2.0990e+00,-3.2810e+00,-1.5250e+00,-7.5800e-01,-1.2970e+00,
     -2.6000e-01, 3.6200e-01, 7.0400e-01, 2.2000e-01, 3.3500e-01, 2.3400e+00,
      2.5100e-01, 1.2060e+00, 1.6860e+00,-8.6600e-01, 3.6000e-02, 2.7480e+00,
      3.6000e-02, 4.1500e-01, 1.6090e+00,-1.8230e+00,-1.2200e-01, 1.7500e-01,
      2.7920e+00, 9.3200e-01, 5.3100e-01, 3.0830e+00, 1.4500e-01,-3.4770e+00,
      3.9900e-01,-4.9240e+00, 1.4840e+00,-1.2050e+00, 6.9330e+00,-1.7910e+00,
      3.3430e+00, 4.0190e+00, 1.6350e+00
    },
    {-4.0000e-01, 6.7800e-01,-3.0300e-01,-2.5000e-02, 8.8100e-01, 4.7200e-01,
      5.5600e-01,-6.7800e-01, 1.2170e+00, 5.3700e-01, 2.1500e-01,-1.4600e+00,
      2.4500e+00,-2.2090e+00,-3.2110e+00,-1.5190e+00,-8.4700e-01,-1.0640e+00,
     -1.6900e-01, 1.8900e-01, 8.0000e-01, 8.8000e-02, 1.3600e-01, 2.0180e+00,
      2.8500e-01, 1.0830e+00, 1.6500e+00,-1.0790e+00, 1.6400e-01, 2.6230e+00,
      2.6000e-02, 2.7000e-01, 1.8200e+00,-1.8920e+00,-1.7300e-01, 7.9000e-02,
      2.6610e+00, 8.3800e-01, 7.2300e-01, 3.1680e+00,-1.2800e-01,-3.0750e+00,
     -4.7000e-02,-5.7580e+00, 7.0400e-01,-1.2710e+00, 6.9630e+00,-1.4080e+00,
      3.4110e+00, 3.8000e+00, 1.1240e+00
    },
    {-3.8300e-01, 6.0200e-01,-1.6500e-01,-1.7000e-02, 5.2400e-01, 5.0400e-01,
      4.4300e-01,-6.6200e-01, 1.2410e+00, 3.8300e-01, 6.5600e-01,-1.8180e+00,
      2.4950e+00,-2.0870e+00,-3.0790e+00,-1.5530e+00,-1.0060e+00,-1.2170e+00,
     -1.3300e-01,-1.9000e-02, 8.1000e-01,-4.8000e-02, 1.4100e-01, 2.2140e+00,
      6.2700e-01, 1.1810e+00, 1.4800e+00,-9.6300e-01, 5.3000e-02, 2.5440e+00,
     -5.5000e-02, 5.2300e-01, 1.5410e+00,-2.0300e+00,-9.3000e-02, 2.6100e-01,
      2.6400e+00, 8.5600e-01, 9.9900e-01, 2.8740e+00,-4.1800e-01,-2.6260e+00,
      1.3900e-01,-4.4640e+00, 7.4200e-01,-1.4510e+00, 6.7420e+00,-9.5000e-01,
      3.9630e+00, 4.0570e+00, 1.6100e+00
    },
    {-3.2300e-01, 6.9700e-01,-3.2000e-01, 3.0700e-01, 5.0400e-01, 5.2400e-01,
      3.4100e-01,-5.4400e-01, 8.7400e-01, 3.9400e-01, 4.1900e-01,-1.4160e+00,
      2.4400e+00,-2.1600e+00,-2.8400e+00,-1.5610e+00,-7.8600e-01,-1.0560e+00,
     -2.7600e-01,-8.2000e-02, 7.8200e-01, 2.4000e-02, 2.2300e-01, 2.2510e+00,
      6.7600e-01, 1.2910e+00, 1.5180e+00,-8.7800e-01,-1.0900e-01, 2.6530e+00,
     -1.3100e-01, 2.9500e-01, 1.4510e+00,-1.8620e+00,-8.9000e-02, 3.2300e-01,
      2.7740e+00, 8.1700e-01, 9.9400e-01, 3.0050e+00,-1.4900e-01,-1.8730e+00,
     -2.0600e-01,-4.5310e+00, 8.6700e-01,-2.0840e+00, 7.2460e+00,-1.4990e+00,
      3.8490e+00, 4.0940e+00, 1.8700e+00
    },
    {-9.4000e-02, 8.0400e-01,-2.9300e-01, 5.8000e-02, 5.2200e-01, 4.6600e-01,
      6.9900e-01,-5.9600e-01, 1.0470e+00, 4.8800e-01, 3.1800e-01,-1.4880e+00,
      2.4020e+00,-2.0820e+00,-2.6180e+00,-1.6770e+00,-8.5800e-01,-1.4350e+00,
     -1.7800e-01, 2.6700e-01, 9.4800e-01, 2.3000e-01, 1.5200e-01, 2.2180e+00,
      9.7500e-01, 1.4520e+00, 1.7100e+00,-1.0980e+00,-2.8100e-01, 2.7740e+00,
     -1.7000e-01, 3.4500e-01, 1.6620e+00,-2.1870e+00,-5.0000e-02, 2.9700e-01,
      2.9190e+00, 7.3800e-01, 1.0780e+00, 2.7630e+00,-6.3600e-01,-2.7160e+00,
     -7.6500e-01,-4.6340e+00, 8.8600e-01,-1.9400e+00, 7.3060e+00,-1.1280e+00,
      3.2520e+00, 5.0140e+00, 1.8120e+00
    },
    {-1.1100e-01, 8.1700e-01,-3.2800e-01, 1.4000e-02, 5.7700e-01, 5.7900e-01,
      5.1400e-01,-6.5200e-01, 1.0680e+00, 2.1300e-01, 4.9000e-01,-1.3410e+00,
      2.5250e+00,-2.0110e+00,-2.8520e+00,-1.6910e+00,-8.6700e-01,-1.4840e+00,
     -3.2100e-01, 9.9000e-02, 8.4700e-01, 2.4000e-02, 9.6000e-02, 2.1340e+00,
      7.3400e-01, 1.3070e+00, 1.6060e+00,-1.2260e+00,-2.3100e-01, 2.8320e+00,
     -2.2300e-01, 2.6500e-01, 1.4260e+00,-1.9420e+00,-1.6000e-02,-1.8000e-02,
      2.7820e+00, 6.3000e-01, 9.4900e-01, 2.8380e+00,-8.5600e-01,-2.5430e+00,
     -1.2260e+00,-4.1190e+00, 4.2300e-01,-2.0020e+00, 6.8900e+00,-5.2800e-01,
      3.7230e+00, 5.0080e+00, 1.7420e+00
    },
    { 2.0000e-03, 4.4700e-01,-2.9300e-01, 2.1800e-01, 2.2700e-01, 9.1700e-01,
      6.8300e-01,-6.7400e-01, 9.4900e-01, 1.0200e-01, 6.3200e-01,-1.5980e+00,
      2.2480e+00,-2.2310e+00,-3.0650e+00,-1.5510e+00,-9.0000e-01,-1.4490e+00,
     -3.3200e-01, 5.1000e-02, 7.7800e-01, 1.6000e-02, 1.1600e-01, 2.2940e+00,
      5.8400e-01, 1.1770e+00, 1.3580e+00,-1.2720e+00,-1.0000e-02, 2.6120e+00,
      1.1000e-02, 3.8300e-01, 1.4340e+00,-1.8210e+00,-7.6000e-02,-3.0800e-01,
      2.6900e+00, 6.2300e-01, 1.0480e+00, 2.9820e+00,-8.3200e-01,-3.4840e+00,
     -1.2610e+00,-4.4170e+00, 7.7500e-01,-1.9520e+00, 7.2450e+00,-8.1800e-01,
      4.1900e+00, 5.2210e+00, 1.5110e+00
    },
    { 1.4100e-01, 6.5500e-01,-4.3200e-01,-4.9000e-02, 2.3200e-01, 6.4300e-01,
      8.4300e-01,-5.5100e-01, 9.6200e-01, 3.3000e-02, 3.9600e-01,-1.4800e+00,
      1.8850e+00,-2.0510e+00,-2.8080e+00,-1.5850e+00,-1.0530e+00,-1.4800e+00,
     -1.3400e-01, 2.9200e-01, 6.8500e-01, 3.5300e-01, 2.7800e-01, 2.0810e+00,
      8.3900e-01, 1.4400e+00, 8.8600e-01,-1.3310e+00, 1.2300e-01, 2.7750e+00,
     -6.2000e-02, 7.5600e-01, 1.4010e+00,-1.9140e+00,-4.2000e-02,-6.8000e-02,
      2.7710e+00, 4.9000e-01, 8.6300e-01, 2.9190e+00, 3.7300e-01,-2.6630e+00,
     -1.9840e+00,-4.3960e+00, 1.4640e+00,-1.4720e+00, 7.1870e+00,-8.0100e-01,
      3.5830e+00, 4.7440e+00, 1.7240e+00
    },
    { 2.6800e-01, 8.2800e-01,-3.9600e-01, 5.0000e-03, 2.3200e-01, 7.4900e-01,
      6.8800e-01,-6.2900e-01, 7.4100e-01, 5.0000e-02, 5.7100e-01,-1.5200e+00,
      2.1110e+00,-2.1710e+00,-2.7650e+00,-1.3180e+00,-7.3600e-01,-1.2480e+00,
      5.7000e-02, 4.4000e-01, 6.5400e-01, 2.9200e-01, 3.5600e-01, 2.0710e+00,
      9.8200e-01, 1.5690e+00, 1.0090e+00,-1.2360e+00, 8.1000e-02, 2.6470e+00,
     -9.9000e-02, 6.2000e-01, 1.3150e+00,-1.9610e+00,-1.8000e-01, 2.4000e-02,
      2.8530e+00, 6.8800e-01, 8.8600e-01, 2.9730e+00, 1.4700e-01,-3.2980e+00,
     -1.0990e+00,-4.1370e+00, 1.8480e+00,-2.7790e+00, 7.2900e+00,-1.6100e+00,
      4.0300e+00, 4.5980e+00, 1.9010e+00
    },
    { 3.3000e-01, 7.7400e-01,-1.8200e-01, 5.6000e-02, 3.0800e-01, 1.0900e+00,
      9.8600e-01,-5.6200e-01, 7.2400e-01, 8.4000e-02, 4.2200e-01,-1.3270e+00,
      2.1160e+00,-2.2390e+00,-2.7130e+00,-1.1590e+00,-5.2300e-01,-1.2580e+00,
      1.0400e-01, 5.1400e-01, 6.5300e-01, 2.2400e-01, 3.3000e-01, 2.0520e+00,
      1.0540e+00, 1.5590e+00, 1.0400e+00,-1.3290e+00,-1.1000e-02, 2.6890e+00,
     -6.5000e-02, 3.6100e-01, 1.3790e+00,-1.8820e+00,-3.4000e-02,-9.2000e-02,
      2.7780e+00, 7.5600e-01, 7.6500e-01, 2.8690e+00, 7.2700e-01,-3.4910e+00,
     -7.6200e-01,-4.7580e+00, 1.6740e+00,-2.6740e+00, 7.1420e+00,-1.7870e+00,
      3.7050e+00, 4.5450e+00, 2.0480e+00
    },
    { 4.2100e-01, 7.7200e-01,-1.2600e-01, 1.8500e-01, 3.9600e-01, 1.1040e+00,
      9.1200e-01,-7.6400e-01, 8.4100e-01,-3.9000e-02, 4.0500e-01,-1.2650e+00,
      2.1540e+00,-2.3510e+00,-2.7190e+00,-1.1190e+00,-8.7000e-01,-1.3670e+00,
     -1.4000e-02, 4.2700e-01, 5.8500e-01, 2.4800e-01, 3.6500e-01, 1.9920e+00,
      1.0300e+00, 1.4070e+00, 1.1600e+00,-1.3120e+00, 5.1000e-02, 2.7720e+00,
     -6.6000e-02, 2.2300e-01, 1.5850e+00,-1.9540e+00,-1.1100e-01, 2.2000e-02,
      2.9040e+00, 7.8500e-01, 7.3900e-01, 2.6790e+00, 5.9800e-01,-3.9150e+00,
     -1.2210e+00,-4.5640e+00, 1.6000e+00,-2.2650e+00, 7.9290e+00,-2.1730e+00,
      4.1760e+00, 4.6350e+00, 2.5110e+00
    },
    { 6.7200e-01, 4.2600e-01,-2.2700e-01,-8.9000e-02, 2.9100e-01, 1.1610e+00,
      8.6000e-01,-7.7000e-01, 5.4400e-01,-5.7000e-02, 1.6100e-01,-9.3300e-01,
      2.1640e+00,-2.3970e+00,-2.6800e+00,-1.1450e+00,-1.1210e+00,-1.6790e+00,
     -2.0700e-01, 3.8100e-01, 7.1800e-01, 1.0600e-01, 3.0800e-01, 2.1150e+00,
      1.2460e+00, 1.3200e+00, 7.7700e-01,-1.3300e+00, 2.3400e-01, 2.7230e+00,
      5.4000e-02, 2.9800e-01, 1.4730e+00,-1.9740e+00, 1.3000e-02,-4.0000e-02,
      2.7460e+00, 4.5300e-01, 8.1700e-01, 2.5830e+00, 3.7500e-01,-3.2900e+00,
     -1.9840e+00,-4.4050e+00, 1.9030e+00,-2.6450e+00, 7.4330e+00,-2.0520e+00,
      3.8810e+00, 4.0110e+00, 2.6920e+00
    },
    { 1.2710e+00, 8.0000e-02,-4.7200e-01,-3.1000e-01, 5.6800e-01, 8.0300e-01,
      7.2400e-01,-6.7500e-01, 4.0400e-01, 4.2800e-01,-7.3000e-02,-1.2550e+00,
      2.0820e+00,-2.4110e+00,-2.5250e+00,-1.2230e+00,-1.3430e+00,-2.0100e+00,
     -3.0000e-01, 7.5900e-01, 1.0840e+00, 5.9000e-02, 1.5600e-01, 1.9840e+00,
      1.1930e+00, 9.4500e-01, 8.9400e-01,-1.3230e+00,-2.0000e-03, 2.5760e+00,
      1.2900e-01, 4.3300e-01, 1.7150e+00,-2.2310e+00,-1.0000e-03,-1.0100e-01,
      2.9660e+00, 5.9500e-01, 1.0220e+00, 1.9860e+00,-2.5500e-01,-3.1340e+00,
     -2.0740e+00,-4.6270e+00, 1.2560e+00,-2.4520e+00, 6.9180e+00,-1.3820e+00,
      3.4080e+00, 3.7560e+00, 2.0700e+00
    },
    { 1.1510e+00, 2.1600e-01,-4.0300e-01,-6.6000e-02, 3.5900e-01, 8.6800e-01,
      1.0200e+00,-8.3700e-01, 3.7700e-01, 2.8500e-01,-4.7000e-02,-1.1140e+00,
      2.2540e+00,-2.5440e+00,-2.6150e+00,-1.0920e+00,-1.5430e+00,-2.0080e+00,
     -2.7700e-01, 7.1600e-01, 1.0510e+00, 2.2400e-01, 2.0800e-01, 2.1490e+00,
      9.9900e-01, 1.1480e+00, 9.8300e-01,-1.1680e+00, 4.2000e-02, 2.8790e+00,
     -4.0000e-03, 3.6200e-01, 1.7500e+00,-2.1630e+00, 7.1000e-02, 2.7000e-02,
      2.8030e+00, 3.0300e-01, 1.0510e+00, 2.1200e+00,-4.1100e-01,-4.1650e+00,
     -1.9540e+00,-4.7100e+00, 1.6300e+00,-2.2070e+00, 6.8940e+00,-1.3700e+00,
      3.0460e+00, 4.3830e+00, 2.4100e+00
    },
    { 9.6500e-01, 2.7800e-01,-1.5800e-01,-1.0000e-02, 3.2300e-01, 6.1600e-01,
      8.4300e-01,-9.3400e-01, 1.7000e-01, 3.1400e-01, 8.7000e-02,-1.0120e+00,
      2.2880e+00,-2.4020e+00,-2.6620e+00,-8.7200e-01,-1.5670e+00,-2.0650e+00,
     -3.8200e-01, 9.6200e-01, 8.6600e-01, 2.6800e-01, 3.2800e-01, 1.9780e+00,
      1.1010e+00, 1.4650e+00, 1.0710e+00,-1.3580e+00, 1.1700e-01, 3.1130e+00,
      4.2000e-02, 3.3600e-01, 1.9970e+00,-2.1290e+00,-4.7000e-02, 2.5000e-02,
      2.8110e+00, 3.7300e-01, 9.4800e-01, 2.1680e+00,-4.7500e-01,-4.1560e+00,
     -2.0850e+00,-4.7260e+00, 1.4460e+00,-2.3610e+00, 6.9250e+00,-1.2590e+00,
      2.6350e+00, 3.7720e+00, 2.2820e+00
    },
    { 9.0800e-01, 4.1500e-01,-4.2900e-01,-3.4000e-01, 3.9600e-01, 6.8400e-01,
      7.6400e-01,-8.0400e-01, 3.5500e-01, 3.2600e-01, 6.7000e-02,-1.5160e+00,
      2.3450e+00,-2.0260e+00,-2.1810e+00,-5.2000e-01,-1.1470e+00,-2.2630e+00,
     -5.5700e-01, 7.8400e-01, 1.0240e+00, 3.7800e-01, 1.6800e-01, 2.0810e+00,
      1.0570e+00, 1.4260e+00, 9.4400e-01,-1.1860e+00, 2.9400e-01, 3.0840e+00,
      1.9500e-01, 6.6200e-01, 2.1030e+00,-2.2730e+00, 1.8900e-01, 2.4700e-01,
      2.8140e+00, 6.6100e-01, 8.8200e-01, 1.9710e+00,-1.0120e+00,-3.5610e+00,
     -2.3350e+00,-4.2220e+00, 1.4010e+00,-1.4820e+00, 6.0840e+00,-5.2600e-01,
      2.2620e+00, 4.2700e+00, 2.2830e+00
    },
    { 7.1600e-01, 5.5600e-01,-4.1600e-01,-1.0400e-01, 5.7400e-01, 6.7000e-01,
      6.9800e-01,-7.0900e-01, 3.1900e-01, 1.2000e-01, 1.3000e-01,-1.5160e+00,
      2.3390e+00,-2.0880e+00,-2.2690e+00,-5.6900e-01,-1.0760e+00,-2.2050e+00,
     -5.7800e-01, 8.9600e-01, 1.1230e+00, 3.6200e-01, 1.8300e-01, 2.2900e+00,
      1.1570e+00, 1.4250e+00, 1.3110e+00,-1.2130e+00, 2.5200e-01, 3.0440e+00,
      1.5600e-01, 5.4300e-01, 2.2200e+00,-2.3540e+00, 2.1400e-01, 8.2000e-02,
      2.7100e+00, 9.8300e-01, 1.0630e+00, 2.2090e+00,-6.7100e-01,-2.9940e+00,
     -2.4620e+00,-4.6770e+00, 1.3760e+00,-1.6370e+00, 5.2730e+00,-5.9800e-01,
      2.1150e+00, 4.1650e+00, 1.6640e+00
    },
    { 5.2700e-01, 7.7800e-01,-2.0500e-01,-4.8300e-01, 6.2700e-01, 5.8500e-01,
      8.8100e-01,-7.3700e-01, 2.8900e-01, 3.4100e-01, 4.1000e-02,-1.5270e+00,
      2.3360e+00,-1.8290e+00,-2.4230e+00,-3.5200e-01,-1.1610e+00,-2.0180e+00,
     -3.2100e-01, 5.5200e-01, 1.0480e+00, 2.6200e-01, 3.1400e-01, 2.3400e+00,
      1.1580e+00, 1.3130e+00, 9.7800e-01,-1.1890e+00, 2.1600e-01, 3.0980e+00,
      2.1900e-01, 3.6000e-01, 2.2050e+00,-2.3310e+00, 2.4100e-01,-3.9100e-01,
      2.8230e+00, 8.1700e-01, 9.5900e-01, 1.9310e+00,-1.4480e+00,-2.6880e+00,
     -2.0650e+00,-4.1650e+00, 1.3950e+00,-1.9720e+00, 5.4830e+00,-6.9800e-01,
      2.3200e+00, 4.1110e+00, 1.5640e+00
    },
    { 6.6200e-01, 4.2000e-01,-5.5200e-01,-6.0000e-01, 5.7600e-01, 7.9100e-01,
      8.4900e-01,-6.9500e-01, 1.7800e-01, 3.6300e-01, 1.4700e-01,-1.5480e+00,
      2.5940e+00,-1.7470e+00,-2.4720e+00,-8.5000e-02,-1.4870e+00,-2.1490e+00,
     -5.7900e-01, 2.6500e-01, 1.4110e+00, 2.4300e-01, 2.3200e-01, 2.7100e+00,
      1.5260e+00, 1.2280e+00, 8.3900e-01,-1.3210e+00, 2.5000e-02, 3.2150e+00,
      2.2100e-01, 3.0900e-01, 2.1710e+00,-2.4070e+00, 2.3100e-01,-1.1400e-01,
      3.0600e+00, 8.6500e-01, 9.4500e-01, 1.8690e+00,-1.6410e+00,-2.9640e+00,
     -2.8280e+00,-4.3410e+00, 1.6040e+00,-2.6700e+00, 5.5290e+00,-7.0500e-01,
      2.4710e+00, 3.5310e+00, 1.7330e+00
    },
    { 8.5900e-01, 3.0200e-01,-8.3400e-01,-5.3100e-01, 7.8500e-01, 1.0910e+00,
      7.2400e-01,-6.5500e-01, 1.4800e-01, 2.0900e-01, 2.4800e-01,-1.2740e+00,
      2.7790e+00,-1.6120e+00,-2.3770e+00, 6.8000e-02,-1.2760e+00,-2.1880e+00,
     -6.7000e-01, 2.1400e-01, 1.1830e+00, 2.6900e-01, 1.3400e-01, 2.5360e+00,
      1.4350e+00, 1.2130e+00, 7.1900e-01,-1.2150e+00,-1.7700e-01, 3.3510e+00,
      1.7800e-01, 7.1000e-02, 1.9770e+00,-2.4040e+00, 2.1800e-01,-1.8000e-02,
      2.9030e+00, 9.1800e-01, 8.1500e-01, 1.8880e+00,-1.2480e+00,-3.2790e+00,
     -3.1290e+00,-3.9710e+00, 2.0390e+00,-2.6230e+00, 5.5790e+00,-1.3500e+00,
      2.2170e+00, 3.8750e+00, 2.7940e+00
    },
    { 6.5400e-01, 2.1700e-01,-7.3300e-01,-5.5400e-01, 5.4000e-01, 1.0100e+00,
      5.3500e-01,-7.8600e-01, 9.9000e-02, 3.8600e-01, 2.7900e-01,-1.5310e+00,
      2.6960e+00,-1.6570e+00,-2.1630e+00, 3.9000e-02,-1.3270e+00,-2.1600e+00,
     -4.5300e-01, 2.4200e-01, 1.0290e+00, 1.8400e-01, 1.9200e-01, 2.7790e+00,
      1.3480e+00, 1.0350e+00, 6.6400e-01,-1.2220e+00,-1.6400e-01, 3.4210e+00,
      2.3800e-01, 1.0500e-01, 2.0080e+00,-2.1660e+00, 3.9000e-02, 1.1200e-01,
      2.8460e+00, 9.9100e-01, 8.7400e-01, 1.6280e+00,-4.3100e-01,-3.1450e+00,
     -2.9970e+00,-4.0080e+00, 1.8400e+00,-2.7850e+00, 5.0130e+00,-2.0490e+00,
      2.6900e+00, 4.0880e+00, 2.9920e+00
    },
    { 4.3900e-01, 4.2900e-01,-7.4800e-01,-3.3500e-01, 5.8300e-01, 8.0300e-01,
      2.8600e-01,-8.6800e-01,-9.0000e-02, 1.3800e-01, 1.9100e-01,-1.3740e+00,
      2.5350e+00,-2.0860e+00,-2.3140e+00, 0.0000e+00,-1.3740e+00,-2.2750e+00,
     -4.0700e-01, 4.6900e-01, 1.0310e+00, 3.2900e-01, 1.8200e-01, 2.4940e+00,
      1.0560e+00, 8.0500e-01, 6.2800e-01,-1.2130e+00,-1.2000e-01, 3.5450e+00,
      5.0000e-03, 3.5100e-01, 1.9170e+00,-2.4610e+00, 2.7300e-01,-2.6000e-01,
      2.7510e+00, 1.0600e+00, 8.5700e-01, 1.3790e+00,-4.0800e-01,-3.4790e+00,
     -3.0770e+00,-4.8610e+00, 2.1330e+00,-2.8040e+00, 4.4670e+00,-2.4490e+00,
      2.7040e+00, 3.7370e+00, 2.3660e+00
    },
    { 3.7100e-01, 5.1800e-01,-6.8200e-01,-3.3000e-01, 7.0600e-01, 7.8600e-01,
      4.4200e-01,-8.0500e-01,-2.4000e-02, 1.5700e-01, 2.4600e-01,-1.4260e+00,
      2.5680e+00,-2.0260e+00,-2.1620e+00, 1.1900e-01,-1.2760e+00,-2.1420e+00,
     -4.6200e-01, 3.5400e-01, 1.0020e+00, 5.2500e-01, 1.9000e-01, 2.4790e+00,
      1.0690e+00, 7.7800e-01, 4.5500e-01,-1.2810e+00,-5.7000e-02, 3.2260e+00,
      7.8000e-02, 2.5200e-01, 2.0230e+00,-2.6180e+00, 1.8600e-01,-1.1900e-01,
      3.0740e+00, 1.0660e+00, 8.2800e-01, 1.3400e+00,-4.1500e-01,-3.5640e+00,
     -2.9370e+00,-4.6140e+00, 2.1630e+00,-2.6250e+00, 4.7870e+00,-3.1500e+00,
      2.7030e+00, 3.7760e+00, 2.9070e+00
    },
    { 3.9100e-01, 4.8900e-01,-7.2500e-01,-3.7500e-01, 6.8700e-01, 9.6700e-01,
      5.1700e-01,-7.0300e-01, 6.1000e-02, 2.6800e-01, 2.5300e-01,-1.3760e+00,
      2.5390e+00,-2.0610e+00,-2.2060e+00, 1.6300e-01,-1.2460e+00,-2.3220e+00,
     -4.3600e-01, 2.1700e-01, 1.1120e+00, 4.5200e-01, 2.4700e-01, 2.8750e+00,
      1.0110e+00, 7.9900e-01, 7.9000e-01,-1.0800e+00,-4.6000e-01, 3.2950e+00,
      1.7900e-01, 1.6400e-01, 1.9490e+00,-2.5950e+00, 2.8700e-01, 2.4000e-02,
      3.2240e+00, 1.2090e+00, 9.4800e-01, 1.4780e+00,-8.9500e-01,-3.2450e+00,
     -2.8250e+00,-5.2800e+00, 2.4410e+00,-3.1630e+00, 4.7260e+00,-2.4230e+00,
      2.7800e+00, 4.0020e+00, 3.4660e+00
    },
    { 3.6500e-01, 1.3400e-01,-4.0900e-01,-5.4900e-01, 6.4100e-01, 9.7900e-01,
      6.5600e-01,-8.0400e-01, 4.4500e-01, 4.3600e-01, 3.1000e-01,-1.4910e+00,
      2.4030e+00,-2.2650e+00,-2.0420e+00, 2.1000e-01,-1.4020e+00,-1.8700e+00,
     -5.4200e-01, 9.2000e-02, 1.2850e+00, 3.8600e-01, 3.4700e-01, 2.7470e+00,
      1.3550e+00, 5.2700e-01, 3.1900e-01,-1.0850e+00,-5.0000e-01, 3.1960e+00,
      9.2000e-02, 3.2700e-01, 1.8350e+00,-2.7540e+00, 7.7000e-02, 4.6000e-02,
      3.4640e+00, 1.1940e+00, 9.3800e-01, 1.5470e+00, 2.7000e-02,-2.8370e+00,
     -3.6060e+00,-5.1050e+00, 1.9790e+00,-2.6170e+00, 4.7960e+00,-1.4270e+00,
      3.2210e+00, 3.8960e+00, 3.5340e+00
    },
    { 4.8600e-01, 1.6800e-01,-5.1800e-01,-4.3200e-01, 5.9700e-01, 1.0730e+00,
      8.4500e-01,-8.9100e-01, 4.6400e-01, 5.2000e-01, 2.2000e-01,-1.4580e+00,
      2.3230e+00,-2.2890e+00,-2.0070e+00, 1.8000e-01,-1.0480e+00,-1.8180e+00,
     -4.6300e-01,-6.9000e-02, 1.2080e+00, 2.4600e-01, 2.1400e-01, 2.6520e+00,
      1.2370e+00, 4.1000e-01, 3.3900e-01,-7.1500e-01,-5.9500e-01, 3.1170e+00,
      9.8000e-02, 3.4100e-01, 1.8040e+00,-2.7960e+00, 2.2700e-01, 1.5300e-01,
      3.4420e+00, 1.3660e+00, 8.2500e-01, 1.7340e+00,-2.1000e-01,-2.1380e+00,
     -2.8860e+00,-5.6920e+00, 1.9140e+00,-3.0520e+00, 5.1160e+00,-2.1140e+00,
      3.5860e+00, 4.5450e+00, 4.2020e+00
    },
    { 5.6300e-01,-5.4000e-02,-7.3400e-01,-3.0900e-01, 7.3400e-01, 1.0460e+00,
      8.9100e-01,-8.0400e-01, 5.6200e-01, 4.9000e-01, 1.4800e-01,-1.4530e+00,
      2.2140e+00,-2.3890e+00,-1.8090e+00, 1.5800e-01,-9.9500e-01,-1.7850e+00,
     -3.2100e-01,-1.6900e-01, 1.1300e+00, 1.9200e-01, 1.6900e-01, 2.6950e+00,
      1.2890e+00, 5.9900e-01, 4.6300e-01,-8.3100e-01,-5.8900e-01, 3.2350e+00,
      1.3000e-01, 3.8600e-01, 1.7960e+00,-2.6030e+00, 9.7000e-02, 1.7400e-01,
      3.5790e+00, 1.4280e+00, 8.7800e-01, 1.6260e+00, 2.4400e-01,-2.6600e+00,
     -2.3610e+00,-5.5120e+00, 2.3210e+00,-2.8660e+00, 5.1010e+00,-2.5430e+00,
      3.2550e+00, 4.2250e+00, 4.4830e+00
    },
    { 6.3800e-01,-8.9000e-02,-4.5300e-01,-8.4000e-02, 8.5400e-01, 1.1230e+00,
      6.4900e-01,-9.6500e-01, 5.7800e-01, 2.6000e-01, 9.8000e-02,-1.3660e+00,
      2.2450e+00,-1.9520e+00,-1.9290e+00,-1.4200e-01,-1.1170e+00,-1.8310e+00,
     -1.1200e-01,-1.7300e-01, 1.5860e+00, 3.1200e-01, 2.0600e-01, 3.2970e+00,
      1.1380e+00, 5.3500e-01, 1.4100e-01,-1.0680e+00,-6.2300e-01, 3.2050e+00,
      1.2100e-01, 5.0600e-01, 1.8270e+00,-2.4110e+00, 3.6000e-02, 5.0300e-01,
      3.0320e+00, 1.1740e+00, 7.0200e-01, 1.0830e+00, 2.7800e-01,-2.8420e+00,
     -2.5830e+00,-4.6690e+00, 1.9200e+00,-1.9420e+00, 4.3200e+00,-2.5100e+00,
      3.0270e+00, 4.5470e+00, 4.2580e+00
    },
    { 5.0700e-01,-6.4000e-02,-7.4900e-01,-2.7400e-01, 6.5800e-01, 1.1110e+00,
      6.6200e-01,-9.6000e-01, 3.0200e-01, 3.6000e-01, 2.8400e-01,-1.3010e+00,
      2.1670e+00,-1.8030e+00,-1.9730e+00, 7.5000e-02,-1.1240e+00,-1.8540e+00,
     -2.3900e-01,-7.0000e-02, 1.2360e+00, 3.1700e-01, 2.4200e-01, 3.0800e+00,
      1.4320e+00, 5.3500e-01, 2.0200e-01,-5.5400e-01,-5.1100e-01, 3.0350e+00,
      1.3800e-01, 4.3900e-01, 1.9360e+00,-2.8000e+00,-6.9000e-02, 2.4700e-01,
      3.2640e+00, 1.1140e+00, 8.4200e-01, 1.1670e+00,-1.3900e-01,-3.2380e+00,
     -2.7750e+00,-5.1620e+00, 2.1550e+00,-2.6520e+00, 4.2610e+00,-3.0400e+00,
      3.3990e+00, 4.3630e+00, 4.9000e+00
    },
    { 4.4200e-01,-9.1000e-02,-7.0100e-01,-1.8700e-01, 9.4100e-01, 1.1000e+00,
      6.6200e-01,-1.3300e+00, 4.7700e-01, 4.7500e-01, 2.7900e-01,-1.3560e+00,
      2.2370e+00,-1.9920e+00,-1.8330e+00, 3.6200e-01,-1.2340e+00,-1.9100e+00,
     -1.6400e-01, 6.0000e-02, 1.2610e+00, 2.3100e-01, 2.2400e-01, 2.7660e+00,
      1.7740e+00, 4.7100e-01, 2.6000e-01,-5.9000e-01,-6.4800e-01, 2.8150e+00,
      7.6000e-02, 3.1300e-01, 1.8450e+00,-2.7000e+00, 2.9000e-02, 3.1300e-01,
      3.3230e+00, 1.0520e+00, 8.6200e-01, 1.2020e+00,-4.7800e-01,-2.8130e+00,
     -2.9420e+00,-5.4040e+00, 2.3510e+00,-3.2200e+00, 4.5040e+00,-2.7360e+00,
      3.4040e+00, 4.9320e+00, 4.6830e+00
    },
    { 2.1000e-01,-1.6600e-01,-8.5600e-01,-2.4500e-01, 6.6000e-01, 9.9100e-01,
      8.0500e-01,-1.3420e+00, 4.3000e-01, 2.5000e-01, 6.7000e-02,-1.2240e+00,
      2.0020e+00,-1.9820e+00,-1.7380e+00, 2.9500e-01,-1.3260e+00,-2.2860e+00,
      8.0000e-03, 4.5300e-01, 1.1500e+00, 1.4000e-02, 2.1600e-01, 2.9170e+00,
      1.7850e+00, 7.5200e-01, 7.2700e-01,-2.1300e-01,-4.6200e-01, 3.1130e+00,
      1.6600e-01, 5.6300e-01, 1.8010e+00,-2.8320e+00,-1.1000e-02, 9.3000e-02,
      3.4440e+00, 1.0570e+00, 8.4900e-01, 1.4910e+00,-2.1600e-01,-3.4000e+00,
     -3.6570e+00,-5.6530e+00, 3.1640e+00,-3.1580e+00, 4.4410e+00,-2.5790e+00,
      3.9910e+00, 3.9710e+00, 4.8940e+00
    },
    { 3.9600e-01,-3.4900e-01,-8.1100e-01,-6.2000e-02, 3.4200e-01, 9.9200e-01,
      6.7900e-01,-1.3830e+00, 4.7800e-01, 3.1700e-01, 4.1000e-02,-1.1920e+00,
      2.0750e+00,-2.2010e+00,-1.7880e+00, 2.5100e-01,-1.2650e+00,-2.2540e+00,
     -2.1800e-01, 5.9800e-01, 1.3500e+00, 1.0000e-03, 1.0700e-01, 2.8790e+00,
      1.7980e+00, 9.1400e-01, 6.5300e-01,-3.8700e-01,-4.4600e-01, 3.0980e+00,
      1.8100e-01, 5.8700e-01, 1.7780e+00,-2.6790e+00, 1.8000e-02, 1.6800e-01,
      3.2400e+00, 1.1540e+00, 1.0720e+00, 1.1990e+00,-6.4900e-01,-3.8070e+00,
     -4.0520e+00,-5.3550e+00, 2.9430e+00,-3.0880e+00, 4.0750e+00,-3.0910e+00,
      4.5350e+00, 4.3050e+00, 4.8540e+00
    },
    { 2.7500e-01,-4.9300e-01,-8.6400e-01,-3.2100e-01, 4.0600e-01, 1.2160e+00,
      8.3500e-01,-1.4490e+00, 5.8900e-01, 2.2200e-01, 2.3000e-02,-1.0750e+00,
      1.9090e+00,-2.2050e+00,-1.6660e+00, 2.2100e-01,-1.2030e+00,-2.1510e+00,
     -2.3700e-01, 5.7900e-01, 1.3990e+00, 2.1000e-02, 1.4100e-01, 2.9480e+00,
      1.7490e+00, 1.0350e+00, 6.2600e-01,-4.6500e-01,-3.0300e-01, 2.8720e+00,
      1.9100e-01, 7.6800e-01, 1.9060e+00,-2.7930e+00,-3.5000e-02, 2.0200e-01,
      3.1970e+00, 1.2850e+00, 1.0720e+00, 1.4020e+00,-4.3600e-01,-3.3960e+00,
     -3.9580e+00,-5.3440e+00, 3.0650e+00,-2.4840e+00, 4.2040e+00,-3.0510e+00,
      4.6010e+00, 4.5840e+00, 5.0190e+00
    },
    { 3.2800e-01,-4.7400e-01,-6.3500e-01,-3.1000e-01, 5.3900e-01, 1.1380e+00,
      7.1200e-01,-1.3800e+00, 4.6800e-01, 3.6400e-01, 7.3000e-02,-9.0600e-01,
      1.8130e+00,-1.9250e+00,-1.6390e+00, 2.2300e-01,-1.2870e+00,-2.1110e+00,
     -1.7400e-01, 7.4300e-01, 1.4230e+00, 1.3600e-01, 2.2600e-01, 2.7980e+00,
      1.8290e+00, 8.3400e-01, 6.2100e-01,-4.2700e-01,-2.8200e-01, 2.6920e+00,
      1.2600e-01, 6.5700e-01, 1.7680e+00,-2.7990e+00, 2.7000e-02, 1.2400e-01,
      3.2320e+00, 1.1900e+00, 8.6700e-01, 1.4600e+00,-3.4000e-01,-3.0190e+00,
     -4.2540e+00,-6.3100e+00, 2.5020e+00,-3.1560e+00, 4.7040e+00,-3.3830e+00,
      4.6680e+00, 4.7940e+00, 5.2330e+00
    },
    { 4.6300e-01,-4.6100e-01,-6.8000e-01,-4.3700e-01, 9.3900e-01, 1.1230e+00,
      7.3000e-01,-1.4830e+00, 5.7700e-01, 2.6700e-01, 1.2800e-01,-5.5000e-01,
      1.9290e+00,-1.8950e+00,-1.6260e+00, 2.3400e-01,-1.2370e+00,-1.8660e+00,
     -1.8600e-01, 7.5700e-01, 1.4680e+00, 5.6000e-02, 1.6300e-01, 2.7960e+00,
      1.5480e+00, 1.0290e+00, 5.1300e-01,-4.1400e-01,-3.1200e-01, 2.7200e+00,
      9.1000e-02, 7.0400e-01, 1.6890e+00,-2.7590e+00, 6.0000e-03,-4.5000e-02,
      3.1820e+00, 1.1770e+00, 9.1100e-01, 1.6720e+00,-3.3100e-01,-2.9110e+00,
     -3.9810e+00,-6.2540e+00, 2.3100e+00,-3.0410e+00, 4.8340e+00,-4.0150e+00,
      4.2700e+00, 4.7480e+00, 6.3430e+00
    },
    { 3.7700e-01,-3.0400e-01,-7.5800e-01,-4.3100e-01, 9.2800e-01, 1.1030e+00,
      7.1900e-01,-1.5790e+00, 5.0100e-01, 3.4700e-01, 1.6200e-01,-8.3100e-01,
      1.8200e+00,-1.8580e+00,-1.6460e+00, 2.3100e-01,-1.2690e+00,-1.6890e+00,
     -2.1200e-01, 6.7900e-01, 1.2740e+00, 4.4000e-02, 1.6300e-01, 2.8880e+00,
      1.4460e+00, 1.0360e+00, 6.3300e-01,-4.1900e-01,-2.4900e-01, 2.7560e+00,
      9.9000e-02, 8.2000e-01, 1.6390e+00,-2.8410e+00,-5.9000e-02,-9.6000e-02,
      3.0830e+00, 1.0510e+00, 1.1240e+00, 1.6480e+00,-2.3900e-01,-2.9430e+00,
     -3.5770e+00,-6.5100e+00, 2.1920e+00,-3.8310e+00, 4.1380e+00,-3.6580e+00,
      4.4610e+00, 4.7870e+00, 6.3000e+00
    },
    { 3.0600e-01,-1.8000e-01,-9.4300e-01,-4.9400e-01, 1.1460e+00, 1.1990e+00,
      8.3800e-01,-1.5320e+00, 4.5200e-01, 4.7000e-01, 2.8900e-01,-8.0300e-01,
      2.0120e+00,-2.0940e+00,-1.6600e+00, 3.7200e-01,-1.2440e+00,-1.5830e+00,
     -7.3000e-02, 6.3700e-01, 1.1520e+00, 2.2100e-01, 6.0000e-03, 2.9570e+00,
      1.4900e+00, 1.2290e+00, 6.7700e-01,-3.9700e-01,-2.7900e-01, 2.8650e+00,
      1.8000e-02, 7.9200e-01, 1.7470e+00,-2.7210e+00, 1.5300e-01, 1.4300e-01,
      3.0950e+00, 1.1180e+00, 1.3710e+00, 1.4590e+00,-6.7300e-01,-3.8100e+00,
     -5.0480e+00,-5.8930e+00, 2.6610e+00,-4.9260e+00, 3.7700e+00,-3.1750e+00,
      4.1350e+00, 4.5680e+00, 6.2600e+00
    },
    { 4.3400e-01,-2.5000e-01,-9.1600e-01,-4.9100e-01, 1.2810e+00, 1.1430e+00,
      6.3000e-01,-1.5040e+00, 3.0600e-01, 3.6300e-01, 2.9600e-01,-6.7000e-01,
      2.0010e+00,-2.3260e+00,-1.5930e+00, 3.4900e-01,-1.1310e+00,-1.5570e+00,
     -1.1700e-01, 4.6400e-01, 1.2870e+00, 5.4000e-02, 7.7000e-02, 2.8510e+00,
      1.4860e+00, 1.0750e+00, 7.7500e-01,-4.5500e-01,-3.0800e-01, 2.7830e+00,
      8.0000e-03, 9.1700e-01, 1.7850e+00,-2.6400e+00, 1.4600e-01, 3.1000e-02,
      3.0880e+00, 9.6500e-01, 1.4400e+00, 1.4260e+00,-1.4010e+00,-4.0810e+00,
     -3.9310e+00,-6.1270e+00, 2.6380e+00,-4.3380e+00, 3.4290e+00,-3.1520e+00,
      4.1810e+00, 4.9840e+00, 5.8310e+00
    },
    { 4.8700e-01,-3.6900e-01,-8.9400e-01,-4.9300e-01, 1.2300e+00, 1.4460e+00,
      6.0700e-01,-1.7100e+00, 3.0200e-01, 2.4900e-01, 2.8700e-01,-6.8500e-01,
      1.9330e+00,-2.3180e+00,-1.5570e+00, 2.0300e-01,-1.1520e+00,-1.4310e+00,
     -2.3400e-01, 3.8700e-01, 1.2470e+00, 7.0000e-03, 1.3900e-01, 3.0010e+00,
      1.5170e+00, 9.6300e-01, 5.8200e-01,-3.6500e-01,-2.1500e-01, 2.8170e+00,
      7.2000e-02, 1.1790e+00, 1.7330e+00,-2.5520e+00, 6.6000e-02, 8.5000e-02,
      3.2510e+00, 7.5700e-01, 1.4220e+00, 1.6060e+00,-1.9660e+00,-3.7920e+00,
     -4.1150e+00,-5.3620e+00, 2.7880e+00,-5.0250e+00, 3.3100e+00,-3.4050e+00,
      4.1960e+00, 5.0490e+00, 5.7810e+00
    },
    { 5.1400e-01,-3.0900e-01,-7.9100e-01,-4.8900e-01, 9.8000e-01, 1.4920e+00,
      6.4800e-01,-1.6440e+00, 5.5800e-01, 2.9700e-01, 3.1700e-01,-8.1500e-01,
      1.9400e+00,-2.2200e+00,-1.5240e+00, 1.7700e-01,-1.1480e+00,-1.6550e+00,
     -4.1800e-01, 3.2800e-01, 1.3470e+00, 3.0000e-02, 4.3000e-02, 2.9810e+00,
      1.5140e+00, 8.5400e-01, 7.2800e-01,-3.2300e-01,-3.2400e-01, 2.9010e+00,
      1.8800e-01, 1.1590e+00, 1.6810e+00,-2.6640e+00, 1.1000e-02, 1.8500e-01,
      3.2670e+00, 8.9800e-01, 1.4610e+00, 1.3370e+00,-1.1310e+00,-3.2190e+00,
     -4.4810e+00,-5.5760e+00, 2.4010e+00,-5.0660e+00, 3.2190e+00,-2.7150e+00,
      4.6150e+00, 5.5300e+00, 5.8630e+00
    },
    { 2.3900e-01,-2.1400e-01,-7.7600e-01,-4.8200e-01, 7.7700e-01, 1.5650e+00,
      7.8700e-01,-1.4990e+00, 6.6500e-01, 5.2700e-01, 5.8600e-01,-9.7600e-01,
      2.1750e+00,-2.1450e+00,-2.0260e+00,-4.0000e-03,-9.4300e-01,-1.4740e+00,
     -2.0300e-01, 5.0200e-01, 1.2480e+00, 1.1400e-01, 3.0900e-01, 2.9800e+00,
      1.7120e+00, 8.3300e-01, 5.1500e-01,-2.4000e-01,-1.3600e-01, 2.9580e+00,
     -5.6000e-02, 1.1020e+00, 1.6200e+00,-2.5540e+00, 7.6000e-02, 5.4100e-01,
      3.0520e+00, 1.1770e+00, 1.1630e+00, 1.5700e+00,-6.2600e-01,-3.2600e+00,
     -4.0700e+00,-5.1090e+00, 2.1200e+00,-4.5540e+00, 3.1440e+00,-3.3610e+00,
      4.4580e+00, 5.0320e+00, 5.6380e+00
    },
    { 5.5000e-01,-4.2000e-02,-7.9400e-01,-6.1300e-01, 1.1280e+00, 1.7270e+00,
      5.5000e-01,-1.7140e+00, 5.7500e-01, 2.3100e-01, 3.7200e-01,-1.0210e+00,
      2.3370e+00,-2.1970e+00,-1.7620e+00, 2.3500e-01,-1.2040e+00,-1.4450e+00,
     -1.8100e-01, 2.9900e-01, 1.3960e+00, 5.9000e-02, 1.6500e-01, 3.1010e+00,
      1.5870e+00, 8.2600e-01, 6.7000e-01,-6.1900e-01,-2.9700e-01, 3.1620e+00,
      1.1100e-01, 1.1070e+00, 1.7680e+00,-2.6100e+00, 4.4000e-02, 4.1800e-01,
      3.0870e+00, 9.9500e-01, 1.3340e+00, 1.1090e+00,-8.1100e-01,-3.1380e+00,
     -3.7920e+00,-5.6600e+00, 2.1760e+00,-4.7340e+00, 2.8170e+00,-3.3770e+00,
      3.8820e+00, 4.8970e+00, 6.0570e+00
    },
    { 5.8700e-01, 3.2000e-02,-9.2800e-01,-6.3400e-01, 1.3280e+00, 1.9340e+00,
      5.8200e-01,-1.6860e+00, 5.2700e-01, 1.5500e-01, 3.2100e-01,-1.1410e+00,
      2.3860e+00,-2.1600e+00,-1.8660e+00, 1.7600e-01,-1.1520e+00,-1.5810e+00,
     -9.0000e-02, 2.5300e-01, 1.3050e+00,-3.6000e-02, 1.2200e-01, 3.1860e+00,
      1.5770e+00, 8.9000e-01, 8.8700e-01,-6.6500e-01,-2.3400e-01, 2.9850e+00,
      4.6000e-02, 1.0220e+00, 1.8550e+00,-2.6750e+00, 5.7000e-02, 5.8200e-01,
      2.9690e+00, 9.5400e-01, 1.3060e+00, 1.1060e+00,-5.6500e-01,-3.1500e+00,
     -3.4200e+00,-5.1260e+00, 2.1000e+00,-4.5620e+00, 2.6060e+00,-3.4300e+00,
      4.1690e+00, 4.4300e+00, 5.7450e+00
    },
    { 5.7600e-01,-9.6000e-02,-9.7800e-01,-5.9300e-01, 1.2840e+00, 1.9480e+00,
      5.0400e-01,-1.7080e+00, 4.5800e-01, 2.3000e-01, 2.8200e-01,-1.0280e+00,
      2.3360e+00,-1.9100e+00,-1.8200e+00, 1.1900e-01,-1.1150e+00,-1.5430e+00,
     -1.1400e-01, 1.9200e-01, 1.1440e+00,-4.7000e-02, 2.0900e-01, 3.2360e+00,
      1.4860e+00, 9.4000e-01, 8.9500e-01,-4.8300e-01,-2.0400e-01, 2.8570e+00,
      3.6000e-02, 1.0680e+00, 1.8020e+00,-2.5600e+00, 3.5000e-02, 5.8600e-01,
      3.0540e+00, 9.4900e-01, 1.3540e+00, 1.1340e+00,-1.2220e+00,-3.0660e+00,
     -3.3300e+00,-5.0660e+00, 2.1120e+00,-4.8540e+00, 2.4510e+00,-3.5740e+00,
      4.1660e+00, 4.4160e+00, 6.0610e+00
    },
    { 5.1600e-01,-2.1500e-01,-9.4700e-01,-4.8500e-01, 1.2630e+00, 1.9760e+00,
      6.6300e-01,-1.8370e+00, 4.2100e-01, 4.4400e-01, 3.3900e-01,-9.9000e-01,
      2.2860e+00,-2.3140e+00,-1.9800e+00, 2.3100e-01,-1.2410e+00,-1.4490e+00,
     -8.6000e-02, 4.5000e-02, 1.2580e+00, 9.6000e-02, 1.5700e-01, 3.2500e+00,
      1.5190e+00, 9.1200e-01, 7.9200e-01,-5.3600e-01,-1.1700e-01, 2.9700e+00,
      7.7000e-02, 1.0900e+00, 1.8070e+00,-2.4510e+00, 4.7000e-02, 7.0800e-01,
      2.9410e+00, 9.6400e-01, 1.3850e+00, 9.8500e-01,-1.8210e+00,-3.4510e+00,
     -2.7190e+00,-5.3620e+00, 2.7070e+00,-4.8380e+00, 2.5840e+00,-2.8000e+00,
      4.1970e+00, 4.6380e+00, 5.0460e+00
    },
    { 5.2300e-01,-4.3900e-01,-1.0360e+00,-3.1700e-01, 1.2080e+00, 1.7960e+00,
      6.2700e-01,-2.0760e+00, 1.8700e-01, 6.2300e-01, 3.4900e-01,-9.8500e-01,
      2.3940e+00,-2.5690e+00,-1.7860e+00, 2.3400e-01,-1.4500e+00,-1.4070e+00,
      8.6000e-02,-1.1400e-01, 1.0440e+00, 4.7000e-02, 2.7200e-01, 3.0010e+00,
      1.5170e+00, 6.8200e-01, 7.7800e-01,-5.7400e-01,-2.4000e-02, 3.2080e+00,
      1.0400e-01, 1.1690e+00, 1.8270e+00,-2.6020e+00,-2.4000e-02, 7.7600e-01,
      2.6850e+00, 9.7300e-01, 1.4350e+00, 1.0680e+00,-1.6950e+00,-3.2820e+00,
     -2.8540e+00,-5.6770e+00, 2.6260e+00,-4.9290e+00, 2.9800e+00,-2.9030e+00,
      3.9840e+00, 4.0370e+00, 4.7640e+00
    },
    { 6.0400e-01,-2.0200e-01,-1.2280e+00,-6.5000e-01, 1.2480e+00, 2.1020e+00,
      8.7300e-01,-1.5870e+00, 4.1700e-01, 2.8200e-01, 4.5800e-01,-6.3400e-01,
      2.4010e+00,-2.2260e+00,-2.1670e+00, 1.0300e-01,-9.6300e-01,-1.4960e+00,
     -2.8200e-01, 1.2700e-01, 1.3820e+00,-7.1000e-02, 1.0500e-01, 3.2440e+00,
      1.4160e+00, 1.0170e+00, 9.2100e-01,-6.7100e-01, 1.0800e-01, 2.8230e+00,
      1.2200e-01, 1.1450e+00, 1.7760e+00,-2.4260e+00, 1.9400e-01, 8.3100e-01,
      2.6710e+00, 1.0020e+00, 1.2810e+00, 9.2800e-01,-2.4620e+00,-3.4370e+00,
     -2.7500e+00,-4.9830e+00, 2.9560e+00,-4.8000e+00, 3.1170e+00,-3.7910e+00,
      4.0870e+00, 4.5660e+00, 5.5990e+00
    },
    { 4.4400e-01,-3.6000e-01,-1.1790e+00,-7.3400e-01, 1.3570e+00, 2.2440e+00,
      1.1180e+00,-1.3470e+00, 4.7800e-01, 1.8000e-01, 5.1900e-01,-7.7100e-01,
      2.2270e+00,-2.1980e+00,-2.2810e+00,-6.3000e-02,-8.9700e-01,-1.6960e+00,
     -3.4400e-01, 2.0000e-03, 1.5260e+00, 1.2000e-02, 2.0700e-01, 3.1640e+00,
      1.4930e+00, 1.1400e+00, 7.8700e-01,-7.9200e-01, 8.5000e-02, 2.6620e+00,
     -9.4000e-02, 9.8900e-01, 1.6420e+00,-2.1450e+00, 2.6200e-01, 7.9400e-01,
      2.8560e+00, 9.7100e-01, 1.2280e+00, 9.3700e-01,-3.8110e+00,-3.2670e+00,
     -2.8690e+00,-4.9520e+00, 2.8800e+00,-4.4290e+00, 3.3520e+00,-2.4430e+00,
      3.6000e+00, 4.5870e+00, 5.8780e+00
    },
    { 2.9700e-01,-4.7100e-01,-1.1970e+00,-9.5300e-01, 1.4040e+00, 2.0990e+00,
      1.0240e+00,-1.4590e+00, 6.6100e-01, 3.7300e-01, 6.7700e-01,-8.5900e-01,
      2.2050e+00,-2.3270e+00,-2.3450e+00,-2.0800e-01,-1.2220e+00,-1.7510e+00,
     -5.4800e-01,-8.0000e-02, 1.4240e+00, 1.0200e-01, 6.9000e-02, 3.1750e+00,
      1.3310e+00, 1.4720e+00, 6.6700e-01,-9.2600e-01, 1.1600e-01, 2.7960e+00,
      8.6000e-02, 9.7700e-01, 1.6270e+00,-1.9940e+00, 1.8600e-01, 6.9600e-01,
      3.0430e+00, 1.0180e+00, 1.2170e+00, 1.1530e+00,-3.8880e+00,-3.4020e+00,
     -2.1300e+00,-5.1050e+00, 3.0550e+00,-4.1480e+00, 3.3370e+00,-3.0250e+00,
      3.3390e+00, 4.7060e+00, 5.9820e+00
    },
    { 1.1100e-01,-4.5700e-01,-1.1080e+00,-8.9200e-01, 1.0760e+00, 1.7230e+00,
      1.1700e+00,-1.6440e+00, 9.5500e-01, 4.0900e-01, 7.0800e-01,-1.0820e+00,
      2.1190e+00,-2.4030e+00,-2.2780e+00,-4.9000e-02,-1.6220e+00,-1.8410e+00,
     -4.2700e-01,-2.6500e-01, 1.2010e+00, 2.0100e-01, 1.3100e-01, 3.0000e+00,
      1.1730e+00, 1.5450e+00, 4.9700e-01,-5.8300e-01, 3.1400e-01, 3.0150e+00,
     -9.9000e-02, 8.6700e-01, 1.6020e+00,-1.7470e+00,-6.4000e-02, 3.8400e-01,
      2.8570e+00, 9.1700e-01, 1.2760e+00, 1.0770e+00,-3.3900e+00,-3.8730e+00,
     -3.3110e+00,-5.1480e+00, 2.4940e+00,-4.4310e+00, 3.8000e+00,-3.4580e+00,
      3.1800e+00, 4.8830e+00, 6.3590e+00
    },
    { 1.1000e-01,-1.7700e-01,-9.1100e-01,-8.1300e-01, 1.1910e+00, 1.8750e+00,
      8.2200e-01,-2.0260e+00, 7.1600e-01, 3.4500e-01, 8.9300e-01,-7.8700e-01,
      2.2220e+00,-2.3170e+00,-2.2080e+00,-2.2000e-01,-1.3580e+00,-1.6230e+00,
     -1.9300e-01,-2.1500e-01, 9.8800e-01, 4.4400e-01, 8.2000e-02, 3.1550e+00,
      9.8500e-01, 1.3680e+00, 4.8300e-01,-5.2500e-01, 5.5000e-02, 3.2190e+00,
      6.2000e-02, 1.1050e+00, 1.2940e+00,-1.7990e+00, 2.2000e-02, 1.7100e-01,
      2.7610e+00, 7.8000e-01, 1.5820e+00, 7.7400e-01,-3.2580e+00,-4.3710e+00,
     -3.1920e+00,-5.4580e+00, 2.4540e+00,-5.0290e+00, 3.7000e+00,-2.4480e+00,
      2.9170e+00, 5.1840e+00, 6.3260e+00
    },
    { 3.0000e-03,-2.5600e-01,-8.8800e-01,-1.0160e+00, 1.1500e+00, 1.8630e+00,
      7.7100e-01,-2.1390e+00, 8.2700e-01, 3.5800e-01, 9.8700e-01,-8.5200e-01,
      2.2200e+00,-2.2960e+00,-2.2910e+00,-3.6000e-01,-1.3890e+00,-1.5590e+00,
     -2.7100e-01,-3.7100e-01, 1.1050e+00, 4.0200e-01, 1.1000e-02, 3.0450e+00,
      9.4900e-01, 1.2860e+00, 5.4000e-01,-4.6800e-01, 2.4000e-02, 3.0580e+00,
      1.0000e-02, 9.6200e-01, 1.3470e+00,-1.9180e+00, 4.2000e-02, 1.5100e-01,
      2.6920e+00, 8.4700e-01, 1.6680e+00, 8.5100e-01,-2.8660e+00,-4.2710e+00,
     -3.7220e+00,-5.6790e+00, 2.3900e+00,-4.9140e+00, 3.6390e+00,-2.2540e+00,
      2.9080e+00, 5.2870e+00, 6.3310e+00
    },
    {-2.0400e-01,-1.9800e-01,-7.5800e-01,-1.0450e+00, 1.2240e+00, 1.7850e+00,
      7.1900e-01,-2.0260e+00, 9.5800e-01, 3.3700e-01, 9.6500e-01,-9.0300e-01,
      2.0590e+00,-2.1900e+00,-2.1800e+00,-3.6700e-01,-1.5260e+00,-1.4730e+00,
     -2.5200e-01,-3.5700e-01, 1.1630e+00, 3.8500e-01,-2.0000e-03, 3.0600e+00,
      1.0080e+00, 1.2410e+00, 5.8800e-01,-5.6600e-01,-9.1000e-02, 3.0660e+00,
     -4.8000e-02, 9.8300e-01, 1.4110e+00,-1.9980e+00, 1.3000e-01, 1.6800e-01,
      2.7930e+00, 9.1900e-01, 1.5690e+00, 8.4500e-01,-2.8410e+00,-3.7020e+00,
     -4.5960e+00,-5.5690e+00, 1.9790e+00,-5.3180e+00, 3.9010e+00,-1.9940e+00,
      2.8430e+00, 5.4150e+00, 6.2950e+00
    },
    {-9.0000e-02,-3.5400e-01,-8.7700e-01,-1.2760e+00, 1.2340e+00, 2.0470e+00,
      8.3200e-01,-1.8890e+00, 1.2240e+00, 1.1900e-01, 1.1550e+00,-1.0450e+00,
      1.9610e+00,-1.8630e+00,-2.2400e+00,-3.4600e-01,-1.5040e+00,-1.5850e+00,
     -1.2600e-01,-1.6700e-01, 1.3540e+00, 2.1200e-01, 1.5800e-01, 3.0010e+00,
      8.7800e-01, 1.2170e+00, 8.3800e-01,-4.0600e-01,-3.7000e-02, 2.9700e+00,
     -2.5200e-01, 4.9700e-01, 1.4640e+00,-1.8240e+00, 2.9000e-02, 2.4200e-01,
      2.5690e+00, 8.0000e-01, 1.5760e+00, 7.9800e-01,-3.1920e+00,-4.0140e+00,
     -4.6260e+00,-5.8390e+00, 2.3200e+00,-5.3950e+00, 3.6680e+00,-1.7810e+00,
      2.4950e+00, 5.2090e+00, 6.1190e+00
    },
    { 5.2000e-02,-1.0900e-01,-8.3800e-01,-1.5560e+00, 1.1250e+00, 1.9850e+00,
      6.2500e-01,-1.9750e+00, 1.3170e+00, 1.0000e-01, 1.2220e+00,-1.0670e+00,
      2.3780e+00,-1.9600e+00,-2.5200e+00,-4.3300e-01,-1.5600e+00,-1.5510e+00,
     -1.5800e-01,-2.8300e-01, 1.3820e+00, 2.1400e-01, 2.6100e-01, 2.9870e+00,
      1.0960e+00, 1.3440e+00, 1.0150e+00,-4.8300e-01,-1.3500e-01, 3.1720e+00,
     -5.0000e-02, 2.3300e-01, 1.5790e+00,-1.7090e+00,-4.9000e-02, 2.3100e-01,
      2.6360e+00, 5.2800e-01, 1.6930e+00, 6.3200e-01,-3.6410e+00,-3.8970e+00,
     -4.1550e+00,-5.9410e+00, 2.2790e+00,-5.9920e+00, 3.5840e+00,-2.0800e+00,
      2.5140e+00, 5.4680e+00, 5.8070e+00
    },
    { 1.1300e-01,-3.9200e-01,-9.1800e-01,-1.6360e+00, 1.1560e+00, 1.8310e+00,
      7.9200e-01,-2.0990e+00, 1.4310e+00, 9.4000e-02, 1.3410e+00,-1.0430e+00,
      1.9940e+00,-1.9020e+00,-2.2700e+00,-5.4200e-01,-1.5420e+00,-1.5770e+00,
     -3.5000e-01,-4.0700e-01, 1.3180e+00, 2.0300e-01, 2.8900e-01, 2.7910e+00,
      1.0810e+00, 1.6110e+00, 1.1390e+00,-5.8900e-01,-8.8000e-02, 3.2410e+00,
     -1.4800e-01, 1.9900e-01, 1.5710e+00,-1.5710e+00,-1.7500e-01, 3.3600e-01,
      2.5800e+00, 3.8500e-01, 1.6970e+00, 8.6700e-01,-3.6690e+00,-4.1190e+00,
     -4.7510e+00,-5.4880e+00, 2.6820e+00,-5.9740e+00, 3.7790e+00,-2.3070e+00,
      2.4920e+00, 6.0480e+00, 5.8740e+00
    },
    { 8.2000e-02,-3.6900e-01,-8.7900e-01,-1.7360e+00, 1.0910e+00, 1.8050e+00,
      8.3700e-01,-2.0060e+00, 1.4820e+00, 1.2500e-01, 1.4830e+00,-1.0230e+00,
      2.1760e+00,-1.9370e+00,-2.3150e+00,-4.3800e-01,-1.5270e+00,-1.3430e+00,
     -3.8500e-01,-6.7800e-01, 1.2600e+00, 3.1400e-01, 3.1700e-01, 2.8640e+00,
      8.5500e-01, 1.5520e+00, 1.1520e+00,-5.2000e-01,-2.2000e-02, 3.3510e+00,
     -1.9500e-01, 1.8000e-01, 1.6110e+00,-1.5810e+00,-1.3700e-01, 4.3100e-01,
      2.5880e+00, 5.1500e-01, 1.5990e+00, 1.2200e+00,-2.8000e+00,-4.3300e+00,
     -4.8190e+00,-6.2780e+00, 2.6290e+00,-5.3150e+00, 3.3430e+00,-1.9820e+00,
      2.7560e+00, 5.9690e+00, 6.4030e+00
    },
    { 2.1600e-01,-5.3000e-01,-1.0340e+00,-1.8280e+00, 9.7500e-01, 1.7810e+00,
      7.5800e-01,-1.9710e+00, 1.4890e+00, 1.5000e-01, 1.4880e+00,-9.6200e-01,
      2.1620e+00,-2.1130e+00,-2.2360e+00,-5.4000e-01,-1.3540e+00,-1.4600e+00,
     -3.2200e-01,-5.9000e-01, 1.2270e+00,-2.0000e-02, 1.0500e-01, 2.8830e+00,
      9.8900e-01, 1.5080e+00, 1.2420e+00,-5.6300e-01,-1.5700e-01, 3.5660e+00,
     -1.1100e-01, 1.1000e-02, 1.6090e+00,-1.6740e+00,-5.7000e-02, 3.5900e-01,
      2.5640e+00, 5.1200e-01, 1.5670e+00, 1.2580e+00,-3.2870e+00,-4.3600e+00,
     -5.0790e+00,-6.5150e+00, 2.8840e+00,-5.9070e+00, 3.0280e+00,-1.8670e+00,
      2.6840e+00, 6.0600e+00, 7.2130e+00
    },
    { 2.0000e-01,-5.0600e-01,-1.0650e+00,-1.8550e+00, 1.0360e+00, 1.8100e+00,
      8.6300e-01,-1.9220e+00, 1.6230e+00, 9.9000e-02, 1.3450e+00,-8.7500e-01,
      2.2260e+00,-1.9120e+00,-2.3050e+00,-6.0400e-01,-1.3960e+00,-1.5640e+00,
     -4.1600e-01,-5.5100e-01, 1.2620e+00, 7.1000e-02, 1.5900e-01, 2.8850e+00,
      1.0910e+00, 1.5290e+00, 1.0250e+00,-5.9400e-01,-3.3000e-02, 3.6090e+00,
     -7.0000e-02, 2.6000e-02, 1.5710e+00,-1.4020e+00,-1.0500e-01, 2.3300e-01,
      2.8200e+00, 4.9300e-01, 1.5710e+00, 1.2040e+00,-3.9560e+00,-4.3500e+00,
     -4.5070e+00,-6.7190e+00, 2.9430e+00,-5.7130e+00, 3.6460e+00,-1.8630e+00,
      2.0420e+00, 6.8020e+00, 6.7740e+00
    },
    { 1.1000e-02,-5.0200e-01,-1.2040e+00,-1.9020e+00, 1.2120e+00, 2.0760e+00,
      1.0590e+00,-2.0490e+00, 1.5690e+00, 1.2700e-01, 1.4240e+00,-7.0100e-01,
      2.0800e+00,-2.0930e+00,-2.1920e+00,-2.2200e-01,-1.5740e+00,-1.6140e+00,
     -6.6200e-01,-7.5800e-01, 1.1590e+00, 2.5900e-01,-6.0000e-02, 2.6840e+00,
      9.7600e-01, 1.3590e+00, 1.2080e+00,-4.3500e-01,-2.4200e-01, 3.7080e+00,
     -2.5000e-02, 3.2700e-01, 1.5670e+00,-1.8990e+00, 2.5900e-01,-3.9000e-02,
      2.8350e+00, 6.1700e-01, 1.8070e+00, 8.9800e-01,-4.1400e+00,-4.4150e+00,
     -5.1500e+00,-6.6500e+00, 3.7060e+00,-6.3330e+00, 4.1370e+00,-1.6560e+00,
      1.7990e+00, 6.0670e+00, 7.0110e+00
    },
    { 5.3000e-02,-5.2100e-01,-1.1320e+00,-2.0080e+00, 1.2810e+00, 2.0410e+00,
      9.9900e-01,-1.9810e+00, 1.5750e+00, 1.0500e-01, 1.4700e+00,-7.3300e-01,
      2.1990e+00,-2.0680e+00,-2.1310e+00,-2.2400e-01,-1.6630e+00,-1.6150e+00,
     -7.2500e-01,-6.9900e-01, 1.0940e+00, 2.0200e-01, 2.2000e-02, 2.7420e+00,
      7.9800e-01, 1.3010e+00, 1.0600e+00,-2.5300e-01,-2.9300e-01, 3.7390e+00,
     -2.8000e-02, 1.9500e-01, 1.5120e+00,-1.9760e+00, 1.7900e-01,-1.6700e-01,
      2.8620e+00, 5.9600e-01, 1.8500e+00, 8.6200e-01,-3.4830e+00,-3.8790e+00,
     -5.1270e+00,-6.6110e+00, 3.1080e+00,-6.4060e+00, 4.0900e+00,-2.3560e+00,
      2.4310e+00, 5.8170e+00, 6.9410e+00
    },
    { 8.0000e-02,-6.0900e-01,-1.1530e+00,-2.0650e+00, 1.1350e+00, 2.0730e+00,
      1.0200e+00,-1.9350e+00, 1.4980e+00, 7.0000e-02, 1.4200e+00,-9.2700e-01,
      2.1700e+00,-2.0520e+00,-1.9870e+00,-2.3700e-01,-1.5520e+00,-1.4840e+00,
     -6.9300e-01,-6.1900e-01, 1.1290e+00, 2.9500e-01, 1.1300e-01, 2.8830e+00,
      6.6500e-01, 1.4370e+00, 1.0720e+00,-3.2400e-01,-1.9300e-01, 3.9400e+00,
      1.3600e-01, 3.9000e-02, 1.5970e+00,-1.9890e+00, 1.4400e-01,-5.6000e-02,
      2.8640e+00, 5.5000e-01, 1.8230e+00, 7.7500e-01,-3.4010e+00,-4.0130e+00,
     -4.9890e+00,-6.7630e+00, 3.1350e+00,-5.8780e+00, 4.3610e+00,-2.3400e+00,
      3.0150e+00, 5.5230e+00, 6.6850e+00
    },
    {-6.0000e-03,-5.5500e-01,-1.2470e+00,-2.0820e+00, 1.0430e+00, 1.9890e+00,
      1.2560e+00,-1.7970e+00, 1.5790e+00, 0.0000e+00, 1.2510e+00,-1.0590e+00,
      2.2240e+00,-2.1130e+00,-2.2080e+00,-2.7300e-01,-1.5860e+00,-1.5260e+00,
     -7.1800e-01,-8.7000e-01, 1.2090e+00,-1.1000e-02, 6.9000e-02, 2.9900e+00,
      5.8800e-01, 1.7470e+00, 1.2100e+00,-3.9000e-01,-4.0700e-01, 4.1960e+00,
      1.7800e-01,-9.3000e-02, 1.5110e+00,-1.9810e+00, 2.2900e-01,-1.5700e-01,
      3.0310e+00, 5.1700e-01, 1.7320e+00, 6.8700e-01,-3.7220e+00,-3.7960e+00,
     -4.9900e+00,-7.0090e+00, 3.4990e+00,-6.1320e+00, 4.3190e+00,-1.3490e+00,
      3.0560e+00, 5.0740e+00, 6.8820e+00
    },
    { 6.2000e-02,-7.2400e-01,-1.0690e+00,-2.1550e+00, 9.4500e-01, 1.8220e+00,
      1.1780e+00,-1.7940e+00, 1.5800e+00, 1.6000e-01, 1.3510e+00,-1.0090e+00,
      2.2670e+00,-2.2720e+00,-2.2900e+00,-3.9600e-01,-1.7370e+00,-1.5260e+00,
     -7.3700e-01,-9.5900e-01, 1.2430e+00,-8.0000e-03, 2.3100e-01, 3.1000e+00,
      4.5400e-01, 1.7010e+00, 1.2560e+00,-2.5200e-01,-4.4000e-01, 4.1910e+00,
      1.6700e-01,-6.5000e-02, 1.5050e+00,-1.9580e+00, 1.8100e-01,-1.5100e-01,
      2.9920e+00, 5.6300e-01, 1.7130e+00, 7.1500e-01,-3.6890e+00,-4.1920e+00,
     -4.9040e+00,-7.6230e+00, 3.7140e+00,-6.2350e+00, 3.9110e+00,-1.5520e+00,
      2.8040e+00, 4.8230e+00, 7.5800e+00
    },
    { 9.6000e-02,-8.2200e-01,-9.2500e-01,-2.2850e+00, 8.0400e-01, 1.8560e+00,
      9.5700e-01,-1.6540e+00, 1.4580e+00, 3.1400e-01, 1.4220e+00,-9.3200e-01,
      2.2170e+00,-2.1810e+00,-2.0360e+00,-3.3300e-01,-1.5000e+00,-1.5240e+00,
     -6.8200e-01,-1.0290e+00, 1.4620e+00,-1.4000e-01, 3.5200e-01, 2.8260e+00,
      5.8100e-01, 1.4810e+00, 1.2940e+00,-2.5400e-01,-3.6400e-01, 4.1840e+00,
      1.9400e-01,-1.9600e-01, 1.3750e+00,-1.6610e+00, 3.2000e-02,-2.7400e-01,
      2.7740e+00, 5.1400e-01, 1.8010e+00, 6.5400e-01,-4.1730e+00,-4.2680e+00,
     -4.6130e+00,-7.4270e+00, 3.4310e+00,-6.6810e+00, 3.6030e+00,-1.8880e+00,
      2.7830e+00, 4.9600e+00, 6.5780e+00
    },
    { 2.1100e-01,-6.8500e-01,-1.1340e+00,-2.2430e+00, 8.3200e-01, 1.6810e+00,
      1.0840e+00,-1.8610e+00, 1.5690e+00, 3.2000e-01, 1.3830e+00,-9.9100e-01,
      2.2410e+00,-2.1060e+00,-2.1700e+00,-3.8600e-01,-1.6910e+00,-1.5230e+00,
     -8.5500e-01,-9.7000e-01, 1.3330e+00,-3.9000e-02, 1.8500e-01, 3.1720e+00,
      3.9200e-01, 1.6320e+00, 1.2460e+00,-3.4900e-01,-2.8600e-01, 4.2590e+00,
      8.9000e-02, 5.7000e-02, 1.3920e+00,-1.7710e+00, 2.4400e-01,-3.8100e-01,
      2.8050e+00, 5.6000e-01, 1.7050e+00, 5.9400e-01,-3.8610e+00,-3.9040e+00,
     -4.2950e+00,-7.3830e+00, 3.4900e+00,-5.9980e+00, 3.7870e+00,-1.4300e+00,
      2.7480e+00, 4.8890e+00, 7.0560e+00
    },
    { 2.0100e-01,-6.5900e-01,-1.0570e+00,-2.2100e+00, 8.5300e-01, 1.7250e+00,
      9.2300e-01,-1.8730e+00, 1.5530e+00, 3.1100e-01, 1.3300e+00,-9.0400e-01,
      2.3260e+00,-2.0410e+00,-2.0550e+00,-3.5900e-01,-1.4680e+00,-1.4790e+00,
     -7.5200e-01,-8.9100e-01, 1.4430e+00, 3.0000e-02, 1.2600e-01, 3.2180e+00,
      3.9900e-01, 1.5980e+00, 1.2610e+00,-4.6500e-01,-3.3900e-01, 4.2570e+00,
      2.6100e-01, 9.7000e-02, 1.3860e+00,-1.8890e+00, 4.0600e-01,-3.3900e-01,
      2.8960e+00, 6.6800e-01, 1.5370e+00, 5.3600e-01,-4.2450e+00,-3.9730e+00,
     -3.6180e+00,-6.8400e+00, 3.5030e+00,-5.9350e+00, 3.7380e+00,-2.0470e+00,
      2.3770e+00, 4.9980e+00, 6.6510e+00
    },
    { 1.9000e-01,-7.3600e-01,-1.1460e+00,-1.9740e+00, 1.1110e+00, 1.8320e+00,
      1.0420e+00,-2.0460e+00, 1.3110e+00, 2.2100e-01, 1.2200e+00,-9.1000e-01,
      2.1820e+00,-1.9130e+00,-2.0520e+00,-3.6300e-01,-1.5100e+00,-1.4450e+00,
     -8.4600e-01,-9.6000e-01, 1.2750e+00, 9.3000e-02, 3.1000e-02, 2.9840e+00,
      5.0800e-01, 1.6470e+00, 1.2040e+00,-4.4300e-01,-3.3600e-01, 4.2370e+00,
     -2.8000e-02, 1.8200e-01, 1.4070e+00,-1.9580e+00, 3.0000e-01,-4.3800e-01,
      2.8120e+00, 6.5900e-01, 1.4760e+00, 7.8400e-01,-3.8840e+00,-4.5030e+00,
     -3.9380e+00,-6.2740e+00, 3.5490e+00,-5.9600e+00, 4.0950e+00,-2.2310e+00,
      2.1370e+00, 5.3030e+00, 6.3930e+00
    },
    { 2.3600e-01,-8.8700e-01,-1.1360e+00,-1.9780e+00, 1.0370e+00, 1.9110e+00,
      9.6400e-01,-1.9240e+00, 1.1530e+00, 1.2700e-01, 1.2250e+00,-9.2100e-01,
      2.2220e+00,-2.1120e+00,-2.1150e+00,-3.1600e-01,-1.4300e+00,-1.3890e+00,
     -6.7700e-01,-1.0280e+00, 1.2980e+00, 1.6100e-01, 6.6000e-02, 2.9450e+00,
      5.0000e-01, 1.4630e+00, 1.0890e+00,-3.7600e-01,-2.9000e-01, 4.0860e+00,
      1.2000e-01, 1.8600e-01, 1.4120e+00,-1.9910e+00, 2.8300e-01,-4.7000e-01,
      2.6090e+00, 8.3200e-01, 1.6680e+00, 7.1700e-01,-3.6230e+00,-4.9210e+00,
     -4.0990e+00,-6.2720e+00, 4.0950e+00,-5.1700e+00, 3.9640e+00,-1.8170e+00,
      2.1980e+00, 5.3710e+00, 6.2210e+00
    },
    { 2.4800e-01,-9.2400e-01,-1.1860e+00,-2.0410e+00, 1.0840e+00, 1.9230e+00,
      1.0940e+00,-1.9470e+00, 1.1110e+00, 7.7000e-02, 1.1430e+00,-9.8300e-01,
      2.1830e+00,-2.1460e+00,-2.1260e+00,-2.9800e-01,-1.5510e+00,-1.4100e+00,
     -6.0900e-01,-1.0960e+00, 1.3370e+00, 2.0400e-01, 1.2700e-01, 3.0020e+00,
      3.9400e-01, 1.5350e+00, 1.1760e+00,-4.4700e-01,-1.8300e-01, 4.0270e+00,
      8.2000e-02, 2.7000e-01, 1.3370e+00,-2.0020e+00, 2.1200e-01,-5.3100e-01,
      2.7040e+00, 7.7700e-01, 1.5960e+00, 8.9000e-01,-3.7850e+00,-4.5430e+00,
     -4.4820e+00,-6.0840e+00, 3.9780e+00,-5.0420e+00, 4.3620e+00,-1.3650e+00,
      1.8310e+00, 5.5960e+00, 6.4070e+00
    },
    { 1.8300e-01,-9.0800e-01,-1.1030e+00,-2.2680e+00, 9.6500e-01, 2.0580e+00,
      8.8200e-01,-1.8760e+00, 9.6500e-01, 2.8600e-01, 1.1550e+00,-1.1090e+00,
      2.1340e+00,-2.3500e+00,-1.9370e+00,-4.9600e-01,-1.4440e+00,-1.4650e+00,
     -7.5000e-01,-1.2000e+00, 1.2410e+00,-1.1000e-02, 1.1500e-01, 2.9260e+00,
      6.0800e-01, 1.5830e+00, 1.4270e+00,-5.6300e-01,-3.0800e-01, 3.8000e+00,
     -4.3000e-02, 2.6100e-01, 1.3690e+00,-2.1460e+00, 3.6800e-01,-7.0000e-01,
      2.8870e+00, 8.6300e-01, 1.5210e+00, 6.8500e-01,-4.3210e+00,-4.4810e+00,
     -3.7400e+00,-6.2430e+00, 3.9390e+00,-5.8250e+00, 4.0440e+00,-1.5310e+00,
      2.0900e+00, 4.8940e+00, 6.7930e+00
    },
    { 2.3300e-01,-8.9900e-01,-8.5200e-01,-2.1500e+00, 1.0640e+00, 1.9810e+00,
      8.9500e-01,-2.0510e+00, 9.4800e-01, 3.0000e-01, 1.3010e+00,-1.2940e+00,
      2.2260e+00,-2.4530e+00,-1.9140e+00,-3.5900e-01,-1.5020e+00,-1.4280e+00,
     -7.0300e-01,-1.0860e+00, 1.3450e+00,-1.3000e-02, 3.1400e-01, 2.9390e+00,
      6.0200e-01, 1.5560e+00, 1.2920e+00,-6.7300e-01,-2.4800e-01, 3.6860e+00,
     -5.8000e-02, 3.2800e-01, 1.3140e+00,-2.0100e+00, 3.3400e-01,-6.6900e-01,
      2.7650e+00, 8.6000e-01, 1.5480e+00, 6.3700e-01,-3.8200e+00,-4.0880e+00,
     -4.2400e+00,-6.5490e+00, 3.5850e+00,-5.5220e+00, 4.1340e+00,-1.0210e+00,
      2.1710e+00, 4.9090e+00, 6.6160e+00
    },
    { 2.3300e-01,-7.4400e-01,-1.1110e+00,-2.2860e+00, 1.3970e+00, 1.9880e+00,
      6.5500e-01,-2.0120e+00, 9.8300e-01, 2.7600e-01, 1.1900e+00,-1.2170e+00,
      2.3050e+00,-2.1890e+00,-1.8490e+00,-3.9100e-01,-1.5630e+00,-1.1310e+00,
     -7.1700e-01,-1.1500e+00, 1.2400e+00, 6.6000e-02,-4.4000e-02, 2.7770e+00,
      7.0900e-01, 1.3610e+00, 1.5230e+00,-3.6600e-01,-2.0900e-01, 4.0150e+00,
     -4.9000e-02, 6.4000e-02, 1.4330e+00,-2.1960e+00, 4.5900e-01,-5.6500e-01,
      2.7580e+00, 7.9800e-01, 1.5000e+00, 8.3600e-01,-3.7460e+00,-4.5620e+00,
     -3.9790e+00,-6.0710e+00, 3.5840e+00,-5.2900e+00, 3.6010e+00,-1.5530e+00,
      2.1020e+00, 4.5410e+00, 6.8170e+00
    },
    { 1.1900e-01,-6.9700e-01,-1.0700e+00,-2.0580e+00, 1.4690e+00, 1.8870e+00,
      6.2000e-01,-1.9260e+00, 1.1030e+00, 1.4900e-01, 1.2150e+00,-1.1730e+00,
      2.0850e+00,-1.9990e+00,-1.7720e+00,-2.9500e-01,-1.6380e+00,-1.0230e+00,
     -5.2000e-01,-1.0380e+00, 9.9200e-01, 6.2000e-02,-3.3000e-02, 2.8830e+00,
      7.1500e-01, 1.2630e+00, 1.2700e+00,-4.2000e-01,-2.4900e-01, 3.6880e+00,
      6.2000e-02,-3.2800e-01, 1.5350e+00,-1.9220e+00, 2.3900e-01,-2.7000e-01,
      2.5550e+00, 5.1300e-01, 1.5000e+00, 9.1800e-01,-3.2640e+00,-4.4680e+00,
     -4.9070e+00,-5.8190e+00, 3.6160e+00,-5.9790e+00, 3.5060e+00,-1.9580e+00,
      2.5770e+00, 4.2930e+00, 6.9680e+00
    },
    { 2.8800e-01,-7.9900e-01,-1.0180e+00,-2.0350e+00, 1.5640e+00, 1.8260e+00,
      8.4100e-01,-1.7940e+00, 1.0720e+00, 9.6000e-02, 1.1540e+00,-1.0530e+00,
      2.1400e+00,-2.0940e+00,-1.9590e+00,-4.7200e-01,-1.6110e+00,-1.0490e+00,
     -6.1300e-01,-8.7300e-01, 1.1320e+00, 1.7000e-02, 8.6000e-02, 2.7140e+00,
      6.6500e-01, 1.1920e+00, 1.2970e+00,-4.4600e-01,-2.5600e-01, 3.7580e+00,
     -8.6000e-02,-2.5500e-01, 1.4420e+00,-2.0370e+00, 2.2500e-01,-4.1100e-01,
      2.4130e+00, 5.1900e-01, 1.3830e+00, 8.5200e-01,-3.2890e+00,-4.2070e+00,
     -4.8480e+00,-6.4710e+00, 3.2930e+00,-6.8930e+00, 3.9080e+00,-1.5140e+00,
      2.0990e+00, 4.8390e+00, 6.1240e+00
    },
    { 2.9100e-01,-8.7600e-01,-7.5400e-01,-1.8560e+00, 1.4510e+00, 1.7570e+00,
      9.1300e-01,-1.5990e+00, 9.9700e-01, 5.9000e-02, 1.1870e+00,-1.1170e+00,
      1.8570e+00,-2.1870e+00,-1.9180e+00,-4.8100e-01,-1.6740e+00,-9.7800e-01,
     -6.6700e-01,-9.5200e-01, 1.2270e+00,-7.1000e-02, 1.1000e-01, 2.6730e+00,
      6.2300e-01, 1.0040e+00, 1.3610e+00,-5.2400e-01,-3.9500e-01, 3.8180e+00,
     -1.7200e-01,-1.8200e-01, 1.3540e+00,-2.0310e+00, 1.0600e-01,-6.7700e-01,
      2.3110e+00, 4.8600e-01, 1.5220e+00, 7.7000e-01,-3.1270e+00,-4.8480e+00,
     -4.6030e+00,-6.5650e+00, 2.6710e+00,-7.0620e+00, 3.7540e+00,-1.2270e+00,
      1.9910e+00, 5.2300e+00, 5.8230e+00
    },
    { 3.0600e-01,-9.4100e-01,-8.7900e-01,-1.8590e+00, 1.7470e+00, 1.8600e+00,
      9.6000e-01,-1.6000e+00, 9.7700e-01, 3.4000e-02, 9.6800e-01,-1.3340e+00,
      2.0540e+00,-2.3060e+00,-1.9390e+00,-4.1000e-01,-1.8360e+00,-9.5900e-01,
     -6.0800e-01,-1.1700e+00, 1.3270e+00,-4.9000e-02, 8.0000e-02, 2.5930e+00,
      4.9500e-01, 1.2000e+00, 1.3570e+00,-4.3100e-01,-3.7300e-01, 3.7670e+00,
      4.4000e-02,-4.2000e-01, 1.3490e+00,-1.8610e+00, 2.4000e-02,-5.2100e-01,
      2.4860e+00, 5.6400e-01, 1.3260e+00, 9.9000e-01,-3.2530e+00,-6.0380e+00,
     -4.4730e+00,-7.3350e+00, 3.4410e+00,-6.5790e+00, 3.3910e+00,-1.1720e+00,
      1.8550e+00, 5.4400e+00, 6.1850e+00
    },
    { 2.2500e-01,-1.0770e+00,-7.8900e-01,-1.8480e+00, 1.6310e+00, 1.8170e+00,
      1.1080e+00,-1.5690e+00, 9.3300e-01, 2.7000e-02, 9.6600e-01,-1.2550e+00,
      2.1410e+00,-2.2390e+00,-1.8380e+00,-4.1900e-01,-1.7820e+00,-8.9700e-01,
     -5.1300e-01,-1.3020e+00, 1.2570e+00,-6.3000e-02, 2.1100e-01, 2.4210e+00,
      5.0800e-01, 1.1220e+00, 1.2800e+00,-2.7800e-01,-2.8800e-01, 3.7640e+00,
      5.0000e-02,-4.7500e-01, 1.3500e+00,-1.8250e+00, 8.2000e-02,-4.4700e-01,
      2.4610e+00, 5.4800e-01, 1.4210e+00, 9.9500e-01,-3.6470e+00,-5.9720e+00,
     -4.7080e+00,-7.1240e+00, 3.9610e+00,-6.7210e+00, 3.3310e+00,-1.8920e+00,
      2.0200e+00, 5.2810e+00, 6.0390e+00
    },
    { 1.5200e-01,-9.8800e-01,-7.4900e-01,-2.0160e+00, 1.7100e+00, 1.7670e+00,
      1.1650e+00,-1.3690e+00, 8.5400e-01, 1.3500e-01, 1.0230e+00,-1.1710e+00,
      2.1040e+00,-1.9170e+00,-1.8710e+00,-4.3700e-01,-1.6770e+00,-9.0200e-01,
     -6.8200e-01,-1.2820e+00, 8.5800e-01,-2.7800e-01, 2.2800e-01, 2.5510e+00,
      3.3500e-01, 1.0320e+00, 1.4290e+00,-2.0500e-01,-8.9000e-02, 3.9610e+00,
     -0.0000e+00,-5.1700e-01, 1.5440e+00,-1.8660e+00, 2.6000e-01,-2.6800e-01,
      2.5260e+00, 7.3200e-01, 1.3060e+00, 1.0690e+00,-3.1820e+00,-5.6450e+00,
     -4.6760e+00,-6.9300e+00, 3.5980e+00,-6.3190e+00, 3.4480e+00,-1.7550e+00,
      2.6490e+00, 5.8840e+00, 6.0000e+00
    }
  };


  double netfun(std::vector<double>& in, const double* w)
  {
    double x00 = in[0];
    double x01 = in[1];
    double x02 = in[2];
    double x;

    //Layer 1, Node 0
    x = w[0];
    x = x + w[1] * x00;
    x = x + w[2] * x01;
    x = x + w[3] * x02;
    double x10 = tanh(x);

    //Layer 1, Node 1
    x = w[4];
    x = x + w[5] * x00;
    x = x + w[6] * x01;
    x = x + w[7] * x02;
    double x11 = tanh(x);

    //Layer 1, Node 2
    x = w[8];
    x = x + w[9] * x00;
    x = x + w[10] * x01;
    x = x + w[11] * x02;
    double x12 = tanh(x);

    //Layer 1, Node 3
    x = w[12];
    x = x + w[13] * x00;
    x = x + w[14] * x01;
    x = x + w[15] * x02;
    double x13 = tanh(x);

    //Layer 1, Node 4
    x = w[16];
    x = x + w[17] * x00;
    x = x + w[18] * x01;
    x = x + w[19] * x02;
    double x14 = tanh(x);

    //Layer 1, Node 5
    x = w[20];
    x = x + w[21] * x00;
    x = x + w[22] * x01;
    x = x + w[23] * x02;
    double x15 = tanh(x);

    //Layer 1, Node 6
    x = w[24];
    x = x + w[25] * x00;
    x = x + w[26] * x01;
    x = x + w[27] * x02;
    double x16 = tanh(x);

    //Layer 1, Node 7
    x = w[28];
    x = x + w[29] * x00;
    x = x + w[30] * x01;
    x = x + w[31] * x02;
    double x17 = tanh(x);

    //Layer 1, Node 8
    x = w[32];
    x = x + w[33] * x00;
    x = x + w[34] * x01;
    x = x + w[35] * x02;
    double x18 = tanh(x);

    //Layer 1, Node 9
    x = w[36];
    x = x + w[37] * x00;
    x = x + w[38] * x01;
    x = x + w[39] * x02;
    double x19 = tanh(x);

    //Layer 2, Node 0
    x = w[40];
    x = x + w[41] * x10;
    x = x + w[42] * x11;
    x = x + w[43] * x12;
    x = x + w[44] * x13;
    x = x + w[45] * x14;
    x = x + w[46] * x15;
    x = x + w[47] * x16;
    x = x + w[48] * x17;
    x = x + w[49] * x18;
    x = x + w[50] * x19;
    double x20 = 1.0/(1.0+exp(-x));
    return x20;
  }
} // end namespace m4lmelamet

//-----------------------------------------------------------------------------
// Compute average over networks. Default is to use all networks
//-----------------------------------------------------------------------------

double m4lmelamet(std::vector<double>& inputs,
                  int first=0,
                  int last=m4lmelamet_::nnetworks-1)
{
  if ( first < 0 ) first = 0;
  if ( last  < 0 ) last  = m4lmelamet_::nnetworks-1;
  if ( last  > m4lmelamet_::nnetworks-1 ) last = m4lmelamet_::nnetworks-1;
  if ( first > last )
    {
      std::cerr << "** m4lmelamet ** first-index > last-index"
                << std::endl; exit(3);
    }

  // Compute average over networks
  std::vector<double> in(m4lmelamet_::ninputs);
  in[0] = (inputs[0] - m4lmelamet_::mean[0]) / m4lmelamet_::sigma[0];
  in[1] = (inputs[1] - m4lmelamet_::mean[1]) / m4lmelamet_::sigma[1];
  in[2] = (inputs[2] - m4lmelamet_::mean[2]) / m4lmelamet_::sigma[2];

  int   n = last - first + 1;
  double x = 0.0;
  for(int i=first; i <= last; i++) x += m4lmelamet_::netfun(in, m4lmelamet_::weight[i]);
  x /= n;
  return x;
}

double m4lmelamet(double f_mass4l,
                  double f_D_bkg_kin,
                  double f_pfmet,
                  int first=0, int last=m4lmelamet_::nnetworks-1)
{
  std::vector<double> in(m4lmelamet_::ninputs);
  in[0] = f_mass4l;
  in[1] = f_D_bkg_kin;
  in[2] = f_pfmet;
  return m4lmelamet(in, first, last);
}
