//-----------------------------------------------------------------------------
// Network: m4lmela
// Inputs:
//                                                  Offset       Scale
//    f_mass4l                                   1.176e+02   2.049e+01
//    f_D_bkg_kin                                4.662e-01   2.850e-01
//
// Created: Mon May  1 15:13:55 2017 by netwrite.py
//-----------------------------------------------------------------------------
#include <cmath>
#include <vector>
#include <iostream>
#include <stdlib.h>
//-----------------------------------------------------------------------------
// Make following visible only to this programming unit
namespace {
  // NOTE: Network indices start at 0
  static const int nnetworks=100;
  static const int ninputs  =2;
  static const int nhidden  =10;
  static const int nparams  =41;

  static const double mean[ninputs]={
  1.1760e+02,
  4.6620e-01
  };

  static const double sigma[ninputs]={
  2.0490e+01,
  2.8500e-01
  };

  static const double weight[nnetworks][nparams]={
    { 2.8240e+00, 4.3900e-01,-1.6080e+00, 1.1030e+00,-1.7040e+00, 7.7000e-01,
      1.4820e+00, 1.2380e+00,-1.4450e+00, 3.7880e+00, 1.0260e+00, 2.7780e+00,
      1.6430e+00, 4.2450e+00,-2.5500e-01, 1.3230e+00,-5.8070e+00, 2.2500e-01,
     -2.7470e+00,-1.9850e+00,-5.4800e-01, 3.2400e-01, 2.9550e+00,-2.1180e+00,
     -4.3940e+00,-4.3260e+00, 6.0000e-02, 4.1250e+00,-7.5700e+00,-3.1600e-01,
     -1.5300e+00,-2.0380e+00, 6.8800e-01,-3.0700e-01, 1.7000e+00, 1.2240e+00,
     -2.7780e+00, 2.4080e+00,-7.8000e-01,-2.3990e+00, 2.9060e+00
    },
    { 2.9770e+00, 4.6400e-01,-1.6080e+00, 1.4170e+00,-1.8080e+00, 2.4600e-01,
      1.3550e+00, 1.0100e+00,-1.4650e+00, 4.0540e+00, 7.0000e-01, 2.8560e+00,
      1.7980e+00, 3.9590e+00,-7.4000e-02, 1.3120e+00,-5.7410e+00, 3.9000e-02,
     -3.1170e+00,-2.1120e+00,-5.2600e-01, 1.9900e-01, 3.0530e+00,-1.4710e+00,
     -4.5180e+00,-4.4750e+00,-1.4800e-01, 4.1010e+00,-7.4690e+00,-1.3500e-01,
     -1.6710e+00,-2.0550e+00, 9.0900e-01,-3.9000e-01, 1.9000e+00, 1.3430e+00,
     -2.7850e+00, 2.1090e+00,-8.4700e-01,-1.9580e+00, 2.6160e+00
    },
    { 3.1340e+00, 2.9100e-01,-1.6830e+00, 1.3060e+00,-1.4160e+00,-3.2000e-02,
      1.0040e+00, 9.6400e-01,-1.4490e+00, 4.1680e+00, 9.7600e-01, 2.6780e+00,
      1.5120e+00, 4.0580e+00, 6.9000e-02, 1.1620e+00,-5.3980e+00,-1.8400e-01,
     -2.9900e+00,-2.3720e+00,-4.4300e-01, 6.1400e-01, 3.2760e+00,-9.0100e-01,
     -4.6820e+00,-4.7370e+00,-5.3000e-02, 4.1850e+00,-7.6660e+00,-4.5000e-02,
     -2.0260e+00,-1.6660e+00, 8.9100e-01,-8.7600e-01, 1.4470e+00, 9.9800e-01,
     -2.8720e+00, 1.8110e+00,-8.0000e-01,-2.7200e+00, 2.6720e+00
    },
    { 3.7110e+00, 6.3000e-01,-1.9310e+00, 1.2440e+00,-2.1750e+00, 3.2900e-01,
      8.1000e-01, 1.1000e+00,-1.3390e+00, 3.1910e+00, 7.2100e-01, 2.2290e+00,
      1.8490e+00, 3.9040e+00,-1.6400e-01, 1.2190e+00,-5.2420e+00,-4.4000e-02,
     -2.8680e+00,-2.2780e+00,-8.1500e-01, 4.0000e-02, 3.8150e+00,-1.0670e+00,
     -4.4440e+00,-4.3650e+00,-1.8600e-01, 4.1570e+00,-7.4510e+00,-1.8900e-01,
     -1.5850e+00,-2.4150e+00, 5.3100e-01,-6.8800e-01, 1.7050e+00, 1.3460e+00,
     -3.0370e+00, 2.3730e+00,-5.2200e-01,-2.6680e+00, 3.0580e+00
    },
    { 3.4550e+00, 2.7800e-01,-1.9130e+00, 9.2400e-01,-1.9520e+00, 1.0000e-02,
      4.1000e-01, 1.5170e+00,-1.3470e+00, 2.9010e+00, 4.6100e-01, 1.9490e+00,
      1.6060e+00, 3.7590e+00, 1.9000e-02, 1.1700e+00,-5.3310e+00, 1.3300e-01,
     -2.8910e+00,-2.0710e+00,-3.2300e-01,-8.5000e-02, 4.1590e+00,-1.2090e+00,
     -4.4950e+00,-4.3310e+00, 1.1000e-02, 3.8550e+00,-7.1670e+00,-1.5900e-01,
     -1.0670e+00,-2.8860e+00, 4.3000e-01,-6.5600e-01, 2.5390e+00, 1.1870e+00,
     -3.2840e+00, 2.9310e+00,-6.8400e-01,-2.5250e+00, 3.0970e+00
    },
    { 2.7090e+00, 2.5500e-01,-1.6060e+00, 1.4210e+00,-3.1170e+00, 4.6600e-01,
      4.2500e-01, 8.5100e-01,-7.7500e-01, 3.1190e+00, 8.3600e-01, 2.1930e+00,
      1.5760e+00, 3.6100e+00,-6.7400e-01, 1.2790e+00,-5.5340e+00,-2.1000e-02,
     -3.0680e+00,-2.0380e+00,-6.4600e-01, 2.3000e-02, 3.8870e+00,-1.8720e+00,
     -4.9720e+00,-4.6240e+00, 3.0100e-01, 3.8010e+00,-7.0900e+00,-2.3000e-01,
     -1.2880e+00,-2.3900e+00,-3.6000e-02,-7.3500e-01, 2.1740e+00, 1.0840e+00,
     -2.9520e+00, 2.8690e+00,-3.6100e-01,-2.4590e+00, 3.5300e+00
    },
    { 2.9760e+00, 4.0400e-01,-1.5160e+00, 1.6130e+00,-3.1590e+00,-8.0200e-01,
      5.5500e-01, 1.0950e+00,-8.6200e-01, 2.9990e+00, 6.4400e-01, 1.9970e+00,
      1.9880e+00, 4.0180e+00,-3.2000e-01, 1.2910e+00,-5.0960e+00, 4.2000e-02,
     -3.3590e+00,-2.2320e+00,-3.8800e-01,-4.7100e-01, 3.5190e+00,-1.5160e+00,
     -4.9710e+00,-4.1790e+00, 3.8300e-01, 3.9210e+00,-7.2540e+00,-1.1200e-01,
     -9.9000e-01,-2.5830e+00, 5.9400e-01,-1.4780e+00, 2.2670e+00, 1.5770e+00,
     -3.3760e+00, 3.2620e+00,-5.4900e-01,-2.8850e+00, 2.9990e+00
    },
    { 2.9280e+00, 2.8000e-01,-1.4140e+00, 1.4400e+00,-3.4150e+00,-9.0600e-01,
      4.9600e-01, 1.0050e+00,-1.0250e+00, 2.7650e+00, 5.7400e-01, 1.7580e+00,
      1.7420e+00, 4.0580e+00,-4.0000e-02, 1.2880e+00,-5.1190e+00, 3.2000e-02,
     -3.1660e+00,-2.4180e+00,-2.2100e-01,-3.6900e-01, 3.0550e+00,-1.0240e+00,
     -4.8030e+00,-4.2870e+00, 8.2000e-02, 3.7240e+00,-6.8050e+00,-1.4900e-01,
     -1.3900e+00,-2.6270e+00, 6.0300e-01,-1.1530e+00, 2.1360e+00, 1.5930e+00,
     -3.2330e+00, 3.2780e+00,-3.1600e-01,-3.1480e+00, 3.3200e+00
    },
    { 2.7490e+00, 2.3000e-01,-1.1360e+00, 1.4580e+00,-3.3020e+00,-8.1000e-01,
      6.1200e-01, 8.4400e-01,-9.9500e-01, 2.7450e+00, 5.2200e-01, 1.7100e+00,
      1.7520e+00, 4.0100e+00,-5.4000e-02, 1.2980e+00,-4.9270e+00,-1.1300e-01,
     -3.3380e+00,-2.1920e+00, 6.6000e-02,-2.9900e-01, 3.1390e+00,-1.3820e+00,
     -4.9210e+00,-4.0770e+00, 4.5300e-01, 3.3860e+00,-6.3430e+00, 1.1000e-02,
     -1.1460e+00,-2.6130e+00, 4.4500e-01,-1.1540e+00, 2.4280e+00, 1.1250e+00,
     -3.3800e+00, 3.2930e+00,-3.8000e-02,-2.9800e+00, 3.6890e+00
    },
    { 2.9270e+00, 3.7700e-01,-1.5800e+00, 1.8380e+00,-3.2960e+00,-7.9100e-01,
      6.4500e-01, 9.5000e-01,-9.8200e-01, 2.9960e+00, 8.6000e-01, 1.9280e+00,
      1.9300e+00, 3.8970e+00,-2.7900e-01, 1.4110e+00,-4.9870e+00,-2.9000e-02,
     -2.7800e+00,-2.0190e+00,-6.1100e-01,-5.7600e-01, 3.0110e+00,-1.6030e+00,
     -4.7530e+00,-4.3750e+00, 2.9300e-01, 3.5520e+00,-6.7460e+00,-4.0000e-02,
     -1.2460e+00,-2.5780e+00, 2.1600e-01,-1.2530e+00, 2.5330e+00, 1.0530e+00,
     -3.4600e+00, 3.2670e+00,-1.6900e-01,-3.1220e+00, 3.8090e+00
    },
    { 3.1640e+00, 7.3500e-01,-1.5250e+00, 1.8050e+00,-3.2790e+00,-7.4400e-01,
      5.0800e-01, 1.0620e+00,-1.2080e+00, 2.9420e+00, 1.1410e+00, 2.4030e+00,
      1.9880e+00, 3.7420e+00,-3.3000e-01, 1.3830e+00,-5.3240e+00, 1.1300e-01,
     -2.6770e+00,-2.2170e+00,-6.6100e-01,-9.1000e-01, 3.1770e+00,-1.2770e+00,
     -4.5730e+00,-4.2950e+00, 2.6600e-01, 3.4920e+00,-6.6580e+00,-1.0200e-01,
     -6.1100e-01,-2.8390e+00, 4.3300e-01,-1.5700e+00, 1.5970e+00, 1.2070e+00,
     -3.4530e+00, 3.3870e+00,-1.3500e-01,-3.5910e+00, 3.4610e+00
    },
    { 3.2670e+00, 6.8900e-01,-1.6820e+00, 1.7640e+00,-3.0440e+00,-5.8800e-01,
      5.8800e-01, 1.3000e+00,-1.2690e+00, 2.9840e+00, 1.0020e+00, 2.3440e+00,
      1.9150e+00, 3.7680e+00,-2.0400e-01, 1.4780e+00,-5.3270e+00, 5.5000e-02,
     -2.9180e+00,-2.3760e+00,-7.4600e-01,-1.3780e+00, 2.9830e+00,-1.4890e+00,
     -4.4810e+00,-4.0870e+00, 3.2300e-01, 3.5570e+00,-6.7430e+00,-1.6900e-01,
     -7.4600e-01,-2.7400e+00,-1.0000e-03,-1.3400e+00, 1.4530e+00, 1.6240e+00,
     -3.4120e+00, 2.8640e+00,-2.1500e-01,-2.8930e+00, 3.8420e+00
    },
    { 3.3840e+00, 6.2600e-01,-1.6610e+00, 1.7400e+00,-3.2280e+00,-5.2400e-01,
      5.3500e-01, 1.4020e+00,-1.1880e+00, 3.4170e+00, 7.7500e-01, 2.5330e+00,
      1.9480e+00, 3.7300e+00,-3.1700e-01, 1.3240e+00,-5.0420e+00, 1.7000e-01,
     -2.8500e+00,-2.1790e+00,-9.1600e-01,-1.2920e+00, 2.9920e+00,-1.4520e+00,
     -4.5910e+00,-4.1940e+00, 1.3400e-01, 3.7190e+00,-6.9020e+00,-1.9700e-01,
     -6.3900e-01,-3.3560e+00,-2.8200e-01,-1.8220e+00, 1.9410e+00, 1.7590e+00,
     -3.2780e+00, 2.9670e+00, 0.0000e+00,-3.0950e+00, 3.8590e+00
    },
    { 4.1440e+00, 4.5400e-01,-2.1390e+00, 2.0340e+00,-3.3830e+00,-3.6900e-01,
      1.2000e-02, 9.7100e-01,-6.8600e-01, 3.0160e+00, 5.5500e-01, 1.8440e+00,
      9.8200e-01, 3.8190e+00, 3.4700e-01, 1.0860e+00,-3.7730e+00,-2.8000e-02,
     -3.4270e+00,-2.1980e+00,-1.5500e-01,-8.4400e-01, 3.1450e+00,-1.3480e+00,
     -4.6150e+00,-4.4440e+00, 1.1700e-01, 3.9200e+00,-7.0800e+00,-2.3300e-01,
     -6.0600e-01,-2.6520e+00,-1.3000e-01,-1.5110e+00, 1.6160e+00, 8.7100e-01,
     -3.4860e+00, 2.6450e+00,-4.8000e-02,-2.7060e+00, 3.9410e+00
    },
    { 3.7600e+00, 4.7900e-01,-1.9310e+00, 1.8510e+00,-3.0730e+00,-2.9900e-01,
      5.1800e-01, 1.5060e+00,-1.1030e+00, 3.0800e+00, 5.3300e-01, 2.0030e+00,
      1.7270e+00, 3.6960e+00,-1.2600e-01, 1.1860e+00,-4.3910e+00, 1.9100e-01,
     -3.1050e+00,-2.1860e+00,-4.3900e-01,-1.0240e+00, 2.9870e+00,-1.1840e+00,
     -4.5550e+00,-4.2430e+00, 1.8300e-01, 3.5840e+00,-6.7470e+00,-2.4800e-01,
     -8.3200e-01,-3.1420e+00,-2.2000e-01,-1.4060e+00, 2.1300e+00, 1.4640e+00,
     -4.0360e+00, 2.7760e+00,-1.0260e+00,-2.7570e+00, 3.9760e+00
    },
    { 3.9380e+00, 4.0200e-01,-1.9690e+00, 1.9300e+00,-2.9430e+00,-1.7700e-01,
      5.5400e-01, 1.5430e+00,-1.0600e+00, 3.2150e+00, 4.8600e-01, 2.1410e+00,
      1.7210e+00, 3.6950e+00,-3.5200e-01, 1.1800e+00,-4.4300e+00, 2.2900e-01,
     -3.2130e+00,-2.2280e+00,-4.3700e-01,-8.0900e-01, 3.1580e+00,-1.1360e+00,
     -4.2670e+00,-4.2790e+00, 2.3700e-01, 3.4700e+00,-6.6190e+00,-1.7800e-01,
     -5.4900e-01,-3.6430e+00, 3.8400e-01,-1.4290e+00, 2.0040e+00, 1.1840e+00,
     -4.3690e+00, 2.1710e+00,-1.2310e+00,-2.8990e+00, 3.5910e+00
    },
    { 3.7780e+00, 2.6400e-01,-1.8480e+00, 2.3750e+00,-3.0710e+00,-4.7200e-01,
      9.8800e-01, 1.8170e+00,-1.2150e+00, 3.1400e+00, 1.0120e+00, 2.3400e+00,
      1.8190e+00, 4.1620e+00,-1.3300e-01, 1.0460e+00,-4.3310e+00, 1.5300e-01,
     -3.1460e+00,-2.7270e+00,-8.0800e-01,-1.3900e+00, 3.2140e+00,-1.4770e+00,
     -4.4360e+00,-4.5850e+00,-1.1000e-01, 3.4550e+00,-6.6600e+00,-2.8600e-01,
     -8.0900e-01,-2.8330e+00,-1.2600e-01,-1.1690e+00, 1.6150e+00, 7.4900e-01,
     -4.5780e+00, 2.2120e+00,-1.3080e+00,-2.8810e+00, 4.0690e+00
    },
    { 3.7000e+00, 4.2300e-01,-1.9290e+00, 2.4130e+00,-3.1250e+00,-3.9800e-01,
      4.3700e-01, 1.5550e+00,-1.2650e+00, 3.2890e+00, 8.8800e-01, 2.1730e+00,
      1.9540e+00, 4.0560e+00, 1.3000e-02, 1.3730e+00,-4.4370e+00, 4.0000e-02,
     -3.2060e+00,-2.4470e+00,-4.8800e-01,-1.4150e+00, 2.8730e+00,-9.1400e-01,
     -4.5120e+00,-4.3360e+00, 1.1900e-01, 3.3330e+00,-6.5270e+00,-2.2800e-01,
     -1.5990e+00,-2.1990e+00, 1.5600e-01,-1.1730e+00, 1.9690e+00, 9.7900e-01,
     -4.8560e+00, 3.0430e+00,-7.3200e-01,-3.1750e+00, 4.4920e+00
    },
    { 3.7290e+00, 5.8900e-01,-1.9950e+00, 2.4090e+00,-3.1950e+00,-5.7400e-01,
      3.6100e-01, 1.6620e+00,-1.2510e+00, 3.2750e+00, 7.6100e-01, 2.2500e+00,
      1.7200e+00, 4.2970e+00,-1.0200e-01, 1.3780e+00,-4.4210e+00, 4.6000e-02,
     -3.4770e+00,-2.5730e+00,-5.8700e-01,-1.2700e+00, 2.8360e+00,-8.7200e-01,
     -4.4080e+00,-4.3570e+00,-2.2000e-02, 3.5110e+00,-6.8920e+00,-2.5000e-02,
     -1.3940e+00,-2.2990e+00, 5.7500e-01,-1.3620e+00, 1.6420e+00, 9.4600e-01,
     -4.6800e+00, 2.7040e+00,-2.7600e-01,-3.1420e+00, 4.3730e+00
    },
    { 3.2090e+00, 4.1400e-01,-1.8150e+00, 2.3730e+00,-3.1530e+00,-3.2000e-01,
      4.2700e-01, 1.8640e+00,-1.3340e+00, 2.9170e+00, 8.2700e-01, 2.2530e+00,
      1.6520e+00, 4.2030e+00,-4.6000e-02, 1.3990e+00,-4.4300e+00, 1.1000e-02,
     -3.4010e+00,-2.3990e+00,-6.1200e-01,-1.3190e+00, 3.3180e+00,-7.4800e-01,
     -4.3310e+00,-3.9400e+00,-4.3000e-02, 3.2760e+00,-6.2950e+00,-1.7100e-01,
     -9.6100e-01,-2.4190e+00, 3.2300e-01,-1.0650e+00, 1.7370e+00, 1.1350e+00,
     -4.6400e+00, 3.1640e+00,-3.8300e-01,-3.0120e+00, 4.5480e+00
    },
    { 2.9070e+00, 4.5600e-01,-1.4730e+00, 2.5510e+00,-3.3280e+00,-3.8100e-01,
      4.7300e-01, 1.8830e+00,-1.1080e+00, 2.6910e+00, 7.1400e-01, 1.9020e+00,
      1.6110e+00, 4.0760e+00,-5.2000e-02, 1.1780e+00,-4.3180e+00, 1.1200e-01,
     -3.1630e+00,-2.4110e+00,-7.4500e-01,-7.5300e-01, 2.6070e+00,-8.6600e-01,
     -4.4790e+00,-4.3970e+00, 2.1600e-01, 3.2290e+00,-6.1470e+00,-1.3700e-01,
     -9.4800e-01,-2.9520e+00, 2.1200e-01,-9.8200e-01, 2.0820e+00, 9.2700e-01,
     -4.3080e+00, 2.9110e+00,-7.1000e-01,-3.0840e+00, 3.9960e+00
    },
    { 2.6690e+00, 2.8900e-01,-1.3830e+00, 2.3260e+00,-3.4170e+00,-4.9800e-01,
      5.4000e-01, 1.9460e+00,-1.1950e+00, 2.5880e+00, 8.5700e-01, 1.6960e+00,
      1.6270e+00, 3.9580e+00,-2.4300e-01, 1.0750e+00,-4.0390e+00, 1.9000e-02,
     -3.2050e+00,-2.5620e+00,-5.9300e-01,-5.2100e-01, 2.7380e+00,-1.0610e+00,
     -4.3840e+00,-4.4060e+00, 5.6000e-02, 3.3630e+00,-6.1530e+00,-1.2100e-01,
     -1.1100e+00,-3.4300e+00, 5.5800e-01,-7.9000e-01, 2.7430e+00, 4.8700e-01,
     -4.0530e+00, 3.0020e+00,-3.3900e-01,-3.1870e+00, 3.8040e+00
    },
    { 2.8170e+00, 3.1200e-01,-1.4260e+00, 2.4950e+00,-3.0710e+00,-6.2500e-01,
      3.6700e-01, 2.2030e+00,-1.0560e+00, 2.6040e+00, 6.6900e-01, 1.7320e+00,
      1.6110e+00, 3.6900e+00,-2.2900e-01, 9.7300e-01,-3.9180e+00,-2.4000e-02,
     -2.9210e+00,-2.2910e+00,-5.4800e-01,-5.6700e-01, 2.7670e+00,-1.2190e+00,
     -4.3300e+00,-4.3880e+00, 2.3000e-02, 3.0640e+00,-5.9120e+00,-1.1200e-01,
     -5.2200e-01,-3.7750e+00, 2.2000e-01,-7.6800e-01, 2.6140e+00, 5.7100e-01,
     -4.2580e+00, 3.4720e+00,-2.3300e-01,-3.5130e+00, 4.3560e+00
    },
    { 3.4210e+00, 1.9900e-01,-1.7020e+00, 2.9080e+00,-3.1780e+00,-4.1100e-01,
      1.5500e-01, 2.4750e+00,-1.2900e+00, 2.6140e+00, 5.9900e-01, 1.7600e+00,
      1.7120e+00, 3.3570e+00,-8.0000e-03, 1.0590e+00,-3.7130e+00, 4.7000e-02,
     -3.1010e+00,-2.6000e+00,-3.8300e-01,-7.1300e-01, 2.6640e+00,-1.1950e+00,
     -4.5250e+00,-4.4880e+00,-1.7800e-01, 3.2780e+00,-5.9500e+00,-1.8300e-01,
     -1.0610e+00,-3.5900e+00, 3.4000e-02,-5.2500e-01, 2.7520e+00, 7.2600e-01,
     -4.3830e+00, 4.1010e+00,-5.5600e-01,-4.1000e+00, 4.5050e+00
    },
    { 3.3650e+00, 3.2500e-01,-1.5740e+00, 2.8640e+00,-2.9590e+00,-5.0600e-01,
      4.4900e-01, 2.4940e+00,-1.2840e+00, 2.9110e+00, 5.1900e-01, 1.9200e+00,
      1.6790e+00, 3.3120e+00, 7.5000e-02, 9.9300e-01,-3.7170e+00, 1.2900e-01,
     -2.9980e+00,-2.4880e+00,-2.9000e-01,-6.0200e-01, 2.8010e+00,-1.1620e+00,
     -4.7320e+00,-4.7300e+00,-2.9500e-01, 3.3500e+00,-5.9580e+00,-1.4400e-01,
     -8.2900e-01,-3.8080e+00,-2.4000e-02,-8.6700e-01, 2.7030e+00, 7.2000e-01,
     -4.4920e+00, 4.0140e+00,-6.3400e-01,-4.0980e+00, 4.2540e+00
    },
    { 3.5590e+00, 2.0200e-01,-1.6790e+00, 2.8140e+00,-2.9570e+00,-3.4800e-01,
      6.3200e-01, 2.3350e+00,-1.3600e+00, 3.0900e+00, 6.7600e-01, 1.9130e+00,
      1.5970e+00, 3.1520e+00,-4.7000e-02, 1.0970e+00,-3.6400e+00, 4.0000e-02,
     -3.1630e+00,-2.6040e+00,-2.4400e-01,-1.0850e+00, 3.0480e+00,-1.2300e+00,
     -5.0040e+00,-4.7050e+00,-1.7900e-01, 3.2290e+00,-5.9880e+00,-2.5000e-02,
     -8.5400e-01,-3.5590e+00,-2.6000e-02,-1.1340e+00, 2.3520e+00, 1.1150e+00,
     -4.7890e+00, 3.5530e+00,-5.4600e-01,-3.9130e+00, 4.7430e+00
    },
    { 3.6930e+00, 4.5900e-01,-1.6960e+00, 2.5670e+00,-2.5540e+00,-7.6200e-01,
      9.8900e-01, 2.3390e+00,-1.2850e+00, 3.0830e+00, 9.0700e-01, 1.8140e+00,
      1.6260e+00, 2.8240e+00,-1.8000e-01, 1.0850e+00,-3.9100e+00,-7.0000e-03,
     -3.2150e+00,-2.5870e+00,-2.2800e-01,-1.3990e+00, 3.0020e+00,-1.2200e+00,
     -4.8580e+00,-4.3890e+00, 1.2900e-01, 3.3840e+00,-6.1830e+00,-1.1900e-01,
     -1.0800e+00,-3.4280e+00, 1.9700e-01,-1.4590e+00, 2.2610e+00, 1.4500e+00,
     -4.3170e+00, 4.1790e+00,-4.5700e-01,-4.3500e+00, 4.2300e+00
    },
    { 3.6680e+00, 5.1100e-01,-1.5960e+00, 2.8000e+00,-2.6370e+00,-7.9700e-01,
      1.0140e+00, 2.2010e+00,-1.2630e+00, 3.0230e+00, 1.1280e+00, 1.7120e+00,
      1.8390e+00, 2.6630e+00,-3.3400e-01, 1.1700e+00,-3.7530e+00, 2.2000e-02,
     -3.3450e+00,-2.6950e+00,-4.2800e-01,-1.4430e+00, 3.2180e+00,-1.3050e+00,
     -4.7750e+00,-4.2790e+00, 2.0500e-01, 3.3730e+00,-6.0580e+00,-1.1200e-01,
     -6.9900e-01,-4.2940e+00, 2.7000e-02,-1.6160e+00, 2.8620e+00, 1.5990e+00,
     -4.6980e+00, 4.2250e+00,-4.4200e-01,-4.3990e+00, 4.7760e+00
    },
    { 3.4310e+00, 4.9900e-01,-1.7230e+00, 2.6440e+00,-2.9670e+00,-8.3000e-01,
      6.2500e-01, 2.0290e+00,-1.2050e+00, 3.1700e+00, 7.7600e-01, 2.1210e+00,
      1.8940e+00, 2.6230e+00,-5.3600e-01, 9.7900e-01,-3.8790e+00, 1.1300e-01,
     -3.4830e+00,-2.7090e+00,-3.8800e-01,-1.3750e+00, 2.9510e+00,-1.1460e+00,
     -4.6730e+00,-4.2140e+00, 2.8000e-02, 3.2260e+00,-6.1410e+00,-1.5200e-01,
     -3.0100e-01,-3.9420e+00, 2.1500e-01,-1.4570e+00, 2.2620e+00, 1.4550e+00,
     -4.5580e+00, 4.4760e+00,-5.5800e-01,-4.1790e+00, 4.1640e+00
    },
    { 3.8310e+00, 5.1700e-01,-2.0110e+00, 2.4160e+00,-2.6720e+00,-1.2490e+00,
      7.3400e-01, 2.2390e+00,-1.1190e+00, 3.0080e+00, 7.3500e-01, 2.0530e+00,
      1.8220e+00, 2.7820e+00,-4.8500e-01, 1.0560e+00,-3.9820e+00, 3.5000e-02,
     -3.4820e+00,-2.5100e+00,-3.4500e-01,-1.5290e+00, 2.6470e+00,-1.0870e+00,
     -4.6490e+00,-4.0080e+00, 1.2600e-01, 3.3060e+00,-6.3280e+00,-9.2000e-02,
     -2.0600e-01,-3.8570e+00, 4.1300e-01,-1.5100e+00, 2.4320e+00, 1.6420e+00,
     -4.5000e+00, 4.7330e+00,-3.1900e-01,-4.1260e+00, 4.1590e+00
    },
    { 3.8790e+00, 4.6600e-01,-2.0730e+00, 2.1670e+00,-2.9250e+00,-1.1750e+00,
      6.1300e-01, 2.0430e+00,-1.1930e+00, 3.0700e+00, 7.8100e-01, 2.0300e+00,
      1.9120e+00, 2.7810e+00,-5.7900e-01, 1.2220e+00,-4.0340e+00, 1.9000e-02,
     -3.4520e+00,-2.4430e+00,-4.4100e-01,-1.2070e+00, 2.8510e+00,-1.1690e+00,
     -4.9050e+00,-4.2190e+00, 1.2400e-01, 3.3970e+00,-6.4940e+00, 0.0000e+00,
     -1.0200e+00,-3.3390e+00, 3.3800e-01,-1.2700e+00, 2.9160e+00, 1.6940e+00,
     -4.5420e+00, 4.2410e+00,-1.6500e-01,-3.4600e+00, 4.5300e+00
    },
    { 3.8600e+00, 5.3200e-01,-1.9760e+00, 2.2590e+00,-3.1100e+00,-1.0990e+00,
      4.0500e-01, 1.5420e+00,-8.3100e-01, 3.3240e+00, 5.8100e-01, 2.1660e+00,
      1.8790e+00, 2.7400e+00,-3.3100e-01, 1.3140e+00,-4.1860e+00, 5.0000e-03,
     -3.5280e+00,-2.5020e+00,-3.5600e-01,-9.8700e-01, 2.5540e+00,-7.1200e-01,
     -4.6410e+00,-3.8070e+00, 1.2200e-01, 3.2140e+00,-6.3450e+00,-6.8000e-02,
     -9.2600e-01,-3.3950e+00, 2.5900e-01,-2.0820e+00, 2.6430e+00, 2.2410e+00,
     -5.1150e+00, 4.2640e+00, 1.3200e-01,-3.6450e+00, 4.9420e+00
    },
    { 4.4970e+00, 2.8200e-01,-2.3150e+00, 2.6650e+00,-3.0310e+00,-1.5490e+00,
      6.3800e-01, 1.7260e+00,-7.5500e-01, 3.4000e+00, 6.4700e-01, 2.0170e+00,
      1.7120e+00, 3.1000e+00,-4.2100e-01, 1.3760e+00,-4.4810e+00,-3.5000e-02,
     -3.5070e+00,-2.4460e+00,-2.0700e-01,-1.0080e+00, 2.5910e+00,-7.6700e-01,
     -4.5900e+00,-3.9270e+00, 2.0600e-01, 3.4630e+00,-6.6350e+00,-5.6000e-02,
     -8.3000e-01,-3.2810e+00, 7.8000e-02,-1.7820e+00, 2.8640e+00, 1.9410e+00,
     -4.7200e+00, 4.0370e+00,-4.8700e-01,-3.3880e+00, 4.6860e+00
    },
    { 3.8860e+00, 3.8700e-01,-2.1200e+00, 2.5450e+00,-2.7700e+00,-1.5510e+00,
      5.4700e-01, 1.3940e+00,-8.7700e-01, 3.6030e+00, 8.6000e-01, 2.2920e+00,
      1.5530e+00, 2.7430e+00,-4.2500e-01, 1.3410e+00,-4.3580e+00, 1.4700e-01,
     -3.6240e+00,-2.7440e+00,-4.4100e-01,-8.0200e-01, 2.4640e+00,-8.7900e-01,
     -4.7520e+00,-4.0690e+00, 1.1900e-01, 3.3630e+00,-6.5650e+00,-9.3000e-02,
     -1.6150e+00,-3.1020e+00, 2.5000e-01,-1.8510e+00, 2.9960e+00, 2.0510e+00,
     -4.7520e+00, 3.6850e+00,-5.8500e-01,-3.3270e+00, 4.4020e+00
    },
    { 3.6890e+00, 5.5000e-01,-1.7800e+00, 2.4740e+00,-2.8780e+00,-1.6600e+00,
      3.8100e-01, 1.2770e+00,-7.8600e-01, 3.5840e+00, 5.6900e-01, 2.0620e+00,
      1.7390e+00, 2.7020e+00,-6.2200e-01, 1.3470e+00,-4.4940e+00, 1.1500e-01,
     -3.4960e+00,-2.4470e+00,-1.9000e-01,-8.1300e-01, 2.0500e+00,-8.9800e-01,
     -4.8070e+00,-4.3080e+00,-2.0000e-03, 3.1980e+00,-6.3400e+00,-1.5300e-01,
     -1.8500e+00,-3.0840e+00, 2.7500e-01,-2.5480e+00, 3.0300e+00, 2.2760e+00,
     -5.1130e+00, 3.5870e+00,-5.7900e-01,-3.2920e+00, 4.5520e+00
    },
    { 3.5500e+00, 6.9400e-01,-1.6580e+00, 2.3960e+00,-2.9700e+00,-1.9080e+00,
      3.3700e-01, 1.2420e+00,-8.9700e-01, 3.5810e+00, 5.2300e-01, 2.1460e+00,
      1.8870e+00, 2.7730e+00,-4.1700e-01, 1.3430e+00,-4.2590e+00, 4.4000e-02,
     -3.3790e+00,-2.3510e+00,-2.7700e-01,-1.2050e+00, 2.0330e+00,-9.8700e-01,
     -4.8950e+00,-4.3390e+00, 1.6900e-01, 3.2430e+00,-6.4730e+00,-1.9000e-02,
     -1.6620e+00,-2.7790e+00, 1.9500e-01,-1.9540e+00, 2.9140e+00, 1.7430e+00,
     -5.4770e+00, 3.4510e+00,-1.7800e-01,-2.8830e+00, 5.1500e+00
    },
    { 3.5280e+00, 5.7600e-01,-1.6800e+00, 2.2050e+00,-3.0170e+00,-1.9420e+00,
      3.7900e-01, 1.2770e+00,-8.6900e-01, 3.6270e+00, 6.2400e-01, 2.3580e+00,
      2.3100e+00, 2.9280e+00,-5.1900e-01, 1.3580e+00,-4.4140e+00, 3.9000e-02,
     -3.3980e+00,-2.5460e+00,-3.0000e-01,-1.1550e+00, 2.1120e+00,-9.4900e-01,
     -4.7180e+00,-4.2990e+00, 9.6000e-02, 3.2210e+00,-6.4820e+00,-0.0000e+00,
     -1.4030e+00,-2.9780e+00, 4.6500e-01,-2.4980e+00, 2.4500e+00, 2.3700e+00,
     -5.7450e+00, 2.9270e+00, 2.5000e-02,-2.3040e+00, 5.2590e+00
    },
    { 3.5640e+00, 6.1500e-01,-1.7550e+00, 2.0620e+00,-2.9700e+00,-2.0920e+00,
      5.6200e-01, 1.1470e+00,-8.4500e-01, 3.5930e+00, 5.3000e-01, 2.3630e+00,
      2.1950e+00, 3.0310e+00,-8.3600e-01, 1.3970e+00,-4.2980e+00, 7.4000e-02,
     -3.4550e+00,-2.2590e+00,-3.3800e-01,-1.2830e+00, 1.9720e+00,-8.2300e-01,
     -4.5510e+00,-4.1010e+00, 4.6000e-02, 3.2890e+00,-6.5690e+00,-7.2000e-02,
     -1.2740e+00,-2.5330e+00, 3.0800e-01,-2.6150e+00, 2.2330e+00, 2.2180e+00,
     -5.3830e+00, 2.7920e+00,-1.6900e-01,-2.4820e+00, 5.1860e+00
    },
    { 3.4120e+00, 7.2900e-01,-1.7620e+00, 1.9850e+00,-2.5590e+00,-1.9310e+00,
      6.1200e-01, 1.1590e+00,-7.7100e-01, 3.3530e+00, 6.0000e-01, 2.2360e+00,
      2.2630e+00, 2.8680e+00,-6.4500e-01, 1.2740e+00,-4.0580e+00, 4.5000e-02,
     -3.3070e+00,-2.1420e+00,-4.6400e-01,-1.4790e+00, 2.1420e+00,-9.6700e-01,
     -4.6880e+00,-4.0450e+00, 1.9200e-01, 3.3250e+00,-6.5480e+00,-8.5000e-02,
     -1.3400e+00,-2.6080e+00, 5.2800e-01,-2.9020e+00, 2.0180e+00, 2.5300e+00,
     -5.5970e+00, 3.3920e+00,-3.0600e-01,-3.2020e+00, 4.9490e+00
    },
    { 3.3600e+00, 3.8900e-01,-1.7140e+00, 1.6850e+00,-2.6420e+00,-1.8140e+00,
      7.5100e-01, 1.2840e+00,-8.5200e-01, 3.4740e+00, 6.4300e-01, 2.1410e+00,
      2.2040e+00, 3.0390e+00,-7.7400e-01, 1.3080e+00,-4.1370e+00, 2.8000e-02,
     -3.3130e+00,-2.1760e+00,-3.9200e-01,-1.6050e+00, 2.0290e+00,-9.8800e-01,
     -4.5640e+00,-3.9520e+00, 2.9500e-01, 3.1680e+00,-6.2620e+00,-5.4000e-02,
     -1.3150e+00,-3.2610e+00, 3.4200e-01,-2.7530e+00, 2.7530e+00, 2.5510e+00,
     -5.4760e+00, 3.3360e+00,-2.0400e-01,-3.0570e+00, 5.1920e+00
    },
    { 3.3330e+00, 3.1000e-01,-1.6290e+00, 1.7540e+00,-2.3770e+00,-1.8940e+00,
      8.0100e-01, 1.0940e+00,-9.2500e-01, 3.5140e+00, 6.9600e-01, 2.2470e+00,
      2.0550e+00, 3.0170e+00,-6.0500e-01, 1.2960e+00,-4.1160e+00,-4.5000e-02,
     -3.3900e+00,-2.2850e+00,-3.4500e-01,-1.5730e+00, 2.0960e+00,-8.8800e-01,
     -4.8230e+00,-3.9610e+00, 3.9300e-01, 3.0860e+00,-6.1400e+00,-1.2500e-01,
     -1.1230e+00,-3.0790e+00, 4.9000e-01,-2.6240e+00, 2.5530e+00, 2.3170e+00,
     -5.5920e+00, 3.8110e+00,-4.1800e-01,-3.3610e+00, 5.2080e+00
    },
    { 3.2320e+00, 3.6800e-01,-1.6000e+00, 1.8410e+00,-2.7100e+00,-2.1270e+00,
      5.9400e-01, 1.2470e+00,-9.6800e-01, 3.5570e+00, 5.7000e-01, 2.3160e+00,
      2.0770e+00, 3.1400e+00,-4.4900e-01, 1.2550e+00,-4.1950e+00, 1.2000e-02,
     -3.4880e+00,-2.4460e+00,-2.3000e-01,-1.3780e+00, 2.4380e+00,-1.1560e+00,
     -4.6490e+00,-3.8230e+00, 2.5100e-01, 3.1160e+00,-6.0300e+00,-6.6000e-02,
     -1.1610e+00,-3.4660e+00, 2.5200e-01,-2.0390e+00, 2.4480e+00, 2.2480e+00,
     -4.9160e+00, 3.6210e+00,-1.7300e-01,-3.2480e+00, 4.9250e+00
    },
    { 3.0470e+00, 2.8600e-01,-1.3690e+00, 1.5460e+00,-2.6110e+00,-2.0150e+00,
      4.6200e-01, 1.3670e+00,-8.5900e-01, 3.4950e+00, 6.8600e-01, 2.2370e+00,
      1.9560e+00, 2.8810e+00,-4.4000e-01, 1.3570e+00,-4.2410e+00, 6.0000e-03,
     -3.4490e+00,-2.1960e+00,-5.0000e-02,-1.4650e+00, 2.3340e+00,-1.3950e+00,
     -4.5820e+00,-3.7600e+00, 1.6200e-01, 3.2750e+00,-6.3530e+00,-2.1300e-01,
     -1.0600e+00,-3.6210e+00, 2.9500e-01,-1.6100e+00, 3.1810e+00, 2.0210e+00,
     -5.0020e+00, 3.5320e+00,-5.2700e-01,-2.6270e+00, 4.8320e+00
    },
    { 2.9520e+00, 3.7500e-01,-1.4570e+00, 1.6030e+00,-2.8110e+00,-1.9740e+00,
      5.9000e-01, 1.3320e+00,-8.5800e-01, 3.2760e+00, 5.7000e-01, 1.9260e+00,
      2.1120e+00, 2.8780e+00,-4.4800e-01, 1.3900e+00,-4.3190e+00, 3.2000e-02,
     -3.7360e+00,-2.4310e+00,-2.3400e-01,-1.7190e+00, 2.2710e+00,-1.3410e+00,
     -4.4250e+00,-3.5890e+00, 1.4400e-01, 3.4360e+00,-6.5720e+00,-1.3200e-01,
     -1.3460e+00,-3.4300e+00, 4.6700e-01,-2.0880e+00, 3.0530e+00, 2.6100e+00,
     -4.7600e+00, 3.6060e+00,-5.4800e-01,-2.6980e+00, 4.4510e+00
    },
    { 2.8000e+00, 5.3700e-01,-1.2080e+00, 1.1780e+00,-2.8150e+00,-1.3000e+00,
      4.0200e-01, 1.3940e+00,-1.1760e+00, 3.4680e+00, 5.5600e-01, 2.0240e+00,
      1.8920e+00, 2.9790e+00,-3.7000e-01, 1.3410e+00,-4.4180e+00,-3.7000e-02,
     -3.8550e+00,-2.5040e+00,-1.7400e-01,-2.2170e+00, 1.9950e+00,-1.3420e+00,
     -4.2140e+00,-3.6630e+00, 2.1400e-01, 3.3230e+00,-6.3740e+00,-1.7900e-01,
     -8.8600e-01,-3.4930e+00, 9.7000e-02,-1.4500e+00, 3.1010e+00, 1.5940e+00,
     -4.3640e+00, 3.6870e+00,-1.9700e-01,-2.8500e+00, 4.4740e+00
    },
    { 2.6700e+00, 4.8600e-01,-1.2750e+00, 8.6100e-01,-2.6190e+00,-9.7200e-01,
      4.5600e-01, 1.3340e+00,-1.2230e+00, 3.1480e+00, 6.7400e-01, 2.0490e+00,
      1.8000e+00, 2.7600e+00,-5.0100e-01, 1.4480e+00,-4.4070e+00, 2.3000e-02,
     -3.9900e+00,-2.5960e+00,-2.4700e-01,-2.4340e+00, 2.0340e+00,-1.2030e+00,
     -4.3150e+00,-3.4820e+00, 4.8600e-01, 3.4100e+00,-6.4470e+00,-2.4200e-01,
     -5.9000e-01,-3.7510e+00, 8.6000e-02,-1.2730e+00, 2.6070e+00, 1.8840e+00,
     -4.1070e+00, 3.9530e+00,-1.2500e-01,-3.2150e+00, 4.5840e+00
    },
    { 2.5030e+00, 3.1800e-01,-1.2950e+00, 8.6300e-01,-2.1340e+00,-7.7100e-01,
      6.1300e-01, 1.5620e+00,-1.1900e+00, 3.2690e+00, 6.7900e-01, 2.0340e+00,
      1.7770e+00, 2.7130e+00,-5.2200e-01, 1.2590e+00,-4.3540e+00, 1.1000e-02,
     -4.0570e+00,-2.6120e+00,-1.0900e-01,-2.3180e+00, 2.0370e+00,-1.1830e+00,
     -4.4250e+00,-3.3610e+00, 4.9400e-01, 3.4530e+00,-6.3770e+00,-1.5800e-01,
     -3.5300e-01,-3.8380e+00, 6.4000e-02,-1.2240e+00, 2.4170e+00, 1.6680e+00,
     -3.6630e+00, 4.2280e+00, 3.9000e-02,-3.8300e+00, 4.0740e+00
    },
    { 2.5300e+00, 4.3200e-01,-1.2940e+00, 6.6000e-01,-2.3360e+00,-8.3100e-01,
      6.6400e-01, 1.5540e+00,-1.2430e+00, 3.2280e+00, 8.5800e-01, 2.2210e+00,
      1.6660e+00, 2.8170e+00,-3.2600e-01, 1.1450e+00,-4.3060e+00,-1.0200e-01,
     -4.1040e+00,-2.6390e+00,-2.4600e-01,-2.4770e+00, 2.3710e+00,-1.6120e+00,
     -4.3210e+00,-3.3190e+00, 5.2600e-01, 3.5170e+00,-6.3710e+00,-1.3800e-01,
     -7.3400e-01,-2.9050e+00, 4.8000e-01,-1.3500e+00, 2.0510e+00, 1.4920e+00,
     -3.6270e+00, 3.8110e+00, 3.9000e-02,-3.3950e+00, 3.7650e+00
    },
    { 2.5570e+00, 3.1200e-01,-9.7000e-01, 3.5300e-01,-2.1280e+00,-9.2400e-01,
      5.1300e-01, 1.8080e+00,-1.1490e+00, 2.8940e+00, 5.6900e-01, 2.0100e+00,
      1.5740e+00, 3.9040e+00,-4.8600e-01, 8.8700e-01,-3.6200e+00, 2.2700e-01,
     -3.6880e+00,-2.6720e+00,-3.4200e-01,-2.2600e+00, 2.4350e+00,-1.6050e+00,
     -4.3510e+00,-4.1380e+00, 1.9400e-01, 3.6060e+00,-6.4760e+00,-1.6900e-01,
     -5.9000e-01,-3.3920e+00,-3.0000e-01,-1.5210e+00, 2.1030e+00, 7.7300e-01,
     -3.6450e+00, 2.3030e+00,-2.7700e-01,-2.7340e+00, 3.7810e+00
    },
    { 2.6080e+00, 2.5900e-01,-1.0710e+00, 3.0700e-01,-2.2530e+00,-1.0160e+00,
      4.5500e-01, 1.6300e+00,-1.1660e+00, 3.1860e+00, 7.6100e-01, 2.1410e+00,
      1.6840e+00, 3.1670e+00,-7.3800e-01, 1.0470e+00,-3.7310e+00, 1.5500e-01,
     -3.8900e+00,-2.5460e+00,-4.3200e-01,-2.4250e+00, 2.8390e+00,-1.5100e+00,
     -4.5590e+00,-4.4230e+00, 1.2100e-01, 3.5790e+00,-6.4530e+00,-1.7300e-01,
     -5.6100e-01,-3.0560e+00,-4.5200e-01,-1.3540e+00, 1.9040e+00, 7.2600e-01,
     -3.7380e+00, 2.3700e+00,-3.8400e-01,-2.4140e+00, 3.9910e+00
    },
    { 2.8840e+00, 4.7800e-01,-1.2010e+00, 3.0400e-01,-1.9990e+00,-8.4200e-01,
      7.3400e-01, 2.0200e+00,-1.1060e+00, 3.2860e+00, 7.6400e-01, 1.9800e+00,
      1.4560e+00, 3.2230e+00,-4.8200e-01, 9.7400e-01,-3.7580e+00, 1.3500e-01,
     -3.5210e+00,-2.4560e+00,-2.7600e-01,-2.9190e+00, 2.7530e+00,-1.2340e+00,
     -4.6370e+00,-4.3860e+00, 1.7900e-01, 3.5130e+00,-6.4000e+00,-1.0800e-01,
     -7.9000e-01,-2.9580e+00,-8.9100e-01,-1.2820e+00, 1.9200e+00, 6.9800e-01,
     -3.2000e+00, 2.7170e+00,-4.6200e-01,-2.8070e+00, 3.8960e+00
    },
    { 2.5810e+00, 4.0900e-01,-1.1530e+00, 1.1500e-01,-1.8250e+00,-7.1100e-01,
      6.6600e-01, 1.9780e+00,-9.2500e-01, 3.5590e+00, 8.2900e-01, 2.1120e+00,
      1.4920e+00, 3.2750e+00,-6.8000e-01, 9.9200e-01,-3.7730e+00, 2.0100e-01,
     -3.4120e+00,-2.3500e+00,-4.6700e-01,-2.7630e+00, 2.5220e+00,-9.2800e-01,
     -4.5710e+00,-4.1180e+00, 2.2000e-02, 3.5100e+00,-6.4210e+00,-1.1400e-01,
     -7.1300e-01,-3.0140e+00,-1.3640e+00,-1.5920e+00, 2.0700e+00, 1.1440e+00,
     -3.2200e+00, 3.1630e+00,-4.1700e-01,-2.7430e+00, 4.0180e+00
    },
    { 2.2060e+00, 1.3700e-01,-9.8700e-01, 1.4600e-01,-2.0910e+00,-7.3400e-01,
      8.4900e-01, 1.9710e+00,-1.0760e+00, 3.5550e+00, 1.0040e+00, 2.0810e+00,
      1.3780e+00, 3.1730e+00,-7.6600e-01, 1.2100e+00,-3.9210e+00, 1.0800e-01,
     -3.7880e+00,-2.6350e+00,-2.9700e-01,-2.9250e+00, 2.4610e+00,-1.0690e+00,
     -4.6910e+00,-4.2530e+00, 7.6000e-02, 3.4490e+00,-6.1480e+00,-1.8900e-01,
     -7.9300e-01,-2.8590e+00,-1.0500e+00,-1.9430e+00, 1.6490e+00, 1.3140e+00,
     -3.5050e+00, 3.0030e+00,-4.0800e-01,-2.9710e+00, 4.3420e+00
    },
    { 2.1070e+00, 2.4400e-01,-8.6600e-01, 5.0000e-03,-2.0580e+00,-6.6900e-01,
      6.6500e-01, 2.3030e+00,-8.0300e-01, 3.8530e+00, 8.5600e-01, 2.4710e+00,
      1.2140e+00, 2.7710e+00,-5.6400e-01, 1.1020e+00,-4.0430e+00, 5.1000e-02,
     -3.8410e+00,-2.7430e+00,-2.2200e-01,-3.0180e+00, 2.2490e+00,-8.1300e-01,
     -4.5720e+00,-4.3880e+00,-1.0700e-01, 3.2930e+00,-6.2170e+00,-1.0900e-01,
     -9.8400e-01,-2.5990e+00,-9.8500e-01,-1.9190e+00, 1.4870e+00, 1.2150e+00,
     -3.8520e+00, 2.7190e+00,-3.3900e-01,-2.8340e+00, 4.4750e+00
    },
    { 2.4420e+00, 6.4000e-02,-1.1590e+00,-1.4500e-01,-1.7720e+00,-4.8100e-01,
      3.5600e-01, 2.0430e+00,-6.8700e-01, 3.7250e+00, 6.9400e-01, 2.4870e+00,
      1.1600e+00, 2.6220e+00,-4.5300e-01, 1.0370e+00,-4.1460e+00, 1.0700e-01,
     -4.0800e+00,-2.8530e+00,-2.6800e-01,-2.6840e+00, 1.8690e+00,-9.7700e-01,
     -4.8140e+00,-4.2530e+00,-2.1100e-01, 3.3780e+00,-6.0840e+00,-2.7000e-02,
     -1.0930e+00,-2.5580e+00,-9.6400e-01,-2.0760e+00, 1.4080e+00, 1.0570e+00,
     -3.6970e+00, 2.8730e+00,-1.8100e-01,-3.0760e+00, 3.9900e+00
    },
    { 1.9470e+00, 2.1600e-01,-8.3500e-01, 4.7000e-02,-2.0270e+00,-8.9400e-01,
      4.5600e-01, 2.0290e+00,-8.8300e-01, 3.6710e+00, 6.1600e-01, 2.2690e+00,
      1.3860e+00, 2.7210e+00,-6.0200e-01, 9.4600e-01,-3.8680e+00, 1.0900e-01,
     -4.2550e+00,-2.9740e+00,-2.4600e-01,-2.8920e+00, 2.2080e+00,-1.0420e+00,
     -4.4480e+00,-3.9720e+00, 6.9000e-02, 3.3930e+00,-6.0700e+00,-8.9000e-02,
     -8.7200e-01,-3.3050e+00,-6.5400e-01,-1.9660e+00, 2.0880e+00, 1.0670e+00,
     -3.9620e+00, 2.9470e+00, 4.4000e-02,-3.1270e+00, 4.1460e+00
    },
    { 1.8100e+00, 2.2600e-01,-8.1600e-01, 6.9000e-02,-1.7130e+00,-1.4810e+00,
      2.3900e-01, 1.7970e+00,-6.0000e-01, 3.9720e+00, 1.1950e+00, 2.6130e+00,
      1.3690e+00, 2.9590e+00,-2.8500e-01, 9.5500e-01,-4.3130e+00, 1.0600e-01,
     -3.8640e+00,-2.9090e+00,-5.5800e-01,-3.0290e+00, 2.0620e+00,-1.3210e+00,
     -4.8130e+00,-4.3280e+00,-4.0000e-03, 3.5720e+00,-6.2650e+00,-1.7600e-01,
     -1.0570e+00,-2.8720e+00,-3.3600e-01,-2.0050e+00, 1.8720e+00, 1.4210e+00,
     -3.2780e+00, 3.0040e+00, 8.9000e-02,-2.9740e+00, 3.4260e+00
    },
    { 1.7410e+00, 3.1500e-01,-7.5100e-01, 3.4400e-01,-1.8920e+00,-1.3270e+00,
      3.8100e-01, 1.9150e+00,-7.4400e-01, 3.9720e+00, 4.7500e-01, 2.6010e+00,
      1.1500e+00, 2.6600e+00,-8.5000e-02, 9.1400e-01,-4.2150e+00,-7.0000e-03,
     -3.8960e+00,-2.8010e+00,-5.9300e-01,-3.0650e+00, 2.5240e+00,-1.1240e+00,
     -4.4910e+00,-4.2920e+00,-2.3000e-01, 3.3000e+00,-5.8010e+00,-1.3200e-01,
     -9.3200e-01,-3.3870e+00,-1.0500e-01,-1.7440e+00, 2.2100e+00, 9.9300e-01,
     -3.6740e+00, 3.0520e+00, 2.0900e-01,-3.3260e+00, 3.7960e+00
    },
    { 2.0850e+00, 6.5000e-02,-6.6700e-01,-2.5400e-01,-1.5540e+00,-1.8310e+00,
      1.0200e-01, 1.2040e+00,-7.0200e-01, 4.1750e+00, 1.0410e+00, 2.6400e+00,
      1.1730e+00, 2.2650e+00, 3.0000e-02, 1.0680e+00,-3.9910e+00, 4.3000e-02,
     -3.8350e+00,-2.9650e+00,-1.6300e-01,-3.2680e+00, 2.5040e+00,-1.2060e+00,
     -4.7160e+00,-4.4070e+00,-1.8300e-01, 3.5410e+00,-6.4640e+00,-4.5000e-02,
     -5.2100e-01,-3.9130e+00,-7.5000e-02,-1.4970e+00, 2.2490e+00, 1.1240e+00,
     -3.5730e+00, 2.9640e+00,-9.8000e-02,-3.0950e+00, 3.6740e+00
    },
    { 1.5280e+00, 7.7000e-02,-5.5100e-01,-4.5000e-02,-1.9080e+00,-1.5080e+00,
      2.3100e-01, 1.5440e+00,-6.8200e-01, 4.1910e+00, 5.4100e-01, 2.5250e+00,
      7.6400e-01, 2.5940e+00, 2.4300e-01, 1.1330e+00,-3.9060e+00,-7.1000e-02,
     -3.7980e+00,-2.7750e+00,-4.0100e-01,-3.1200e+00, 2.6370e+00,-1.2470e+00,
     -4.7060e+00,-4.0770e+00,-3.0100e-01, 3.3520e+00,-6.2560e+00,-1.5000e-01,
     -3.8100e-01,-4.1710e+00, 2.4800e-01,-1.1280e+00, 2.1300e+00, 1.7800e+00,
     -3.3990e+00, 2.8600e+00, 1.0000e-03,-2.9230e+00, 4.0300e+00
    },
    { 1.4910e+00, 2.9000e-01,-5.5200e-01, 1.3000e-01,-1.8540e+00,-1.3000e+00,
      3.9700e-01, 1.5740e+00,-6.8800e-01, 3.9340e+00, 8.1700e-01, 2.6780e+00,
      9.6100e-01, 3.0280e+00, 2.2700e-01, 1.0790e+00,-3.8030e+00,-2.9000e-02,
     -3.7990e+00,-2.4630e+00,-6.9400e-01,-2.8450e+00, 2.6910e+00,-1.1960e+00,
     -4.5440e+00,-4.0110e+00, 3.0000e-01, 3.4530e+00,-6.3540e+00,-1.3000e-01,
      6.0000e-03,-4.6310e+00, 5.6100e-01,-1.7570e+00, 2.1250e+00, 1.6760e+00,
     -4.1560e+00, 2.9210e+00,-2.5600e-01,-3.3380e+00, 3.8830e+00
    },
    { 1.4810e+00, 1.8200e-01,-6.3300e-01,-3.0500e-01,-1.5790e+00,-1.4040e+00,
      1.2100e-01, 9.7500e-01,-5.6000e-02, 3.8430e+00, 8.7300e-01, 2.5160e+00,
      1.1110e+00, 3.0400e+00, 2.7100e-01, 9.9100e-01,-3.6680e+00,-1.2900e-01,
     -3.7560e+00,-2.7290e+00,-4.2400e-01,-2.5270e+00, 2.7140e+00,-5.6000e-01,
     -4.3290e+00,-3.8750e+00,-1.6300e-01, 3.6470e+00,-6.7650e+00,-9.9000e-02,
     -3.2300e-01,-4.1030e+00,-6.4000e-02,-7.8500e-01, 1.8400e+00, 1.2290e+00,
     -3.5930e+00, 2.8570e+00,-1.5500e-01,-2.8410e+00, 3.9400e+00
    },
    { 1.2430e+00, 3.2500e-01,-5.2400e-01,-2.7300e-01,-1.7450e+00,-1.3460e+00,
     -1.3900e-01, 1.2210e+00,-3.8200e-01, 3.6220e+00, 9.6100e-01, 2.5160e+00,
      1.0480e+00, 3.2270e+00, 4.4400e-01, 1.1400e+00,-3.8700e+00,-6.8000e-02,
     -3.6640e+00,-2.6900e+00,-8.4400e-01,-2.8070e+00, 2.3270e+00,-1.0320e+00,
     -4.5190e+00,-4.0110e+00, 1.0300e-01, 3.5730e+00,-6.5570e+00,-8.2000e-02,
     -8.2900e-01,-4.3550e+00, 5.7900e-01,-9.3900e-01, 2.0640e+00, 1.3580e+00,
     -3.9980e+00, 2.1110e+00,-1.2900e-01,-2.7260e+00, 3.8950e+00
    },
    { 1.3870e+00, 2.1000e-01,-6.6900e-01,-1.0900e-01,-2.0230e+00,-1.2950e+00,
      1.9800e-01, 1.3280e+00,-1.0000e-03, 3.4560e+00, 6.0200e-01, 2.2510e+00,
      9.3900e-01, 2.9600e+00, 7.9800e-01, 9.6900e-01,-4.1410e+00,-1.8800e-01,
     -3.6110e+00,-2.5280e+00,-6.9700e-01,-2.9590e+00, 2.3430e+00,-1.0040e+00,
     -4.5160e+00,-4.1860e+00,-1.8600e-01, 3.6490e+00,-6.8790e+00,-1.3500e-01,
     -1.5220e+00,-3.3320e+00, 3.0900e-01,-7.4400e-01, 2.1210e+00, 1.2380e+00,
     -3.2490e+00, 1.9830e+00,-3.9000e-02,-2.5490e+00, 3.4760e+00
    },
    { 1.5490e+00, 1.6900e-01,-5.5600e-01, 2.3400e-01,-2.3040e+00,-1.1370e+00,
     -1.8000e-02, 1.0880e+00,-4.1300e-01, 3.6690e+00, 5.4800e-01, 2.2860e+00,
      9.6100e-01, 2.6020e+00, 7.3000e-01, 1.1060e+00,-4.0890e+00,-1.4300e-01,
     -3.1530e+00,-2.4590e+00,-7.4300e-01,-3.0300e+00, 2.2940e+00,-9.1100e-01,
     -4.4190e+00,-4.3640e+00,-1.8800e-01, 3.4750e+00,-6.5780e+00,-1.7400e-01,
     -1.5530e+00,-3.3800e+00, 2.7900e-01,-1.0880e+00, 1.9810e+00, 1.2200e+00,
     -3.6890e+00, 1.3510e+00, 7.0000e-03,-2.0440e+00, 3.9020e+00
    },
    { 1.6850e+00, 3.0100e-01,-6.8100e-01, 2.3500e-01,-2.7920e+00,-1.5490e+00,
      2.9000e-02, 1.1780e+00,-5.3200e-01, 3.7250e+00, 5.0900e-01, 2.1780e+00,
      9.8400e-01, 2.8620e+00, 2.1700e-01, 1.1900e+00,-4.3980e+00,-1.1900e-01,
     -2.4960e+00,-1.8140e+00,-7.8300e-01,-2.7720e+00, 2.1590e+00,-1.6750e+00,
     -4.1940e+00,-4.4660e+00, 2.9000e-02, 3.4790e+00,-6.3710e+00,-1.0000e-01,
     -2.0400e+00,-3.2650e+00, 3.2800e-01,-1.4300e+00, 2.6410e+00, 1.5660e+00,
     -3.2890e+00, 1.6080e+00,-6.4000e-02,-2.1330e+00, 3.5200e+00
    },
    { 1.3480e+00, 4.2000e-01,-5.3000e-01, 2.2100e-01,-2.4300e+00,-1.4460e+00,
      1.3600e-01, 9.9600e-01,-6.8800e-01, 3.5540e+00, 5.1400e-01, 2.0960e+00,
      7.4400e-01, 2.4500e+00, 4.3500e-01, 1.2970e+00,-4.2250e+00,-3.8000e-02,
     -2.7200e+00,-2.3520e+00,-6.7100e-01,-2.8530e+00, 2.1580e+00,-1.6250e+00,
     -4.6190e+00,-4.5550e+00,-2.0000e-02, 3.4730e+00,-6.6050e+00,-8.1000e-02,
     -1.4320e+00,-3.5690e+00, 4.5500e-01,-1.2240e+00, 1.9620e+00, 1.6530e+00,
     -4.1630e+00, 2.7840e+00, 6.0000e-03,-3.4860e+00, 4.2610e+00
    },
    { 1.4420e+00, 3.4600e-01,-4.9600e-01, 3.3500e-01,-2.3500e+00,-1.3400e+00,
      1.8700e-01, 7.7600e-01,-4.7500e-01, 3.5680e+00, 8.3100e-01, 1.8750e+00,
      6.0600e-01, 2.3950e+00, 5.2700e-01, 1.2640e+00,-4.0380e+00,-8.0000e-03,
     -2.5150e+00,-2.3480e+00,-6.1800e-01,-2.6700e+00, 2.3660e+00,-1.0340e+00,
     -4.2560e+00,-4.3460e+00,-1.5600e-01, 3.4440e+00,-6.3780e+00,-1.6000e-02,
     -1.2380e+00,-4.2800e+00,-1.0000e-03,-8.2100e-01, 2.4130e+00, 1.3880e+00,
     -3.8560e+00, 2.9210e+00, 3.3000e-02,-3.6290e+00, 4.5370e+00
    },
    { 1.5420e+00, 3.6700e-01,-6.0200e-01, 1.7200e-01,-2.3350e+00,-1.4130e+00,
     -1.1500e-01, 8.3000e-01,-8.1800e-01, 3.3910e+00, 6.9000e-01, 1.8990e+00,
      7.8300e-01, 1.9590e+00, 9.6100e-01, 9.8600e-01,-3.8470e+00,-5.2000e-02,
     -2.8440e+00,-2.5990e+00,-6.5200e-01,-2.8760e+00, 2.0280e+00,-3.9300e-01,
     -4.5430e+00,-4.9180e+00, 1.0000e-03, 3.5940e+00,-6.7040e+00,-1.2600e-01,
     -1.3610e+00,-4.1270e+00, 1.1900e-01,-7.1700e-01, 2.2240e+00, 6.1400e-01,
     -3.8050e+00, 2.6680e+00,-3.5600e-01,-3.5140e+00, 3.7640e+00
    },
    { 1.9340e+00, 3.0800e-01,-7.6900e-01, 2.1400e-01,-2.2610e+00,-1.5190e+00,
     -8.3000e-02, 6.5900e-01,-4.0500e-01, 3.6150e+00, 8.2600e-01, 1.9470e+00,
      9.1500e-01, 2.0700e+00, 1.0660e+00, 1.1530e+00,-4.0290e+00,-5.0000e-02,
     -2.8800e+00,-2.5460e+00,-6.0900e-01,-2.7830e+00, 2.0800e+00,-5.4000e-01,
     -4.4170e+00,-4.5730e+00,-1.9400e-01, 3.6330e+00,-6.7150e+00,-6.3000e-02,
     -1.8760e+00,-3.3380e+00,-1.3700e-01,-8.3400e-01, 2.5730e+00, 8.2000e-01,
     -3.7630e+00, 2.9690e+00,-2.8400e-01,-3.2540e+00, 4.1870e+00
    },
    { 1.3230e+00, 5.7400e-01,-3.9800e-01,-1.1200e-01,-2.2260e+00,-1.5880e+00,
      1.7700e-01, 9.6900e-01,-6.6500e-01, 3.6700e+00, 8.1500e-01, 1.9570e+00,
      1.0060e+00, 1.7020e+00, 9.9300e-01, 1.1210e+00,-4.1050e+00,-7.0000e-03,
     -3.2280e+00,-3.0890e+00,-8.9000e-01,-2.8700e+00, 2.2210e+00,-8.2300e-01,
     -4.5690e+00,-4.7890e+00,-3.2000e-02, 3.5760e+00,-6.8720e+00,-1.4000e-01,
     -2.2580e+00,-3.1830e+00, 9.8000e-02,-7.0200e-01, 2.0590e+00, 1.5380e+00,
     -3.7500e+00, 3.0160e+00,-3.3400e-01,-3.6870e+00, 3.9110e+00
    },
    { 1.6390e+00, 2.9400e-01,-7.2000e-01,-5.8300e-01,-1.9160e+00,-1.4180e+00,
      1.6200e-01, 1.6230e+00,-1.1360e+00, 3.1430e+00, 5.6600e-01, 1.9590e+00,
      8.4800e-01, 2.3050e+00, 8.4800e-01, 1.3260e+00,-4.3350e+00, 1.0900e-01,
     -2.7940e+00,-2.6220e+00,-8.4300e-01,-2.8930e+00, 2.0090e+00,-9.5300e-01,
     -4.5670e+00,-4.8470e+00,-3.5200e-01, 3.5590e+00,-6.6680e+00,-4.9000e-02,
     -1.2790e+00,-3.2940e+00, 1.5600e-01,-7.5100e-01, 1.5710e+00, 1.7360e+00,
     -3.9080e+00, 3.5530e+00,-3.5200e-01,-3.6350e+00, 4.3760e+00
    },
    { 1.8690e+00, 5.7300e-01,-7.4400e-01,-1.0230e+00,-2.0020e+00,-1.8960e+00,
      4.4400e-01, 1.5560e+00,-1.1290e+00, 3.3340e+00, 6.2700e-01, 2.1250e+00,
      5.0100e-01, 2.4700e+00, 2.0000e-01, 1.5340e+00,-4.3690e+00,-6.2000e-02,
     -2.4020e+00,-2.2110e+00,-7.6400e-01,-3.1000e+00, 1.8460e+00,-1.2020e+00,
     -4.8880e+00,-4.9740e+00,-5.1700e-01, 3.3910e+00,-6.2890e+00,-8.7000e-02,
     -1.2640e+00,-3.5020e+00,-5.7000e-02,-7.7700e-01, 1.8350e+00, 2.1920e+00,
     -3.4880e+00, 3.1040e+00,-4.8000e-01,-3.2410e+00, 4.6330e+00
    },
    { 1.5860e+00, 3.4300e-01,-6.3100e-01,-5.6600e-01,-1.7940e+00,-1.9310e+00,
      4.2200e-01, 1.8460e+00,-1.2070e+00, 2.7810e+00, 5.8400e-01, 1.7740e+00,
      9.2500e-01, 1.9580e+00, 4.1100e-01, 1.5030e+00,-4.4880e+00,-4.9000e-02,
     -2.6790e+00,-2.4620e+00,-7.9100e-01,-2.9280e+00, 2.0120e+00,-1.1920e+00,
     -4.8930e+00,-4.5820e+00,-4.0200e-01, 3.3720e+00,-6.3070e+00,-1.6300e-01,
     -1.3750e+00,-3.5790e+00, 1.1700e-01,-4.9800e-01, 1.8600e+00, 2.8030e+00,
     -3.7300e+00, 3.5560e+00,-5.2100e-01,-2.8790e+00, 4.5100e+00
    },
    { 1.5300e+00, 6.3700e-01,-5.1800e-01,-6.4900e-01,-2.0170e+00,-2.0650e+00,
      2.9400e-01, 2.1780e+00,-1.2740e+00, 2.8460e+00, 3.7300e-01, 1.9970e+00,
      8.8400e-01, 2.0200e+00, 4.9800e-01, 1.3640e+00,-4.3370e+00,-8.7000e-02,
     -2.5210e+00,-2.2580e+00,-6.8000e-01,-3.2520e+00, 2.2000e+00,-7.1100e-01,
     -5.0510e+00,-4.9820e+00,-8.9000e-02, 3.3010e+00,-6.2540e+00,-5.9000e-02,
     -1.2860e+00,-3.7070e+00, 3.9000e-01,-4.2900e-01, 1.5780e+00, 2.7030e+00,
     -3.4850e+00, 2.9840e+00,-4.1600e-01,-3.0710e+00, 4.0900e+00
    },
    { 1.7340e+00, 5.8000e-01,-5.2300e-01,-5.0000e-01,-1.9330e+00,-2.0430e+00,
      3.3800e-01, 2.2700e+00,-1.1690e+00, 3.0790e+00, 5.0000e-01, 2.0930e+00,
      9.9300e-01, 2.3370e+00, 5.2400e-01, 1.3800e+00,-4.2090e+00,-3.8000e-02,
     -2.6940e+00,-2.5310e+00,-9.1300e-01,-3.0170e+00, 2.1310e+00,-8.8200e-01,
     -4.9780e+00,-4.8720e+00,-4.7200e-01, 3.3230e+00,-6.3460e+00,-1.0100e-01,
     -1.4910e+00,-3.6890e+00, 4.1500e-01,-9.0000e-01, 2.0540e+00, 2.6010e+00,
     -4.0940e+00, 3.0020e+00,-6.4100e-01,-3.0560e+00, 4.3090e+00
    },
    { 1.7740e+00, 6.1300e-01,-7.4500e-01,-4.7000e-01,-1.7460e+00,-2.4960e+00,
      1.8400e-01, 2.2460e+00,-1.0000e+00, 2.9760e+00, 4.8200e-01, 1.9480e+00,
      8.7000e-01, 2.1050e+00, 5.7500e-01, 1.0290e+00,-3.9960e+00, 2.4000e-02,
     -2.3540e+00,-2.2930e+00,-1.0460e+00,-3.1080e+00, 2.4960e+00,-1.2790e+00,
     -4.8360e+00,-5.2950e+00,-4.1600e-01, 3.3980e+00,-6.1680e+00, 3.6000e-02,
     -1.3190e+00,-3.7180e+00, 3.3300e-01,-8.7900e-01, 2.1850e+00, 2.2570e+00,
     -3.4890e+00, 3.0390e+00,-4.5300e-01,-2.8320e+00, 3.5790e+00
    },
    { 1.9240e+00, 6.6600e-01,-5.7400e-01,-5.1700e-01,-1.3730e+00,-2.5340e+00,
      9.8000e-02, 2.4660e+00,-8.8400e-01, 3.0530e+00, 5.8000e-01, 1.9250e+00,
      8.1000e-01, 2.1840e+00, 6.5000e-01, 9.2100e-01,-3.5210e+00, 9.9000e-02,
     -2.1540e+00,-2.1080e+00,-5.8200e-01,-3.1400e+00, 2.5370e+00,-1.1850e+00,
     -4.8530e+00,-4.9490e+00, 6.7000e-02, 3.3050e+00,-5.9730e+00, 5.5000e-02,
     -1.0740e+00,-4.4370e+00, 2.3100e-01,-1.0840e+00, 2.4170e+00, 2.3600e+00,
     -3.7840e+00, 3.1770e+00,-2.3300e-01,-3.2130e+00, 4.0530e+00
    },
    { 1.8290e+00, 4.9300e-01,-5.3400e-01,-6.3200e-01,-1.4860e+00,-2.4330e+00,
      1.4100e-01, 2.4140e+00,-8.8600e-01, 3.4170e+00, 5.8000e-01, 1.8910e+00,
      7.7600e-01, 2.1460e+00, 7.3500e-01, 1.0440e+00,-3.5200e+00, 2.5000e-02,
     -2.2780e+00,-2.4200e+00,-5.5100e-01,-2.9860e+00, 2.4670e+00,-1.1510e+00,
     -4.8780e+00,-5.0590e+00,-1.5700e-01, 3.3680e+00,-5.9770e+00, 1.1000e-02,
     -1.5810e+00,-4.4010e+00, 1.1900e-01,-9.1500e-01, 2.5340e+00, 1.9760e+00,
     -4.0420e+00, 2.8100e+00,-4.2900e-01,-3.2840e+00, 4.3220e+00
    },
    { 1.9110e+00, 3.9600e-01,-7.1300e-01,-3.2000e-01,-1.2170e+00,-2.2550e+00,
      4.7500e-01, 2.4920e+00,-1.1150e+00, 3.0720e+00, 5.2700e-01, 1.6600e+00,
      4.4400e-01, 2.0770e+00, 8.4500e-01, 1.0130e+00,-3.5650e+00, 2.2000e-02,
     -1.7200e+00,-2.0540e+00,-5.1900e-01,-2.9120e+00, 2.3750e+00,-1.1630e+00,
     -4.5110e+00,-4.9080e+00, 1.4600e-01, 3.3670e+00,-6.1110e+00,-1.2000e-02,
     -1.5510e+00,-4.3820e+00, 4.7500e-01,-8.5800e-01, 2.7390e+00, 2.0420e+00,
     -3.7130e+00, 2.2620e+00,-1.4100e-01,-2.8600e+00, 4.4410e+00
    },
    { 1.8830e+00, 1.2100e-01,-8.5400e-01,-1.5900e-01,-1.1910e+00,-2.0690e+00,
      1.3200e-01, 2.5630e+00,-7.8400e-01, 3.2270e+00, 1.0360e+00, 1.7230e+00,
      2.9500e-01, 2.1750e+00, 6.7600e-01, 1.2270e+00,-3.8730e+00, 2.9000e-02,
     -1.8910e+00,-2.0270e+00,-5.7500e-01,-2.7310e+00, 2.0370e+00,-9.4400e-01,
     -4.6630e+00,-4.9460e+00,-2.6400e-01, 3.5150e+00,-6.1860e+00,-5.0000e-02,
     -1.6680e+00,-3.8310e+00, 2.8500e-01,-5.2200e-01, 2.7470e+00, 1.6330e+00,
     -3.3340e+00, 2.1220e+00,-5.3000e-02,-2.4670e+00, 4.4480e+00
    },
    { 1.9370e+00, 1.7600e-01,-7.8900e-01,-4.5100e-01,-8.7100e-01,-2.2160e+00,
      1.8000e-02, 2.5590e+00,-6.0300e-01, 3.5930e+00, 9.9500e-01, 1.7080e+00,
      3.4200e-01, 1.9730e+00, 4.3200e-01, 1.2530e+00,-3.6900e+00,-7.7000e-02,
     -2.1830e+00,-1.7900e+00,-6.3800e-01,-2.8660e+00, 1.8950e+00,-1.0200e+00,
     -4.9350e+00,-4.7350e+00,-4.6100e-01, 3.3190e+00,-5.9950e+00,-7.2000e-02,
     -1.7310e+00,-4.4300e+00, 2.2700e-01,-5.8400e-01, 3.2210e+00, 2.2590e+00,
     -3.5590e+00, 2.0090e+00,-3.2700e-01,-2.0010e+00, 4.8440e+00
    },
    { 2.0320e+00, 8.0000e-03,-8.5400e-01,-5.4600e-01,-6.8900e-01,-2.2480e+00,
     -2.5800e-01, 2.5470e+00,-6.4900e-01, 3.3710e+00, 9.0500e-01, 1.6070e+00,
      2.3200e-01, 2.1080e+00, 2.5300e-01, 1.2680e+00,-3.7140e+00,-9.0000e-03,
     -2.1500e+00,-1.6610e+00,-4.1200e-01,-2.7520e+00, 1.7330e+00,-9.2500e-01,
     -4.7330e+00,-4.8770e+00,-3.4500e-01, 3.3050e+00,-5.9570e+00,-1.4500e-01,
     -1.6190e+00,-4.1700e+00,-9.1000e-02,-9.6100e-01, 3.2900e+00, 1.8650e+00,
     -3.8210e+00, 1.7300e+00,-1.6500e-01,-1.7540e+00, 4.8770e+00
    },
    { 2.1360e+00, 2.6300e-01,-9.9000e-01,-6.4800e-01,-5.7300e-01,-2.0420e+00,
      5.0000e-02, 1.9920e+00,-8.9500e-01, 3.1890e+00, 8.1400e-01, 1.7410e+00,
      2.5000e-02, 1.9790e+00, 4.8400e-01, 1.2830e+00,-3.6500e+00, 9.5000e-02,
     -2.0740e+00,-1.7360e+00,-5.3200e-01,-2.6940e+00, 1.9160e+00,-6.8700e-01,
     -4.8180e+00,-4.9320e+00,-2.6800e-01, 3.2950e+00,-6.0610e+00,-6.6000e-02,
     -1.8860e+00,-3.3720e+00, 1.7200e-01,-9.1700e-01, 2.9590e+00, 2.0210e+00,
     -4.0480e+00, 2.4160e+00,-3.8800e-01,-2.3960e+00, 5.0830e+00
    },
    { 2.3670e+00, 3.5000e-01,-9.7800e-01,-8.0000e-02,-3.4000e-02,-2.1060e+00,
      1.1900e-01, 2.1260e+00,-8.0300e-01, 3.5430e+00, 8.1200e-01, 1.7340e+00,
     -3.2000e-02, 1.9850e+00, 4.8700e-01, 1.1820e+00,-3.6690e+00, 2.0000e-02,
     -2.1050e+00,-1.4830e+00,-1.8600e-01,-2.4240e+00, 1.8460e+00,-9.3500e-01,
     -4.6860e+00,-4.8040e+00,-3.2000e-01, 3.3980e+00,-6.1920e+00,-4.8000e-02,
     -1.8160e+00,-3.2160e+00, 2.4400e-01,-1.0080e+00, 3.3410e+00, 1.9080e+00,
     -3.6850e+00, 3.0790e+00,-3.6500e-01,-2.8250e+00, 4.6100e+00
    },
    { 2.5260e+00, 2.4600e-01,-1.1810e+00,-1.3000e-02, 2.0500e-01,-2.1800e+00,
     -3.6000e-02, 1.9120e+00,-7.0500e-01, 3.3380e+00, 7.9500e-01, 1.7750e+00,
     -5.8000e-02, 1.8420e+00, 3.4600e-01, 1.1750e+00,-3.4350e+00, 7.4000e-02,
     -2.0550e+00,-1.5380e+00,-3.3700e-01,-2.5510e+00, 1.8080e+00,-9.1700e-01,
     -4.6530e+00,-4.8110e+00,-2.1400e-01, 3.3420e+00,-6.1050e+00,-3.6000e-02,
     -2.1240e+00,-2.5610e+00, 1.0700e-01,-1.4360e+00, 2.4550e+00, 2.1380e+00,
     -3.9460e+00, 2.3050e+00,-3.9300e-01,-2.4700e+00, 5.0340e+00
    },
    { 2.6630e+00, 3.3200e-01,-1.3130e+00,-1.8800e-01,-1.1600e-01,-1.7510e+00,
      2.3600e-01, 1.8470e+00,-7.8200e-01, 3.1700e+00, 9.1600e-01, 1.7450e+00,
      1.3300e-01, 1.6610e+00, 4.0700e-01, 1.1120e+00,-3.2170e+00, 1.2200e-01,
     -1.9390e+00,-1.4730e+00,-2.8000e-01,-2.6420e+00, 1.8330e+00,-6.7300e-01,
     -4.7920e+00,-4.7200e+00,-2.0400e-01, 3.3090e+00,-6.0860e+00,-1.2300e-01,
     -1.8370e+00,-2.3700e+00,-3.3000e-02,-1.3330e+00, 2.4160e+00, 2.4550e+00,
     -4.4560e+00, 3.5590e+00,-6.2000e-01,-2.8100e+00, 5.0300e+00
    },
    { 2.3470e+00, 3.3500e-01,-1.1930e+00,-3.3000e-01,-2.1300e-01,-1.8140e+00,
      1.4400e-01, 2.0900e+00,-5.2500e-01, 3.0640e+00, 7.4700e-01, 2.0100e+00,
      1.8700e-01, 1.7180e+00, 4.7500e-01, 1.2090e+00,-3.0840e+00, 4.8000e-02,
     -1.9340e+00,-1.4050e+00,-3.2200e-01,-2.8370e+00, 1.6020e+00,-5.1800e-01,
     -4.8670e+00,-4.6090e+00, 8.9000e-02, 3.3070e+00,-5.9540e+00,-4.0000e-02,
     -1.8010e+00,-2.5960e+00,-7.0000e-03,-3.0500e-01, 2.6090e+00, 2.0630e+00,
     -4.4370e+00, 3.9210e+00,-7.5500e-01,-2.8720e+00, 5.4390e+00
    },
    { 2.2370e+00, 1.4700e-01,-1.2230e+00,-3.5300e-01,-8.4300e-01,-2.2950e+00,
     -3.6000e-01, 1.7460e+00,-8.6300e-01, 3.0360e+00, 8.6800e-01, 1.4190e+00,
      4.3900e-01, 1.8300e+00, 5.8600e-01, 1.3730e+00,-3.6930e+00, 7.3000e-02,
     -1.8200e+00,-1.3400e+00,-1.5200e-01,-2.3760e+00, 1.2740e+00,-2.0600e-01,
     -4.3370e+00,-3.9840e+00, 8.2000e-02, 3.1400e+00,-5.8520e+00,-1.2000e-02,
     -2.2010e+00,-2.5820e+00, 5.6600e-01,-8.5800e-01, 3.1320e+00, 2.6370e+00,
     -4.7220e+00, 4.3810e+00,-4.9100e-01,-2.6120e+00, 5.5720e+00
    },
    { 2.3560e+00, 1.2700e-01,-1.2040e+00,-2.1900e-01,-8.8600e-01,-2.2830e+00,
     -3.6800e-01, 1.7250e+00,-1.0150e+00, 2.8440e+00, 6.1400e-01, 1.4880e+00,
      3.5200e-01, 1.6880e+00, 5.7800e-01, 1.2750e+00,-3.8170e+00, 4.4000e-02,
     -1.7950e+00,-1.2300e+00,-4.7000e-02,-2.7420e+00, 1.3640e+00,-3.0900e-01,
     -4.4310e+00,-4.0980e+00,-3.0000e-03, 2.8860e+00,-5.7050e+00,-7.8000e-02,
     -2.2640e+00,-2.2110e+00, 6.2000e-01,-1.1610e+00, 3.0210e+00, 2.0730e+00,
     -5.0560e+00, 4.2120e+00,-6.3500e-01,-2.6440e+00, 5.5890e+00
    },
    { 2.5890e+00, 3.1200e-01,-1.4780e+00,-3.5200e-01,-8.2300e-01,-2.4700e+00,
     -4.3200e-01, 1.8310e+00,-1.0830e+00, 2.8410e+00, 7.0700e-01, 1.6400e+00,
      2.5300e-01, 1.8770e+00, 5.0200e-01, 1.4270e+00,-3.7650e+00, 9.5000e-02,
     -1.7890e+00,-1.0780e+00,-2.5200e-01,-2.3450e+00, 1.1810e+00,-2.0900e-01,
     -4.3010e+00,-4.1880e+00, 5.5000e-02, 3.0420e+00,-5.8030e+00,-4.3000e-02,
     -1.6280e+00,-2.3400e+00, 2.4600e-01,-8.3000e-01, 3.0620e+00, 2.1160e+00,
     -5.0760e+00, 4.3190e+00,-7.9200e-01,-2.1280e+00, 6.0660e+00
    },
    { 2.2460e+00, 4.4000e-02,-1.1300e+00,-1.8400e-01,-5.0100e-01,-2.2500e+00,
     -1.6800e-01, 1.5030e+00,-1.0100e+00, 3.1770e+00, 6.7100e-01, 1.4950e+00,
      4.7500e-01, 1.7560e+00, 5.6600e-01, 1.4450e+00,-3.9010e+00, 5.0000e-02,
     -1.7290e+00,-1.1220e+00,-2.0000e-02,-2.4560e+00, 1.1710e+00,-4.7300e-01,
     -4.7640e+00,-4.4920e+00, 1.2700e-01, 3.0090e+00,-5.6710e+00,-4.0000e-02,
     -2.0520e+00,-2.3770e+00, 2.9200e-01,-6.6000e-01, 3.2600e+00, 2.5120e+00,
     -5.1260e+00, 5.0530e+00,-7.2500e-01,-2.3940e+00, 6.1800e+00
    },
    { 2.0830e+00, 1.9800e-01,-8.8000e-01, 2.6000e-02,-4.2200e-01,-1.7410e+00,
      2.5000e-02, 1.1410e+00,-1.0430e+00, 3.2880e+00, 5.6900e-01, 1.6570e+00,
      2.8900e-01, 1.4160e+00, 3.9000e-01, 1.3470e+00,-3.8740e+00, 1.0900e-01,
     -1.8100e+00,-1.1180e+00,-3.3000e-02,-2.2600e+00, 1.1390e+00,-1.6100e-01,
     -4.7460e+00,-4.3590e+00, 2.7300e-01, 2.9340e+00,-5.6390e+00,-7.1000e-02,
     -1.6700e+00,-2.9840e+00, 1.2100e-01,-9.2900e-01, 3.6790e+00, 2.4880e+00,
     -4.4590e+00, 4.9230e+00,-4.0700e-01,-2.7550e+00, 5.5420e+00
    },
    { 2.1200e+00, 1.1700e-01,-1.0500e+00,-1.5200e-01,-3.1900e-01,-1.7420e+00,
      1.3200e-01, 1.5410e+00,-1.1860e+00, 3.3480e+00, 6.1700e-01, 1.7570e+00,
      1.5700e-01, 1.6440e+00, 3.8300e-01, 1.3720e+00,-4.1460e+00, 4.7000e-02,
     -1.9860e+00,-1.2500e+00,-2.8000e-02,-2.3910e+00, 1.1760e+00,-5.1200e-01,
     -4.8290e+00,-4.5720e+00, 3.8400e-01, 2.9630e+00,-5.7160e+00,-1.1400e-01,
     -2.2240e+00,-2.5470e+00, 1.0500e-01,-7.2100e-01, 3.7560e+00, 2.1170e+00,
     -4.0930e+00, 4.5570e+00,-3.9100e-01,-2.9160e+00, 5.3190e+00
    },
    { 2.1930e+00, 2.4700e-01,-9.7300e-01,-9.1000e-02,-5.2200e-01,-1.9470e+00,
      2.5100e-01, 1.4740e+00,-8.7000e-01, 3.0890e+00, 6.1300e-01, 1.6340e+00,
     -1.4000e-02, 1.7730e+00, 5.0400e-01, 1.4440e+00,-4.1680e+00, 1.6800e-01,
     -1.7930e+00,-1.3080e+00,-1.0100e-01,-2.0980e+00, 1.3720e+00,-4.5000e-01,
     -5.0870e+00,-4.8790e+00, 4.4100e-01, 3.0260e+00,-5.6500e+00,-7.8000e-02,
     -2.0820e+00,-2.1870e+00,-5.9000e-02,-7.3200e-01, 2.9590e+00, 2.3900e+00,
     -4.2520e+00, 4.5040e+00,-4.1700e-01,-3.1840e+00, 5.5760e+00
    },
    { 1.8350e+00, 3.5400e-01,-8.9000e-01, 1.4900e-01,-3.7000e-01,-1.7960e+00,
      2.7600e-01, 1.4950e+00,-9.7700e-01, 3.1560e+00, 7.7800e-01, 1.7270e+00,
      2.0100e-01, 1.8520e+00, 3.3800e-01, 1.4870e+00,-4.4690e+00, 2.2000e-02,
     -1.9180e+00,-1.4520e+00,-7.7000e-02,-2.4600e+00, 9.2500e-01,-5.3900e-01,
     -5.2030e+00,-4.8150e+00, 3.3500e-01, 2.7680e+00,-5.2850e+00,-6.0000e-03,
     -2.2870e+00,-2.4980e+00, 5.0700e-01,-8.3700e-01, 2.4220e+00, 2.8270e+00,
     -3.5910e+00, 3.9580e+00,-4.5400e-01,-3.2550e+00, 5.2970e+00
    },
    { 1.9800e+00, 1.1200e-01,-8.7100e-01,-8.7000e-02,-3.0300e-01,-2.0540e+00,
      3.8900e-01, 1.5310e+00,-8.7900e-01, 3.2280e+00, 7.6200e-01, 1.7220e+00,
     -1.9500e-01, 1.8360e+00, 3.8600e-01, 1.5480e+00,-4.5910e+00, 1.4100e-01,
     -1.7750e+00,-1.4000e+00,-7.5000e-02,-2.5400e+00, 1.2600e+00,-5.9100e-01,
     -5.0420e+00,-4.8400e+00, 1.0300e-01, 2.9110e+00,-5.4440e+00,-6.5000e-02,
     -2.6160e+00,-2.0790e+00, 1.9900e-01,-1.0350e+00, 2.6760e+00, 3.0500e+00,
     -3.4270e+00, 3.4430e+00,-3.4500e-01,-3.0490e+00, 5.7000e+00
    },
    { 1.9360e+00, 1.9600e-01,-8.1900e-01, 4.8000e-02,-3.1500e-01,-2.0120e+00,
      1.7300e-01, 1.4590e+00,-9.6200e-01, 3.1730e+00, 8.0600e-01, 1.4950e+00,
      2.7500e-01, 1.6600e+00, 4.7200e-01, 1.5900e+00,-4.7510e+00,-1.7000e-02,
     -1.9920e+00,-1.4910e+00,-1.0800e-01,-2.8920e+00, 1.1720e+00,-3.8200e-01,
     -5.1710e+00,-4.7100e+00, 3.9000e-02, 2.9360e+00,-5.4420e+00,-1.2500e-01,
     -2.1070e+00,-2.7360e+00, 3.0200e-01,-6.1500e-01, 2.7760e+00, 2.7780e+00,
     -3.2770e+00, 3.7310e+00,-4.5600e-01,-2.5750e+00, 4.9050e+00
    },
    { 1.9560e+00, 1.4600e-01,-8.9000e-01,-1.2000e-02,-3.4000e-02,-2.1390e+00,
      3.4000e-01, 1.0820e+00,-6.2600e-01, 3.0210e+00, 5.9900e-01, 1.6770e+00,
      8.9000e-02, 1.5110e+00, 4.4100e-01, 1.4830e+00,-4.5940e+00, 1.2100e-01,
     -1.6740e+00,-1.3440e+00,-4.1700e-01,-3.2320e+00, 1.6160e+00,-1.4800e-01,
     -5.2120e+00,-5.1060e+00, 2.4500e-01, 2.8450e+00,-5.3320e+00,-1.8500e-01,
     -1.8610e+00,-2.9520e+00,-7.4000e-02,-6.8100e-01, 2.8510e+00, 2.9020e+00,
     -3.5030e+00, 3.2190e+00,-3.2500e-01,-2.2580e+00, 5.1740e+00
    },
    { 2.3740e+00, 3.1400e-01,-1.0450e+00, 5.5000e-02,-2.7700e-01,-1.7850e+00,
      2.7600e-01, 9.5100e-01,-6.2600e-01, 3.2990e+00, 6.6600e-01, 1.7560e+00,
      3.7000e-02, 1.3180e+00, 4.0400e-01, 1.6320e+00,-4.9730e+00, 1.1000e-02,
     -1.6580e+00,-1.2560e+00,-7.2000e-02,-2.9690e+00, 1.8800e+00,-1.6500e-01,
     -4.7690e+00,-4.8000e+00, 1.9500e-01, 2.9890e+00,-5.4730e+00,-9.2000e-02,
     -2.9000e+00,-2.2590e+00, 2.5500e-01,-7.2200e-01, 3.3510e+00, 3.0490e+00,
     -3.2380e+00, 3.2680e+00,-3.2400e-01,-2.2940e+00, 5.2560e+00
    }
  };


  double netfun(std::vector<double>& in, const double* w)
  {
    double x00 = in[0];
    double x01 = in[1];
    double x;

    //Layer 1, Node 0
    x = w[0];
    x = x + w[1] * x00;
    x = x + w[2] * x01;
    double x10 = tanh(x);

    //Layer 1, Node 1
    x = w[3];
    x = x + w[4] * x00;
    x = x + w[5] * x01;
    double x11 = tanh(x);

    //Layer 1, Node 2
    x = w[6];
    x = x + w[7] * x00;
    x = x + w[8] * x01;
    double x12 = tanh(x);

    //Layer 1, Node 3
    x = w[9];
    x = x + w[10] * x00;
    x = x + w[11] * x01;
    double x13 = tanh(x);

    //Layer 1, Node 4
    x = w[12];
    x = x + w[13] * x00;
    x = x + w[14] * x01;
    double x14 = tanh(x);

    //Layer 1, Node 5
    x = w[15];
    x = x + w[16] * x00;
    x = x + w[17] * x01;
    double x15 = tanh(x);

    //Layer 1, Node 6
    x = w[18];
    x = x + w[19] * x00;
    x = x + w[20] * x01;
    double x16 = tanh(x);

    //Layer 1, Node 7
    x = w[21];
    x = x + w[22] * x00;
    x = x + w[23] * x01;
    double x17 = tanh(x);

    //Layer 1, Node 8
    x = w[24];
    x = x + w[25] * x00;
    x = x + w[26] * x01;
    double x18 = tanh(x);

    //Layer 1, Node 9
    x = w[27];
    x = x + w[28] * x00;
    x = x + w[29] * x01;
    double x19 = tanh(x);

    //Layer 2, Node 0
    x = w[30];
    x = x + w[31] * x10;
    x = x + w[32] * x11;
    x = x + w[33] * x12;
    x = x + w[34] * x13;
    x = x + w[35] * x14;
    x = x + w[36] * x15;
    x = x + w[37] * x16;
    x = x + w[38] * x17;
    x = x + w[39] * x18;
    x = x + w[40] * x19;
    double x20 = 1.0/(1.0+exp(-x));
    return x20;
  }
} // End anonymous namespace

//-----------------------------------------------------------------------------
// Compute average over networks. Default is to use all networks
//-----------------------------------------------------------------------------

double m4lmela(std::vector<double>& inputs,
               int first=0,
               int last=nnetworks-1)
{
  if ( first < 0 ) first = 0;
  if ( last  < 0 ) last  = nnetworks-1;
  if ( last  > nnetworks-1 ) last = nnetworks-1;
  if ( first > last )
    {
      std::cerr << "** m4lmela ** first-index > last-index"
                << std::endl; exit(3);
    }

  // Compute average over networks
  std::vector<double> in(ninputs);
  in[0] = (inputs[0] - mean[0]) / sigma[0];
  in[1] = (inputs[1] - mean[1]) / sigma[1];

  int   n = last - first + 1;
  double x = 0.0;
  for(int i=first; i <= last; i++) x += netfun(in, weight[i]);
  x /= n;
  return x;
}

double m4lmela(double f_mass4l,
               double f_D_bkg_kin,
               int first=0, int last=nnetworks-1)
{
  std::vector<double> in(ninputs);
  in[0] = f_mass4l;
  in[1] = f_D_bkg_kin;
  return m4lmela(in, first, last);
}
